{"type":"LSTM","options":{"inputSize":29,"inputRange":29,"hiddenLayers":[20,20],"outputSize":29,"decayRate":0.999,"smoothEps":1e-8,"regc":0.000001,"clipval":5,"maxPredictionLength":100,"dataFormatter":{"values":["HelloWorld1","1","HelloWorld2","2","HelloWorld3","3","Kristian1","Kristian2","Kristian3","Laney1","Laney2","Laney3","Laney4","4","Laney5","5","Adi1","Adi2","Adi3","Adi4","Adi5","HelloWorld4","HelloWorld5","HelloWorld6","6","HelloWorld7","7","HelloWorld8","8","HelloWorld9","9","HelloWorld10","10","Kristian4","Kristian5","Kristian6","Kristian7","Kristian8","Kristian9","Kristian10","Kristian11","11","Kristian12","12","Kristian13","13","Kristian14","14","Kristian15","15","Kristian16","16","Kristian17","17","Kristian18","18","Kristian19","19","Kristian20","20","Kristian50","50","Kristian500","500","Kristian100","100","HelloWorld50","HelloWorld55","55","HelloWorld100","HelloWorld110","110","HelloWorld1000","1000","HelloWorld1150","1150","Adi6","Adi7","Adi8","Adi9","Adi10","Adi11","Adi12","Adi13","Adi14","Adi15","Adi16","Adi17","Adi18","Adi19","Adi20","Adi23","23","Adi25","25","Adi21","21","Adi22","22","Adi24","24","Adi26","26","Adi27","27","Adi28","28","Adi29","29","Adi30","30","Adi35","35","Adi40","40","Adi45","45","Adi50","Adi55","Adi60","60","Adi65","65","Adi70","70","Adi100","Adi105","105","Adi110","Adi115","115","HelloWorld105","HelloWorld115","HelloWorld120","120","Adi200","200","Adi180","180"],"indexTable":{"0":25,"1":7,"2":8,"3":9,"4":18,"5":19,"6":21,"7":22,"8":23,"9":24,"H":0,"e":1,"l":2,"o":3,"W":4,"r":5,"d":6,"K":10,"i":11,"s":12,"t":13,"a":14,"n":15,"L":16,"y":17,"A":20,"stop-input":26,"start-output":27,"unrecognized":28},"characterTable":{"0":"H","1":"e","2":"l","3":"o","4":"W","5":"r","6":"d","7":"1","8":"2","9":"3","10":"K","11":"i","12":"s","13":"t","14":"a","15":"n","16":"L","17":"y","18":"4","19":"5","20":"A","21":"6","22":"7","23":"8","24":"9","25":"0","26":null,"27":null,"28":null},"characters":["H","e","l","o","W","r","d","1","2","3","K","i","s","t","a","n","L","y","4","5","A","6","7","8","9","0","stop-input","start-output","unrecognized"],"specialIndexes":[26,27,28]}},"input":{"rows":30,"columns":29,"weights":{"0":0.1355496197938919,"1":1.0065752267837524,"2":0.09208176285028458,"3":1.9448304176330566,"4":0.467410147190094,"5":-1.2129446268081665,"6":-0.8308625817298889,"7":1.1978697776794434,"8":-0.5675960779190063,"9":1.146489143371582,"10":-1.1091997623443604,"11":-0.07136806100606918,"12":1.7260212898254395,"13":0.43615737557411194,"14":0.024626389145851135,"15":0.3471600115299225,"16":-0.08852361887693405,"17":0.8948143124580383,"18":0.12805119156837463,"19":-0.844673752784729,"20":0.4639037251472473,"21":-0.6239892840385437,"22":0.41176944971084595,"23":-0.9195041656494141,"24":-0.67638099193573,"25":1.7069987058639526,"26":-1.5237497091293335,"27":-0.24772167205810547,"28":0.6744107604026794,"29":2.7220656871795654,"30":-1.565102458000183,"31":0.9667535424232483,"32":3.0287580490112305,"33":-0.6492775082588196,"34":-1.7606405019760132,"35":-0.4121379256248474,"36":2.1204206943511963,"37":-3.6824731826782227,"38":0.8726767897605896,"39":4.741221904754639,"40":1.9456028938293457,"41":-1.3292677402496338,"42":-0.7293878793716431,"43":1.496138572692871,"44":-1.1920057535171509,"45":-0.29083195328712463,"46":-0.6843537092208862,"47":-1.1411572694778442,"48":-2.35776686668396,"49":0.7984799742698669,"50":5.082767963409424,"51":2.5312278270721436,"52":-0.8643121719360352,"53":1.5721346139907837,"54":-0.7667011618614197,"55":0.5475676655769348,"56":-1.999833106994629,"57":1.719672679901123,"58":-0.9869568347930908,"59":5.903343677520752,"60":-0.48284706473350525,"61":-1.3677589893341064,"62":-0.3455423414707184,"63":1.8096541166305542,"64":1.6232669353485107,"65":-1.417382001876831,"66":-0.40945345163345337,"67":-4.8140974044799805,"68":2.0539987087249756,"69":-0.9392721056938171,"70":-0.8351044058799744,"71":1.9993255138397217,"72":1.454088807106018,"73":1.0738683938980103,"74":0.5233516693115234,"75":-3.0555508136749268,"76":-4.388676643371582,"77":0.026520434767007828,"78":-0.6038671135902405,"79":-4.541619777679443,"80":-1.860357403755188,"81":3.8922417163848877,"82":-4.020418167114258,"83":0.06338581442832947,"84":-2.4127869606018066,"85":-0.5066766142845154,"86":-0.24996379017829895,"87":-2.5084404945373535,"88":-7.058339595794678,"89":-4.09428071975708,"90":10.189911842346191,"91":2.9787654876708984,"92":-8.2544527053833,"93":3.475414514541626,"94":-0.7165100574493408,"95":-9.967839241027832,"96":-6.853540420532227,"97":-6.964809417724609,"98":-5.208089828491211,"99":7.557426929473877,"100":2.3967859745025635,"101":-4.507960796356201,"102":-4.5009050369262695,"103":-2.2935068607330322,"104":-0.36848658323287964,"105":2.534990072250366,"106":-9.708098411560059,"107":0.40664437413215637,"108":-6.919520378112793,"109":3.3461406230926514,"110":-2.7855026721954346,"111":-1.5103743076324463,"112":3.354658603668213,"113":-1.3915263414382935,"114":-5.827049732208252,"115":1.9009593725204468,"116":1.3790898323059082,"117":3.3072688579559326,"118":4.658090114593506,"119":-0.2503247857093811,"120":-2.0134754180908203,"121":2.3816959857940674,"122":-2.1411972045898438,"123":-1.532907485961914,"124":-0.4164668917655945,"125":-0.744134783744812,"126":5.8440704345703125,"127":8.294342041015625,"128":-3.064695119857788,"129":0.2727941572666168,"130":0.6500386595726013,"131":0.352786660194397,"132":3.1734673976898193,"133":-3.629648447036743,"134":-2.81772518157959,"135":0.9175255298614502,"136":-7.590648651123047,"137":1.6228752136230469,"138":0.4327790141105652,"139":1.6037931442260742,"140":-0.525344967842102,"141":-2.2150657176971436,"142":-1.8629273176193237,"143":-0.5525342226028442,"144":4.529294013977051,"145":4.170907020568848,"146":0.7928389310836792,"147":2.3398072719573975,"148":6.546070575714111,"149":1.2460206747055054,"150":1.693042516708374,"151":-4.509288311004639,"152":5.0542988777160645,"153":-4.067989826202393,"154":0.5876840353012085,"155":-1.534576654434204,"156":-3.604949951171875,"157":2.8637681007385254,"158":4.329294681549072,"159":3.94045090675354,"160":3.701850414276123,"161":0.9699656367301941,"162":2.1625142097473145,"163":-3.587012767791748,"164":-6.962887287139893,"165":-3.436687469482422,"166":-4.0168561935424805,"167":0.8182011842727661,"168":4.1726603507995605,"169":-2.4778690338134766,"170":6.229106903076172,"171":-3.157667398452759,"172":-1.0698890686035156,"173":3.4528212547302246,"174":3.589956521987915,"175":-1.0149883031845093,"176":-2.072319746017456,"177":-2.0664827823638916,"178":-1.54318106174469,"179":1.376729965209961,"180":-1.0452359914779663,"181":-1.0856294631958008,"182":2.4142723083496094,"183":2.5502452850341797,"184":-0.7798210382461548,"185":0.8348860144615173,"186":-2.8609976768493652,"187":-1.0719650983810425,"188":-4.193390369415283,"189":-0.7233095765113831,"190":-3.638000726699829,"191":-1.2838475704193115,"192":-0.37996432185173035,"193":1.4148818254470825,"194":-0.9171978831291199,"195":-0.8375328183174133,"196":-1.075875997543335,"197":-1.0032222270965576,"198":0.6617599725723267,"199":-0.7958625555038452,"200":-0.33031004667282104,"201":2.841561794281006,"202":0.8306561708450317,"203":-0.42898550629615784,"204":-0.8988259434700012,"205":-0.5573055744171143,"206":-1.4338116645812988,"207":-3.057657241821289,"208":-1.865468144416809,"209":0.5059937834739685,"210":-3.1549408435821533,"211":2.42179799079895,"212":-1.158652901649475,"213":-6.397082328796387,"214":-0.6697147488594055,"215":-1.574664831161499,"216":-1.9368278980255127,"217":-0.720515787601471,"218":-2.7500696182250977,"219":2.8441824913024902,"220":-4.841464996337891,"221":0.980597198009491,"222":1.2201390266418457,"223":-2.6797661781311035,"224":-2.6251139640808105,"225":-2.5080347061157227,"226":-0.8184381723403931,"227":3.0261359214782715,"228":-3.7785112857818604,"229":0.09078722447156906,"230":-0.628836989402771,"231":3.2190921306610107,"232":4.979156970977783,"233":-0.9718111157417297,"234":-1.6928788423538208,"235":-3.2486467361450195,"236":-4.419216156005859,"237":4.574943542480469,"238":4.653170108795166,"239":-5.667993068695068,"240":3.845831871032715,"241":-1.6702704429626465,"242":5.8881683349609375,"243":1.4367562532424927,"244":-5.42734956741333,"245":-1.6691186428070068,"246":2.259253740310669,"247":-0.20210082828998566,"248":-1.5654840469360352,"249":-4.474282741546631,"250":-4.2415056228637695,"251":4.479966640472412,"252":3.474917411804199,"253":-3.9438915252685547,"254":3.2670154571533203,"255":4.806125164031982,"256":-0.2558926045894623,"257":-4.089610576629639,"258":1.7872422933578491,"259":-1.3169282674789429,"260":-2.3793296813964844,"261":-1.3292789459228516,"262":4.92090368270874,"263":1.1208349466323853,"264":-6.92598819732666,"265":-0.04047449305653572,"266":11.743986129760742,"267":-3.532956600189209,"268":-6.78495979309082,"269":2.155714273452759,"270":3.644728660583496,"271":-1.6785489320755005,"272":-3.225107192993164,"273":-3.0854973793029785,"274":2.9906325340270996,"275":-4.349408149719238,"276":5.9530558586120605,"277":-4.8807549476623535,"278":-3.742645025253296,"279":-4.558966159820557,"280":2.4914753437042236,"281":-6.497070789337158,"282":-5.348607540130615,"283":-12.847208976745605,"284":0.7107516527175903,"285":-7.872725009918213,"286":-5.2976179122924805,"287":-9.157827377319336,"288":0.48764899373054504,"289":8.6445894241333,"290":6.7805562019348145,"291":7.4044904708862305,"292":7.35698127746582,"293":7.865995407104492,"294":5.875312805175781,"295":3.4524760246276855,"296":-7.0647196769714355,"297":5.873186111450195,"298":-3.0368103981018066,"299":3.5624802112579346,"300":7.313416481018066,"301":1.5202516317367554,"302":0.0867229774594307,"303":2.542400598526001,"304":3.251750946044922,"305":5.512771129608154,"306":0.20618459582328796,"307":2.350961685180664,"308":3.2198984622955322,"309":-10.28989028930664,"310":4.926374435424805,"311":3.594045639038086,"312":7.905598163604736,"313":-1.5966910123825073,"314":0.19454918801784515,"315":8.345590591430664,"316":-4.359825134277344,"317":-10.314994812011719,"318":1.1064152717590332,"319":0.8172666430473328,"320":0.6378106474876404,"321":-0.15520548820495605,"322":-0.8644039630889893,"323":-2.7114126682281494,"324":1.3438950777053833,"325":2.9027721881866455,"326":-2.196993827819824,"327":1.9804292917251587,"328":-1.4791717529296875,"329":0.1148456260561943,"330":-1.7938623428344727,"331":-0.09270080178976059,"332":-0.6864945888519287,"333":-1.6891145706176758,"334":-1.7895917892456055,"335":0.6595436930656433,"336":-1.3914426565170288,"337":-0.44533658027648926,"338":2.6538116931915283,"339":-0.2883252501487732,"340":0.09067530930042267,"341":-2.5919690132141113,"342":2.1710433959960938,"343":1.1427439451217651,"344":-0.34000006318092346,"345":0.8315985202789307,"346":-0.020514316856861115,"347":0.1764277070760727,"348":3.5353927612304688,"349":0.13235005736351013,"350":-0.3545437455177307,"351":-0.9125961065292358,"352":1.5802865028381348,"353":1.998242735862732,"354":-3.392808675765991,"355":1.2246699333190918,"356":0.8679261207580566,"357":4.199053764343262,"358":1.2444496154785156,"359":2.053802013397217,"360":0.02286151796579361,"361":0.1825474500656128,"362":-2.109743356704712,"363":0.007011094130575657,"364":1.296308994293213,"365":1.209612488746643,"366":-2.422790765762329,"367":0.5686777234077454,"368":-2.6103010177612305,"369":-0.4508199989795685,"370":0.7253648638725281,"371":2.12835955619812,"372":1.0605720281600952,"373":-0.17587627470493317,"374":0.671972393989563,"375":1.8475611209869385,"376":0.10716868937015533,"377":6.030872344970703,"378":-0.6600201725959778,"379":0.39446011185646057,"380":3.148404121398926,"381":3.126814603805542,"382":-2.0762064456939697,"383":-1.6737385988235474,"384":-6.345548152923584,"385":-0.537139892578125,"386":3.7957730293273926,"387":2.4846351146698,"388":0.8902546763420105,"389":-3.186819314956665,"390":-2.6133151054382324,"391":0.47859659790992737,"392":-0.14195740222930908,"393":1.6148028373718262,"394":-4.503708839416504,"395":-3.1864960193634033,"396":-1.4754518270492554,"397":-2.0331552028656006,"398":-8.261054039001465,"399":3.238539934158325,"400":-3.149698495864868,"401":-2.9886887073516846,"402":-2.643322229385376,"403":-0.7428752183914185,"404":-0.8790258169174194,"405":3.4631552696228027,"406":1.100090742111206,"407":-7.066487789154053,"408":-4.581387042999268,"409":-0.6771553158760071,"410":-0.48686036467552185,"411":-0.8651635646820068,"412":-0.3942195177078247,"413":-2.9329161643981934,"414":-1.4448660612106323,"415":-1.1539973020553589,"416":8.369744300842285,"417":4.372798442840576,"418":-4.998106956481934,"419":-6.487394332885742,"420":0.9104857444763184,"421":-5.917953014373779,"422":-4.039611339569092,"423":-1.0080678462982178,"424":-5.767881393432617,"425":-0.38573169708251953,"426":0.41258713603019714,"427":-1.7599412202835083,"428":2.8094351291656494,"429":0.35032525658607483,"430":-0.37101998925209045,"431":-8.522729873657227,"432":7.03499174118042,"433":-1.5240256786346436,"434":-2.1152548789978027,"435":2.028886556625366,"436":-2.336965799331665,"437":1.398457646369934,"438":-3.934788465499878,"439":-0.01865672878921032,"440":2.411412000656128,"441":-2.4070701599121094,"442":0.09033183753490448,"443":1.3310960531234741,"444":3.8770647048950195,"445":-1.0865179300308228,"446":-1.0004899501800537,"447":-3.1361536979675293,"448":-1.3877605199813843,"449":0.051826152950525284,"450":-2.499562978744507,"451":-3.8919992446899414,"452":-1.7416507005691528,"453":1.0322223901748657,"454":3.478872299194336,"455":-4.359134674072266,"456":-0.09161031991243362,"457":-1.7527841329574585,"458":0.7075129151344299,"459":1.4253050088882446,"460":-3.0519936084747314,"461":1.9745240211486816,"462":1.5594298839569092,"463":-1.8896174430847168,"464":3.173299789428711,"465":2.5516159534454346,"466":2.149115800857544,"467":1.8717632293701172,"468":1.0663095712661743,"469":-0.7953871488571167,"470":-7.208148002624512,"471":-0.9337437152862549,"472":0.5278619527816772,"473":3.4612832069396973,"474":-1.1747320890426636,"475":0.6273362040519714,"476":-2.968351125717163,"477":2.8424062728881836,"478":-2.599581241607666,"479":3.7314767837524414,"480":-2.481187105178833,"481":-3.6560378074645996,"482":1.8386428356170654,"483":-1.5373769998550415,"484":-6.738347053527832,"485":3.8039913177490234,"486":-3.07491397857666,"487":-0.07338176667690277,"488":-2.306654214859009,"489":-4.402376174926758,"490":-5.965287685394287,"491":-0.4042433500289917,"492":6.251557350158691,"493":2.7780635356903076,"494":-6.624314785003662,"495":8.8671236038208,"496":-3.6643481254577637,"497":-6.3500895500183105,"498":0.2819581925868988,"499":-5.948609828948975,"500":-4.217222690582275,"501":4.088506698608398,"502":7.9982781410217285,"503":5.1349921226501465,"504":11.599431991577148,"505":-6.277760028839111,"506":-15.633021354675293,"507":-3.996528387069702,"508":-4.055349349975586,"509":-11.795323371887207,"510":-8.04696273803711,"511":-8.66283130645752,"512":5.417147159576416,"513":0.37479668855667114,"514":-2.931309223175049,"515":12.509390830993652,"516":0.7403537631034851,"517":14.370247840881348,"518":-3.293337821960449,"519":2.110988140106201,"520":10.455416679382324,"521":0.39649930596351624,"522":9.571454048156738,"523":-0.7361702919006348,"524":-14.612936973571777,"525":-0.6599476933479309,"526":-1.774189829826355,"527":5.275741100311279,"528":-7.199496746063232,"529":-5.093769073486328,"530":4.294408798217773,"531":10.850628852844238,"532":-18.744991302490234,"533":2.956204652786255,"534":-20.32789421081543,"535":-4.396702766418457,"536":-5.907890319824219,"537":1.8823726177215576,"538":-2.9095022678375244,"539":-1.596298336982727,"540":18.100086212158203,"541":-0.5877294540405273,"542":1.4702818393707275,"543":-5.72934627532959,"544":-3.8814682960510254,"545":5.441277503967285,"546":4.27863073348999,"547":-11.222967147827148,"548":10.106588363647461,"549":5.714148998260498,"550":18.768787384033203,"551":-4.510898113250732,"552":11.029818534851074,"553":0.6018540263175964,"554":-9.52744197845459,"555":-4.6503777503967285,"556":9.484930038452148,"557":9.101241111755371,"558":5.077725887298584,"559":7.218286514282227,"560":-3.598550319671631,"561":2.2387068271636963,"562":0.6470543742179871,"563":9.330552101135254,"564":0.3526475727558136,"565":5.0796685218811035,"566":5.601304531097412,"567":-6.323155879974365,"568":8.241743087768555,"569":3.006953477859497,"570":2.9628641605377197,"571":4.9956183433532715,"572":1.6486436128616333,"573":4.451649188995361,"574":1.3764126300811768,"575":-4.010292053222656,"576":7.25053071975708,"577":-9.629453659057617,"578":-2.8209609985351562,"579":-5.456207275390625,"580":3.544344186782837,"581":-3.281608819961548,"582":4.146486282348633,"583":-2.665877103805542,"584":1.3231302499771118,"585":3.537818193435669,"586":-2.8171660900115967,"587":0.13036049902439117,"588":-3.830129861831665,"589":0.9926149845123291,"590":4.928094863891602,"591":10.075129508972168,"592":-3.7938716411590576,"593":-3.3718879222869873,"594":-10.524248123168945,"595":-1.5497546195983887,"596":-2.077751874923706,"597":5.577329635620117,"598":2.1770670413970947,"599":1.2032562494277954,"600":7.689861297607422,"601":-2.4244933128356934,"602":1.6594330072402954,"603":-2.0897741317749023,"604":2.0577197074890137,"605":2.184429883956909,"606":0.05392647907137871,"607":-1.7009400129318237,"608":-1.533280611038208,"609":-1.3620437383651733,"610":-3.931530237197876,"611":-3.818927526473999,"612":0.3053840696811676,"613":-4.978055477142334,"614":-1.9401155710220337,"615":6.081172466278076,"616":-6.928527355194092,"617":4.719799995422363,"618":-7.784524917602539,"619":-0.7980057001113892,"620":1.7094320058822632,"621":-0.3315601348876953,"622":-2.3820672035217285,"623":2.7024431228637695,"624":-5.369419097900391,"625":2.6882805824279785,"626":-5.853277206420898,"627":0.6533961892127991,"628":3.2785699367523193,"629":1.8084107637405396,"630":-1.5768566131591797,"631":-2.603499412536621,"632":0.6048099398612976,"633":3.2338852882385254,"634":-4.230330944061279,"635":4.425084114074707,"636":3.6133663654327393,"637":3.8510565757751465,"638":-0.4678058326244354,"639":-9.456168174743652,"640":-1.2866727113723755,"641":5.8527092933654785,"642":0.6536580920219421,"643":-3.594654083251953,"644":-3.7073628902435303,"645":-2.670868396759033,"646":-0.5770925283432007,"647":13.958948135375977,"648":4.862874984741211,"649":4.633212566375732,"650":-6.110752582550049,"651":-1.6191844940185547,"652":-5.080833911895752,"653":-0.1220807209610939,"654":-8.316230773925781,"655":-5.3913373947143555,"656":3.960648536682129,"657":-1.996881127357483,"658":-0.35111498832702637,"659":5.122903347015381,"660":2.15432071685791,"661":-2.693378448486328,"662":-1.439239263534546,"663":-4.86268949508667,"664":4.895546913146973,"665":-0.8055622577667236,"666":4.312442779541016,"667":1.9944437742233276,"668":-9.833844184875488,"669":1.148533582687378,"670":3.284187078475952,"671":4.767093181610107,"672":0.06208599731326103,"673":-12.020805358886719,"674":-0.6610249280929565,"675":-14.284679412841797,"676":6.0103983879089355,"677":3.3135221004486084,"678":5.721992492675781,"679":-2.350094795227051,"680":-1.2173045873641968,"681":1.9313750267028809,"682":-3.871941566467285,"683":-1.0410829782485962,"684":-4.181145668029785,"685":1.380277395248413,"686":-8.922300338745117,"687":2.458522081375122,"688":-0.9359314441680908,"689":6.461936950683594,"690":-1.8409595489501953,"691":4.279939651489258,"692":-2.95074200630188,"693":10.165175437927246,"694":-12.145195960998535,"695":2.6475470066070557,"696":7.5280022621154785,"697":10.585948944091797,"698":3.627732276916504,"699":-9.55522632598877,"700":1.1200851202011108,"701":6.649624824523926,"702":-2.91025972366333,"703":3.801837682723999,"704":4.17885160446167,"705":-2.77280330657959,"706":-5.289198875427246,"707":-0.818717896938324,"708":-1.147659182548523,"709":5.371444225311279,"710":-13.405913352966309,"711":7.365151882171631,"712":0.4091094136238098,"713":4.509347438812256,"714":-4.794996738433838,"715":8.136100769042969,"716":-15.196946144104004,"717":-5.149818420410156,"718":-12.129487991333008,"719":5.69952392578125,"720":-4.511143207550049,"721":-4.811721324920654,"722":-7.29173469543457,"723":7.843639373779297,"724":8.985503196716309,"725":0.898621678352356,"726":7.788981914520264,"727":10.14174747467041,"728":-1.649735689163208,"729":-3.2407915592193604,"730":-7.561404705047607,"731":-1.264493465423584,"732":11.492660522460938,"733":1.7366900444030762,"734":-1.148531436920166,"735":2.051185369491577,"736":-9.196681022644043,"737":10.392677307128906,"738":8.380106925964355,"739":10.406067848205566,"740":0.549190878868103,"741":3.149019479751587,"742":13.630617141723633,"743":5.606604099273682,"744":0.6810850501060486,"745":-5.416261672973633,"746":7.052271366119385,"747":-6.13913631439209,"748":1.3374871015548706,"749":-4.645630836486816,"750":10.156312942504883,"751":-9.689170837402344,"752":7.3673505783081055,"753":-7.947306156158447,"754":9.079728126525879,"755":-3.1840736865997314,"756":-4.331082820892334,"757":1.4598551988601685,"758":-2.6120548248291016,"759":-1.5666685104370117,"760":1.1265947818756104,"761":5.26317024230957,"762":0.6446467638015747,"763":2.247209310531616,"764":1.2303303480148315,"765":0.6857901811599731,"766":-1.1986737251281738,"767":0.40958234667778015,"768":-3.5171024799346924,"769":-7.493412494659424,"770":0.48203980922698975,"771":4.792792797088623,"772":-4.37882661819458,"773":-0.7502084374427795,"774":3.439049005508423,"775":1.3136059045791626,"776":1.3955248594284058,"777":0.8587788343429565,"778":0.8034932613372803,"779":-4.273019313812256,"780":5.171075344085693,"781":5.748075485229492,"782":8.548846244812012,"783":-0.16213274002075195,"784":-0.18750734627246857,"785":-1.1387370824813843,"786":-0.33230912685394287,"787":-1.2752599716186523,"788":-0.4392934739589691,"789":0.8117915987968445,"790":-0.3045099079608917,"791":0.37374064326286316,"792":-0.9633252620697021,"793":0.45162203907966614,"794":0.09822629392147064,"795":-0.27203983068466187,"796":-0.27111393213272095,"797":-1.5032392740249634,"798":-0.29270729422569275,"799":-0.007016928866505623,"800":0.012057237327098846,"801":-0.08773360401391983,"802":0.01735304668545723,"803":-0.09947994351387024,"804":-0.06847353279590607,"805":-0.1680125892162323,"806":-0.14499814808368683,"807":0.17936454713344574,"808":-0.9456301927566528,"809":0.2434486597776413,"810":0.4336104691028595,"811":0.24082835018634796,"812":-0.26163598895072937,"813":1.4678336381912231,"814":-1.2961952686309814,"815":-3.28029465675354,"816":-0.6856318116188049,"817":2.207599639892578,"818":0.8807989358901978,"819":-1.1518865823745728,"820":2.642486333847046,"821":-0.23073334991931915,"822":1.106486201286316,"823":0.3777135908603668,"824":0.5732709169387817,"825":-0.8846054077148438,"826":-1.9461400508880615,"827":2.468446969985962,"828":-0.0838063433766365,"829":0.2984907627105713,"830":-0.26104941964149475,"831":1.7709580659866333,"832":0.32015883922576904,"833":-0.4168933928012848,"834":-2.1668710708618164,"835":1.4183592796325684,"836":0.35054951906204224,"837":0.4686983823776245,"838":-0.20223388075828552,"839":1.3948655128479004,"840":-0.3480195999145508,"841":0.015310574322938919,"842":-0.010444861836731434,"843":0.047001395374536514,"844":0.04481317102909088,"845":0.006280231289565563,"846":-0.006192795932292938,"847":0.06003951653838158,"848":0.024315405637025833,"849":-0.02153201587498188,"850":0.02601505070924759,"851":-0.03404570370912552,"852":0.034403327852487564,"853":0.038078393787145615,"854":0.07218056172132492,"855":0.014066101051867008,"856":0.06341266632080078,"857":-0.018668893724679947,"858":-0.0045446110889315605,"859":0.0268439669162035,"860":0.07327645272016525,"861":-0.04773401468992233,"862":-0.021452277898788452,"863":0.07137016206979752,"864":0.05262327566742897,"865":0.014272110536694527,"866":0.021910471841692924,"867":0.002667294815182686,"868":-0.04970432445406914,"869":0.05134985223412514}},"hiddenLayers":[{"inputMatrix":{"rows":20,"columns":29,"weights":{"0":-0.4735605716705322,"1":-0.0637204572558403,"2":-1.7082886695861816,"3":-0.869140088558197,"4":0.31126633286476135,"5":-0.46000608801841736,"6":-0.24838168919086456,"7":-0.43223103880882263,"8":-0.14783388376235962,"9":-0.19539296627044678,"10":3.7446491718292236,"11":2.6350440979003906,"12":-1.7601189613342285,"13":0.3351912498474121,"14":-1.9362976551055908,"15":0.2223028689622879,"16":-0.6664876937866211,"17":0.5417829751968384,"18":-0.2263651192188263,"19":0.18909960985183716,"20":-0.6772055625915527,"21":0.07023954391479492,"22":-0.2458115965127945,"23":-0.17734785377979279,"24":-1.14656400680542,"25":-2.1028449535369873,"26":0.29400041699409485,"27":0.9740886688232422,"28":0.47478237748146057,"29":1.18136727809906,"30":1.9358488321304321,"31":0.17731884121894836,"32":0.11044863611459732,"33":2.105468988418579,"34":1.0244834423065186,"35":-1.4058560132980347,"36":-0.7002498507499695,"37":-0.4994295537471771,"38":-0.3399899899959564,"39":0.43255555629730225,"40":0.7618769407272339,"41":0.5441064238548279,"42":1.1412702798843384,"43":-0.3096945583820343,"44":1.8147610425949097,"45":0.4237915277481079,"46":-1.1052531003952026,"47":0.40896543860435486,"48":-0.6918801665306091,"49":1.0601496696472168,"50":-1.781357765197754,"51":0.8230177164077759,"52":-0.12796008586883545,"53":-1.436042070388794,"54":1.30491304397583,"55":-1.0832442045211792,"56":-1.777601957321167,"57":1.370350956916809,"58":0.4906558394432068,"59":0.03401158004999161,"60":1.8033915758132935,"61":0.9779041409492493,"62":3.1297802925109863,"63":-1.1118838787078857,"64":-2.127375602722168,"65":2.601599931716919,"66":-0.5076465010643005,"67":1.7471873760223389,"68":0.12133201956748962,"69":0.40203937888145447,"70":0.4156201481819153,"71":0.5655773878097534,"72":0.06141943112015724,"73":-0.5871207118034363,"74":-1.141711950302124,"75":1.3975752592086792,"76":1.4802424907684326,"77":-3.028040647506714,"78":-0.4988662898540497,"79":1.5755006074905396,"80":0.2708560526371002,"81":-0.8828473687171936,"82":-0.21996164321899414,"83":0.012442262843251228,"84":0.3468894064426422,"85":0.14443445205688477,"86":-2.3849408626556396,"87":3.7827413082122803,"88":0.17597007751464844,"89":-0.8264943957328796,"90":0.6404572129249573,"91":0.5702973008155823,"92":0.8768423199653625,"93":-2.6736972332000732,"94":0.842433512210846,"95":-0.7520832419395447,"96":2.781421422958374,"97":2.067532539367676,"98":1.5030276775360107,"99":-0.6867752075195312,"100":-0.3088820278644562,"101":-0.8559542894363403,"102":1.2373511791229248,"103":-0.24634625017642975,"104":0.39313334226608276,"105":-2.3057472705841064,"106":-1.1606162786483765,"107":-0.1710495799779892,"108":-0.5124946236610413,"109":-0.3310474455356598,"110":1.0797970294952393,"111":-0.12701714038848877,"112":0.2520938813686371,"113":-0.34621870517730713,"114":-0.22416071593761444,"115":1.7837131023406982,"116":-2.5482139587402344,"117":-1.4223785400390625,"118":1.4719980955123901,"119":0.9171117544174194,"120":1.5755658149719238,"121":-1.075818419456482,"122":-1.9529471397399902,"123":-0.05195824056863785,"124":-2.020728588104248,"125":0.8714662194252014,"126":-1.0793828964233398,"127":-1.1641238927841187,"128":2.3783304691314697,"129":0.18391510844230652,"130":0.7060454487800598,"131":1.1627464294433594,"132":-0.31995323300361633,"133":-0.38408127427101135,"134":1.4126801490783691,"135":-2.2705328464508057,"136":-0.995752215385437,"137":0.569672703742981,"138":2.4219613075256348,"139":-1.3387246131896973,"140":-1.3961836099624634,"141":1.5900853872299194,"142":-0.9590954184532166,"143":-1.786201000213623,"144":-0.010271305218338966,"145":1.1855440139770508,"146":3.298658609390259,"147":1.6666651964187622,"148":-0.30547478795051575,"149":-0.11194560676813126,"150":1.330932855606079,"151":-0.1818784475326538,"152":0.8967713117599487,"153":0.41352587938308716,"154":0.21676155924797058,"155":0.07092323899269104,"156":0.992821455001831,"157":1.1861006021499634,"158":0.760553777217865,"159":-2.844316244125366,"160":1.3785018920898438,"161":-0.4472401738166809,"162":1.4611384868621826,"163":0.3206852078437805,"164":0.4133576452732086,"165":-1.340739130973816,"166":0.47747930884361267,"167":-1.5120208263397217,"168":1.099128007888794,"169":-0.01095296535640955,"170":0.9013502597808838,"171":-1.7233062982559204,"172":0.5276607871055603,"173":-0.5268466472625732,"174":-0.3787164092063904,"175":1.308477759361267,"176":0.3425176441669464,"177":1.0495151281356812,"178":-0.18542252480983734,"179":-1.5446523427963257,"180":0.1295035183429718,"181":-0.7539690732955933,"182":-0.07369153946638107,"183":0.6678881049156189,"184":-0.8611892461776733,"185":-1.5213301181793213,"186":-0.14291024208068848,"187":0.5400834679603577,"188":3.7019662857055664,"189":-0.33384862542152405,"190":1.4609876871109009,"191":-0.8239523768424988,"192":1.1700416803359985,"193":0.1809239536523819,"194":0.36362892389297485,"195":0.43498948216438293,"196":0.8319566249847412,"197":-1.2307332754135132,"198":-0.8611171841621399,"199":1.0214654207229614,"200":-1.194722294807434,"201":-0.17572695016860962,"202":-0.14040744304656982,"203":1.0952441692352295,"204":2.3552212715148926,"205":2.1802151203155518,"206":0.9654076099395752,"207":0.25399985909461975,"208":-0.8592543005943298,"209":-0.6072906851768494,"210":1.573346495628357,"211":-1.7064640522003174,"212":-0.40356141328811646,"213":-0.6653960943222046,"214":-1.4969497919082642,"215":1.2834687232971191,"216":-0.3786005973815918,"217":0.9880089163780212,"218":0.17726358771324158,"219":1.48678719997406,"220":2.016880989074707,"221":0.4911330044269562,"222":-0.5752929449081421,"223":2.0599257946014404,"224":1.35580575466156,"225":1.3883265256881714,"226":-1.6580687761306763,"227":0.04030950739979744,"228":2.672333240509033,"229":-1.1393139362335205,"230":-2.533294439315796,"231":-0.6589311957359314,"232":-0.2995494306087494,"233":-1.0593146085739136,"234":-1.9553135633468628,"235":-0.714081346988678,"236":-1.385256290435791,"237":-0.04396490752696991,"238":1.0069894790649414,"239":-2.311260461807251,"240":0.7891130447387695,"241":-1.802642822265625,"242":-1.564300775527954,"243":-2.1369946002960205,"244":-1.7105611562728882,"245":-1.1392360925674438,"246":-1.215001106262207,"247":-1.6958355903625488,"248":-0.6745458841323853,"249":-1.8033896684646606,"250":-0.012780256569385529,"251":1.9187582731246948,"252":1.079933762550354,"253":-1.0256037712097168,"254":-1.7316876649856567,"255":0.4570118486881256,"256":0.4801909625530243,"257":-2.7185428142547607,"258":0.7946571111679077,"259":0.5339555144309998,"260":1.5010641813278198,"261":-0.07890085875988007,"262":1.6282541751861572,"263":-1.1011326313018799,"264":-2.980045795440674,"265":-1.7157927751541138,"266":2.757322072982788,"267":2.957504987716675,"268":0.7154195308685303,"269":2.207026958465576,"270":-1.5395240783691406,"271":3.237658977508545,"272":1.036591649055481,"273":-2.1845853328704834,"274":0.36989495158195496,"275":-1.0756477117538452,"276":1.162455439567566,"277":-1.2725087404251099,"278":0.7196877598762512,"279":-2.82977294921875,"280":0.6018138527870178,"281":0.609336256980896,"282":-3.1679675579071045,"283":0.5998496413230896,"284":1.4079385995864868,"285":-1.535963773727417,"286":-0.7820420861244202,"287":-1.8549271821975708,"288":0.5818514823913574,"289":-1.6593060493469238,"290":0.12297344952821732,"291":0.34800148010253906,"292":-1.3146016597747803,"293":-1.1597564220428467,"294":0.1856672316789627,"295":0.22385096549987793,"296":-0.12934622168540955,"297":0.15901236236095428,"298":2.5316948890686035,"299":0.7227136492729187,"300":-1.604715347290039,"301":-1.4105894565582275,"302":-1.6244704723358154,"303":0.1876888871192932,"304":-1.4128315448760986,"305":-0.35509034991264343,"306":-1.3615096807479858,"307":-0.2208230197429657,"308":-0.7260118722915649,"309":-0.04156637564301491,"310":-0.8565773367881775,"311":0.839246928691864,"312":-2.5568714141845703,"313":1.287195086479187,"314":0.15037846565246582,"315":-2.615658760070801,"316":1.5538229942321777,"317":3.014030694961548,"318":-0.7448325753211975,"319":-0.5559810996055603,"320":0.8709074854850769,"321":-0.19866591691970825,"322":-0.38222652673721313,"323":0.49040889739990234,"324":0.635568380355835,"325":-0.3956674039363861,"326":0.0560472197830677,"327":-0.46348172426223755,"328":-0.46655362844467163,"329":3.476630687713623,"330":2.2944905757904053,"331":-0.16377711296081543,"332":0.507770299911499,"333":-0.4978634715080261,"334":0.6560617685317993,"335":0.3840746283531189,"336":-0.1818375438451767,"337":-1.334088683128357,"338":-0.46331679821014404,"339":-0.13256463408470154,"340":-0.24214917421340942,"341":0.3742748498916626,"342":1.4907050132751465,"343":-0.6065160632133484,"344":-1.6688330173492432,"345":-0.3341487944126129,"346":-0.49545374512672424,"347":-0.059058137238025665,"348":-0.5875676870346069,"349":-0.3169251084327698,"350":1.9411139488220215,"351":1.7629865407943726,"352":0.8653718829154968,"353":-1.7867846488952637,"354":-0.2692587971687317,"355":0.4456949234008789,"356":-0.6147602796554565,"357":0.6245532631874084,"358":-0.4948451519012451,"359":-0.6514040231704712,"360":0.11237369477748871,"361":0.965374231338501,"362":3.0822503566741943,"363":-0.19447316229343414,"364":1.0750302076339722,"365":-0.5801262259483337,"366":2.2721052169799805,"367":-0.5360830426216125,"368":-0.8575469851493835,"369":1.3423219919204712,"370":1.1398706436157227,"371":-2.2672176361083984,"372":0.03875117376446724,"373":-0.023067457601428032,"374":-0.0359782800078392,"375":-0.1881762444972992,"376":0.6683115363121033,"377":0.11252980679273605,"378":0.238713800907135,"379":-2.000950574874878,"380":-2.468996524810791,"381":-1.27490234375,"382":1.2358782291412354,"383":0.9363258481025696,"384":-1.1673181056976318,"385":1.3742434978485107,"386":-0.021093212068080902,"387":0.2606574594974518,"388":0.26878076791763306,"389":-1.5574910640716553,"390":-0.7961382865905762,"391":-0.8729287385940552,"392":-1.1056808233261108,"393":-0.15159286558628082,"394":-1.0944828987121582,"395":-3.0988290309906006,"396":0.8340796232223511,"397":-0.3313314616680145,"398":-2.23140811920166,"399":0.40216249227523804,"400":2.477278232574463,"401":0.06192222610116005,"402":-2.1621253490448,"403":0.9017348885536194,"404":1.71957528591156,"405":0.1819412112236023,"406":1.8442949056625366,"407":-1.868033528327942,"408":-0.34071260690689087,"409":2.2140543460845947,"410":-0.22145137190818787,"411":-0.4859863221645355,"412":-0.7366229891777039,"413":-1.0973410606384277,"414":-0.026299018412828445,"415":1.0209569931030273,"416":-2.2646055221557617,"417":0.5356701016426086,"418":-1.2504671812057495,"419":-0.836993396282196,"420":0.7439232468605042,"421":-0.6289561986923218,"422":0.06861699372529984,"423":-0.6922318339347839,"424":1.466077446937561,"425":-0.3642723560333252,"426":0.5733692049980164,"427":-0.7803712487220764,"428":1.7895339727401733,"429":-0.42701324820518494,"430":1.4921201467514038,"431":0.6309813261032104,"432":0.9486166834831238,"433":-0.6759682893753052,"434":2.0703885555267334,"435":1.169549584388733,"436":-0.2683732211589813,"437":0.34332630038261414,"438":-0.015215713530778885,"439":-0.463765412569046,"440":-0.0198880136013031,"441":1.1620762348175049,"442":-0.28431668877601624,"443":-0.3195897936820984,"444":-1.1918803453445435,"445":-0.3921445310115814,"446":-2.485980987548828,"447":-0.4975217282772064,"448":2.9694864749908447,"449":0.07189665734767914,"450":-1.8229745626449585,"451":1.780977487564087,"452":-1.1843620538711548,"453":-1.0024408102035522,"454":0.2280917465686798,"455":-0.9835994243621826,"456":-0.13511301577091217,"457":-1.5910552740097046,"458":1.445846438407898,"459":-1.5608782768249512,"460":-0.8802465796470642,"461":0.7710307836532593,"462":1.675589919090271,"463":0.3512828052043915,"464":-1.67667555809021,"465":-0.18639346957206726,"466":-1.041893720626831,"467":1.7807742357254028,"468":2.8097405433654785,"469":-1.16566801071167,"470":-1.5977602005004883,"471":0.17296497523784637,"472":-1.8418495655059814,"473":0.3329227566719055,"474":0.6700345277786255,"475":0.01047658920288086,"476":0.3895730674266815,"477":1.053240418434143,"478":2.006824493408203,"479":0.3753373920917511,"480":-0.9941274523735046,"481":-1.9155528545379639,"482":-0.31720227003097534,"483":-1.7572237253189087,"484":-0.839582622051239,"485":0.6500341296195984,"486":1.6251829862594604,"487":0.040593162178993225,"488":-1.466679573059082,"489":-0.4940515160560608,"490":0.26195579767227173,"491":-2.2344603538513184,"492":0.3064384162425995,"493":-0.5410241484642029,"494":0.8253368139266968,"495":2.52951717376709,"496":1.938727855682373,"497":1.1424694061279297,"498":-1.775481939315796,"499":-1.1306592226028442,"500":0.34578606486320496,"501":-1.5655734539031982,"502":1.3190820217132568,"503":-0.3509887456893921,"504":-0.11876434832811356,"505":-0.3254985809326172,"506":1.1127948760986328,"507":2.384645938873291,"508":1.4775986671447754,"509":1.1955739259719849,"510":-0.1189892590045929,"511":0.3804780840873718,"512":-1.6016137599945068,"513":-1.75155770778656,"514":-0.20039622485637665,"515":0.8485339283943176,"516":-2.558993101119995,"517":-2.5659167766571045,"518":0.3136124014854431,"519":-1.622035264968872,"520":-1.4853492975234985,"521":-0.4167914390563965,"522":-0.7838141322135925,"523":1.3709841966629028,"524":2.5401384830474854,"525":2.116859197616577,"526":1.4484484195709229,"527":-1.1971216201782227,"528":-1.5031200647354126,"529":1.9885480403900146,"530":-1.744055986404419,"531":-0.23485170304775238,"532":-2.0603621006011963,"533":0.7393872737884521,"534":1.882394790649414,"535":-0.04727313667535782,"536":0.08181720972061157,"537":0.9166998267173767,"538":2.4474833011627197,"539":1.4147107601165771,"540":2.044520616531372,"541":-0.7026217579841614,"542":-0.6482716202735901,"543":1.8424662351608276,"544":0.31244000792503357,"545":-2.3538055419921875,"546":-0.3813062012195587,"547":2.4048988819122314,"548":-1.6556273698806763,"549":-1.759996771812439,"550":1.0488088130950928,"551":0.4277167022228241,"552":-0.7050573825836182,"553":-1.5887665748596191,"554":-0.21750925481319427,"555":-1.84038507938385,"556":-0.14485275745391846,"557":1.1963403224945068,"558":-0.9840959310531616,"559":0.7209591865539551,"560":-0.7700120210647583,"561":0.8269274234771729,"562":0.36685696244239807,"563":-0.22461514174938202,"564":-0.9856264591217041,"565":-2.136700391769409,"566":0.11292646825313568,"567":0.39562779664993286,"568":0.8973731398582458,"569":0.12514133751392365,"570":0.4617425799369812,"571":1.9426275491714478,"572":-0.6504103541374207,"573":0.3000898063182831,"574":-0.36307960748672485,"575":1.0789406299591064,"576":0.8461440205574036,"577":0.5872079133987427,"578":0.24696409702301025,"579":0.5142214298248291}},"inputHidden":{"rows":20,"columns":20,"weights":{"0":4.5132365226745605,"1":-0.8816683292388916,"2":1.1644389629364014,"3":1.0992101430892944,"4":3.0100889205932617,"5":-1.4663516283035278,"6":-0.3552057445049286,"7":1.8821206092834473,"8":-1.599713683128357,"9":-0.5181151628494263,"10":-0.30144092440605164,"11":0.6842394471168518,"12":-0.4984075427055359,"13":-2.027395725250244,"14":-0.6284472346305847,"15":-0.6439350843429565,"16":1.1559348106384277,"17":-2.1754276752471924,"18":-1.9387729167938232,"19":-0.9525718092918396,"20":1.9869303703308105,"21":-1.6059179306030273,"22":0.013580473139882088,"23":-2.1263914108276367,"24":0.06421399861574173,"25":-1.5786991119384766,"26":2.0289511680603027,"27":2.0543386936187744,"28":0.01508404966443777,"29":-0.742824375629425,"30":0.035919301211833954,"31":0.06901035457849503,"32":0.057276997715234756,"33":-1.3093461990356445,"34":-0.21347425878047943,"35":0.5365865230560303,"36":-3.318552255630493,"37":0.7620152831077576,"38":-0.2963775396347046,"39":-1.4532347917556763,"40":-0.09567011892795563,"41":-1.5546023845672607,"42":0.9776639938354492,"43":-1.8679684400558472,"44":0.6003448963165283,"45":-0.45479851961135864,"46":-0.13355129957199097,"47":0.8517265915870667,"48":1.727734923362732,"49":0.3196980655193329,"50":0.42365363240242004,"51":1.0443533658981323,"52":0.29493916034698486,"53":-0.9298205971717834,"54":-1.146562933921814,"55":0.28556278347969055,"56":-0.395591139793396,"57":-0.6004688143730164,"58":-0.28100311756134033,"59":-2.585458755493164,"60":-2.510864734649658,"61":-1.550660490989685,"62":1.4776690006256104,"63":-1.970320701599121,"64":0.7115999460220337,"65":-0.9807186722755432,"66":0.9192264676094055,"67":-3.566713333129883,"68":0.6484971642494202,"69":-1.2239258289337158,"70":0.05969306826591492,"71":-4.035421848297119,"72":-1.4049451351165771,"73":0.3563876450061798,"74":-0.6473897099494934,"75":-2.989809513092041,"76":1.0928562879562378,"77":4.836407661437988,"78":-1.8987447023391724,"79":-3.978074312210083,"80":0.9954277873039246,"81":1.0814987421035767,"82":3.763866424560547,"83":-1.276168942451477,"84":-1.3947656154632568,"85":-2.9142568111419678,"86":-1.0805251598358154,"87":1.1981440782546997,"88":1.9167287349700928,"89":-1.9301409721374512,"90":2.1844780445098877,"91":4.212094783782959,"92":1.5741039514541626,"93":-1.6867221593856812,"94":-1.1175098419189453,"95":1.1106146574020386,"96":-0.16334791481494904,"97":-0.6335253119468689,"98":-2.944101572036743,"99":0.6642019152641296,"100":1.5366160869598389,"101":0.004298287443816662,"102":0.6419461965560913,"103":-2.831192970275879,"104":2.0091333389282227,"105":-2.9081497192382812,"106":-3.8971331119537354,"107":-0.2568639814853668,"108":-2.4709298610687256,"109":-0.5967683792114258,"110":1.4128817319869995,"111":3.8990273475646973,"112":-0.6102496385574341,"113":-1.2616541385650635,"114":-1.874917984008789,"115":0.6962084770202637,"116":2.4833903312683105,"117":-2.491426467895508,"118":-1.8697054386138916,"119":-1.5784225463867188,"120":-0.19807995855808258,"121":0.219952791929245,"122":2.873537302017212,"123":-1.3875447511672974,"124":-1.576238989830017,"125":2.987086772918701,"126":-1.063861608505249,"127":-0.7298015356063843,"128":-0.7570313811302185,"129":2.197152853012085,"130":-0.4788163900375366,"131":-2.6254923343658447,"132":-0.25623202323913574,"133":-1.0266014337539673,"134":0.3300477862358093,"135":-2.2639756202697754,"136":-0.22814446687698364,"137":0.42240965366363525,"138":-0.28014466166496277,"139":-2.940415143966675,"140":-1.6660282611846924,"141":0.38994163274765015,"142":0.06652752310037613,"143":-0.21474409103393555,"144":-0.5456711649894714,"145":1.2407526969909668,"146":1.0937119722366333,"147":-0.24703295528888702,"148":0.8776926398277283,"149":-0.3630352020263672,"150":2.249054193496704,"151":-1.0601608753204346,"152":0.895416259765625,"153":0.5983440279960632,"154":-0.34165990352630615,"155":-0.587358295917511,"156":0.190403014421463,"157":-0.009397569112479687,"158":-1.3432801961898804,"159":0.23135335743427277,"160":0.723229706287384,"161":0.8372172117233276,"162":0.7475095987319946,"163":2.7174315452575684,"164":-0.967560350894928,"165":-2.497499704360962,"166":-1.6128602027893066,"167":-0.9286771416664124,"168":-1.3790661096572876,"169":-0.2562733590602875,"170":0.02466594986617565,"171":0.2287517935037613,"172":-1.1295807361602783,"173":0.07339582592248917,"174":1.406193733215332,"175":-1.89559805393219,"176":0.8503189086914062,"177":0.9382477402687073,"178":-0.5988531708717346,"179":2.860978126525879,"180":1.4094903469085693,"181":-0.4537957012653351,"182":0.08745722472667694,"183":-2.8404364585876465,"184":-0.13908925652503967,"185":-1.0026624202728271,"186":-2.305004119873047,"187":-0.032524749636650085,"188":-2.1061902046203613,"189":-1.1169513463974,"190":1.0354682207107544,"191":-1.9199906587600708,"192":0.43451011180877686,"193":0.12883874773979187,"194":-0.12116289138793945,"195":0.3947308361530304,"196":-2.0973501205444336,"197":1.9373111724853516,"198":-1.0462814569473267,"199":-1.720543622970581,"200":-1.2108045816421509,"201":-2.2770495414733887,"202":0.5933927893638611,"203":-0.5538724660873413,"204":-2.380842924118042,"205":-0.3886348605155945,"206":0.28604182600975037,"207":1.5424705743789673,"208":1.812933087348938,"209":-2.7940785884857178,"210":0.6522584557533264,"211":-1.1538443565368652,"212":-1.3356854915618896,"213":-2.5633108615875244,"214":-0.0312996543943882,"215":1.4206607341766357,"216":1.443818211555481,"217":2.3294594287872314,"218":-1.1003499031066895,"219":-2.322420358657837,"220":-1.5799305438995361,"221":-1.5449362993240356,"222":1.1893893480300903,"223":-7.726062774658203,"224":-0.041954390704631805,"225":0.9810947179794312,"226":-0.36925455927848816,"227":2.4250383377075195,"228":1.4568841457366943,"229":-3.2557811737060547,"230":2.538810968399048,"231":-2.4543166160583496,"232":1.3123557567596436,"233":-1.2377041578292847,"234":-2.713481903076172,"235":-1.9027307033538818,"236":-2.9778995513916016,"237":-3.546807050704956,"238":-0.44760704040527344,"239":0.7725255489349365,"240":3.633910655975342,"241":-0.4156556725502014,"242":1.3471354246139526,"243":-0.6320633888244629,"244":-1.94489324092865,"245":-3.3451080322265625,"246":-0.10310985147953033,"247":2.883898973464966,"248":2.5326926708221436,"249":-2.539503335952759,"250":0.09134647995233536,"251":0.7519806623458862,"252":0.5141740441322327,"253":-0.6540027856826782,"254":4.2423224449157715,"255":-1.8944947719573975,"256":-2.9717962741851807,"257":-1.04509699344635,"258":3.6764144897460938,"259":-0.2809717357158661,"260":-0.04168306291103363,"261":2.693342447280884,"262":-1.1647043228149414,"263":-3.1695308685302734,"264":-1.2417314052581787,"265":-1.1264612674713135,"266":-0.2719613015651703,"267":-0.5356152653694153,"268":-0.4800175726413727,"269":-0.028248904272913933,"270":-0.2888247072696686,"271":3.3219308853149414,"272":-1.4741767644882202,"273":0.6431795358657837,"274":-1.319887638092041,"275":-0.4529033601284027,"276":1.08475923538208,"277":-1.1985892057418823,"278":-1.850630283355713,"279":0.47015827894210815,"280":0.08161959052085876,"281":-1.327703595161438,"282":-0.9037994742393494,"283":-2.4068617820739746,"284":-0.14405247569084167,"285":-0.08594667911529541,"286":0.7536781430244446,"287":2.1485202312469482,"288":-2.730215072631836,"289":-0.5467221140861511,"290":1.901970386505127,"291":1.7637287378311157,"292":1.6640305519104004,"293":-2.153137683868408,"294":-1.011961817741394,"295":-0.771455705165863,"296":-0.9530724883079529,"297":0.2704660892486572,"298":-2.744624376296997,"299":-0.41366708278656006,"300":-1.1605606079101562,"301":-0.1481054425239563,"302":0.6792964339256287,"303":-3.359220504760742,"304":1.2243224382400513,"305":0.977168619632721,"306":-0.13549409806728363,"307":1.771381139755249,"308":3.2361676692962646,"309":-3.16079044342041,"310":0.14740517735481262,"311":-0.8718456625938416,"312":-0.394665390253067,"313":-4.061657905578613,"314":-3.043079376220703,"315":-0.8084537386894226,"316":2.0183982849121094,"317":-0.8201267719268799,"318":-2.0757503509521484,"319":1.1227387189865112,"320":0.6874122619628906,"321":-1.3674854040145874,"322":1.9490084648132324,"323":-0.2911294996738434,"324":-0.4687838554382324,"325":-0.3565256893634796,"326":0.6000275015830994,"327":0.762236475944519,"328":-1.4045058488845825,"329":-0.7293487191200256,"330":0.247768372297287,"331":-0.7294051051139832,"332":-0.21070314943790436,"333":-1.110090970993042,"334":0.6541106700897217,"335":-0.23048418760299683,"336":0.29504838585853577,"337":2.9851787090301514,"338":-1.6077747344970703,"339":-0.46997350454330444,"340":-0.6920158863067627,"341":-0.33366140723228455,"342":2.2101237773895264,"343":-1.1678829193115234,"344":-1.862796664237976,"345":0.10556153208017349,"346":0.9882074594497681,"347":1.7090646028518677,"348":1.2100578546524048,"349":-1.660089373588562,"350":2.428823232650757,"351":0.3891323506832123,"352":1.7262521982192993,"353":-1.2041763067245483,"354":-3.994253158569336,"355":0.8496283888816833,"356":0.5584294199943542,"357":-2.2260630130767822,"358":-0.4289341866970062,"359":-1.504773497581482,"360":1.3899213075637817,"361":1.2530274391174316,"362":-0.8049609661102295,"363":0.9034864902496338,"364":0.5530117750167847,"365":-0.5748618245124817,"366":0.9632323384284973,"367":-0.14703050255775452,"368":-2.1370954513549805,"369":-0.7673191428184509,"370":1.3585689067840576,"371":-0.9837576150894165,"372":0.43153321743011475,"373":-1.0700039863586426,"374":-1.8770009279251099,"375":1.682425856590271,"376":-1.1781425476074219,"377":-0.29954981803894043,"378":-1.5492579936981201,"379":0.4776453971862793,"380":1.7320194244384766,"381":1.6258022785186768,"382":0.48767775297164917,"383":2.58781361579895,"384":2.4423904418945312,"385":-2.338801383972168,"386":-4.153255462646484,"387":2.6211845874786377,"388":-0.9058442115783691,"389":-1.8207215070724487,"390":-1.7148998975753784,"391":-1.6553832292556763,"392":-2.5545549392700195,"393":-1.0174773931503296,"394":-1.9614886045455933,"395":0.26032817363739014,"396":0.10283274948596954,"397":-2.8346314430236816,"398":0.8885059356689453,"399":-0.3276691734790802}},"inputBias":{"rows":20,"columns":1,"weights":{"0":-1.0603606700897217,"1":-0.7520312666893005,"2":-1.0775277614593506,"3":-0.4711294174194336,"4":1.021106481552124,"5":1.2892662286758423,"6":3.440946340560913,"7":-0.6167164444923401,"8":0.3407028019428253,"9":-0.3039485216140747,"10":0.17360854148864746,"11":0.7292183041572571,"12":0.3788069188594818,"13":0.24985502660274506,"14":0.2067689299583435,"15":-0.5799916982650757,"16":-0.5557397603988647,"17":1.2275630235671997,"18":1.817637324333191,"19":0.3011423945426941}},"forgetMatrix":{"rows":20,"columns":29,"weights":{"0":0.3024652302265167,"1":-1.2347484827041626,"2":-0.5865945219993591,"3":-0.7882330417633057,"4":-0.2935119867324829,"5":-0.7796918153762817,"6":-0.10156188160181046,"7":0.8295366168022156,"8":-0.6476223468780518,"9":-0.2626889646053314,"10":1.3276057243347168,"11":1.2442388534545898,"12":-2.610976219177246,"13":-0.3845385015010834,"14":-2.3808820247650146,"15":-3.1195523738861084,"16":-1.4970853328704834,"17":0.5632764101028442,"18":0.0730590969324112,"19":0.19131585955619812,"20":1.2212021350860596,"21":0.5284170508384705,"22":0.9044303297996521,"23":-0.11075246334075928,"24":0.4609445035457611,"25":-3.752147912979126,"26":2.2869441509246826,"27":0.5023561716079712,"28":0.9758548736572266,"29":-1.0354992151260376,"30":0.10412388294935226,"31":-0.14114797115325928,"32":-0.06988140940666199,"33":0.5196983814239502,"34":-0.36591798067092896,"35":-1.1202709674835205,"36":0.28543731570243835,"37":-1.3871279954910278,"38":-0.032396167516708374,"39":-0.2095421701669693,"40":-0.041295360773801804,"41":1.0777134895324707,"42":0.3394012153148651,"43":2.2412478923797607,"44":1.6153634786605835,"45":0.7294665575027466,"46":0.5785427689552307,"47":0.5947335958480835,"48":-1.1381043195724487,"49":-0.8099924325942993,"50":0.746952474117279,"51":1.0483429431915283,"52":-1.0398956537246704,"53":-0.9322276711463928,"54":0.5160828232765198,"55":-1.4312626123428345,"56":-0.9436343312263489,"57":0.4449925422668457,"58":0.24765078723430634,"59":0.685333788394928,"60":-0.6475984454154968,"61":0.24403704702854156,"62":-0.9364960193634033,"63":0.9875729084014893,"64":1.9740447998046875,"65":1.297155499458313,"66":1.2638795375823975,"67":0.8288497924804688,"68":-0.9672310948371887,"69":-1.5348384380340576,"70":0.97747802734375,"71":-0.7500470280647278,"72":0.06043676659464836,"73":-0.6366041898727417,"74":-0.13590845465660095,"75":1.6677196025848389,"76":-0.13636593520641327,"77":0.3701144754886627,"78":1.4779407978057861,"79":1.0592586994171143,"80":0.05210106819868088,"81":-0.02752811834216118,"82":0.9745203852653503,"83":1.064763069152832,"84":0.897732138633728,"85":0.9088855385780334,"86":-1.0427950620651245,"87":1.885263442993164,"88":0.05165031552314758,"89":0.9701461791992188,"90":1.3866921663284302,"91":0.19455593824386597,"92":0.8923223614692688,"93":-0.5070313811302185,"94":1.8636255264282227,"95":-1.3921831846237183,"96":0.30941376090049744,"97":-0.5477359294891357,"98":-1.6438660621643066,"99":-0.39930015802383423,"100":0.3920897841453552,"101":1.385176420211792,"102":0.9839519262313843,"103":0.21243101358413696,"104":1.653817892074585,"105":-1.3687827587127686,"106":-1.4905354976654053,"107":-1.3033777475357056,"108":0.33437663316726685,"109":0.7226504683494568,"110":-0.003180325496941805,"111":0.2913324236869812,"112":1.382527470588684,"113":-0.9502869248390198,"114":-0.19190117716789246,"115":0.802707314491272,"116":0.153825581073761,"117":2.2610836029052734,"118":-1.1189439296722412,"119":-1.190337896347046,"120":-0.7287070751190186,"121":2.69100022315979,"122":0.9060041904449463,"123":1.8519153594970703,"124":1.1729010343551636,"125":-0.5511163473129272,"126":-1.3965455293655396,"127":-0.29903075098991394,"128":1.776296615600586,"129":1.4433305263519287,"130":-1.0658886432647705,"131":0.9357129335403442,"132":-0.04130224511027336,"133":1.4244047403335571,"134":-0.7440932989120483,"135":1.022850751876831,"136":-0.7265040874481201,"137":0.4169107675552368,"138":-1.0165607929229736,"139":0.7653245329856873,"140":-1.5084846019744873,"141":1.5599408149719238,"142":-0.6860761046409607,"143":0.7679320573806763,"144":-1.2071418762207031,"145":-0.9344761371612549,"146":1.509447455406189,"147":1.3463784456253052,"148":1.2318062782287598,"149":1.2726471424102783,"150":-1.2169454097747803,"151":-0.8489565253257751,"152":1.4447003602981567,"153":-1.0047942399978638,"154":0.45349356532096863,"155":-1.317339539527893,"156":-1.4178706407546997,"157":1.8823978900909424,"158":0.6820261478424072,"159":0.7147964239120483,"160":1.0737844705581665,"161":0.9163514375686646,"162":0.7909029722213745,"163":1.765586256980896,"164":-1.3805460929870605,"165":0.0037459779996424913,"166":1.1989802122116089,"167":1.5029398202896118,"168":-2.648543357849121,"169":-0.9142418503761292,"170":1.4671945571899414,"171":-1.379125714302063,"172":-2.209460973739624,"173":-0.0006135323201306164,"174":-1.6312514543533325,"175":0.5624036192893982,"176":0.6110141277313232,"177":-0.9137777090072632,"178":-1.560227632522583,"179":-0.4763841927051544,"180":2.6269028186798096,"181":-0.16133202612400055,"182":1.7673289775848389,"183":-0.9297183156013489,"184":-0.25196734070777893,"185":-0.5576861500740051,"186":0.3926519453525543,"187":-0.005540213547646999,"188":-0.1075020581483841,"189":-1.5807093381881714,"190":-0.026748917996883392,"191":0.22429677844047546,"192":0.3660939931869507,"193":1.9750235080718994,"194":0.6760760545730591,"195":-0.46090951561927795,"196":-0.5883599519729614,"197":-0.20929065346717834,"198":-0.056354645639657974,"199":-0.24594321846961975,"200":1.0706942081451416,"201":1.756658911705017,"202":-1.969854712486267,"203":1.6096069812774658,"204":0.40509799122810364,"205":0.46494707465171814,"206":1.4405090808868408,"207":-0.39111438393592834,"208":-0.4147440791130066,"209":-1.7355296611785889,"210":1.9558812379837036,"211":-1.505846381187439,"212":0.7511717081069946,"213":-0.28484246134757996,"214":-0.6185550689697266,"215":-0.5604494214057922,"216":2.0563998222351074,"217":1.7877718210220337,"218":0.5934977531433105,"219":0.5564087629318237,"220":0.9672151803970337,"221":-1.7490710020065308,"222":-1.6094603538513184,"223":-0.9778634905815125,"224":0.15361151099205017,"225":0.2615886330604553,"226":0.19853456318378448,"227":-1.6819040775299072,"228":-0.014327600598335266,"229":-0.6147639751434326,"230":0.7314595580101013,"231":1.0228767395019531,"232":0.9297175407409668,"233":-3.051647424697876,"234":-0.030373746529221535,"235":0.04566548764705658,"236":-0.938824474811554,"237":-0.46095409989356995,"238":0.41268977522850037,"239":0.45422041416168213,"240":0.33704081177711487,"241":-0.07081450521945953,"242":-0.9876013398170471,"243":-0.33316823840141296,"244":-0.9182553887367249,"245":-1.709889531135559,"246":0.6688541173934937,"247":-2.5446135997772217,"248":0.741195797920227,"249":-0.47381171584129333,"250":-0.18284177780151367,"251":0.2592626214027405,"252":0.6299699544906616,"253":-1.468755841255188,"254":1.695448398590088,"255":1.5090736150741577,"256":2.5632472038269043,"257":-1.5740997791290283,"258":2.9730496406555176,"259":0.6848849058151245,"260":-0.9674450755119324,"261":1.0792601108551025,"262":-1.2406615018844604,"263":0.6837506294250488,"264":0.31526023149490356,"265":1.0678173303604126,"266":1.3290057182312012,"267":0.03736468032002449,"268":-2.1412386894226074,"269":0.1346593201160431,"270":-0.47068318724632263,"271":0.3487416207790375,"272":-0.4072113633155823,"273":-0.9205469489097595,"274":-1.4453946352005005,"275":-0.8425459861755371,"276":-0.4240834414958954,"277":0.25577664375305176,"278":-2.4122977256774902,"279":-0.799999475479126,"280":0.9946277141571045,"281":0.9407543540000916,"282":-0.5726880431175232,"283":-0.4911459684371948,"284":0.9444734454154968,"285":1.5412554740905762,"286":-0.6767638325691223,"287":1.3652827739715576,"288":0.32505807280540466,"289":-1.1246005296707153,"290":-2.5105655193328857,"291":0.3147749602794647,"292":0.09189243614673615,"293":0.2849288880825043,"294":-0.494936466217041,"295":-0.8736618757247925,"296":1.6266762018203735,"297":-0.6076762080192566,"298":-0.013939322903752327,"299":-1.0911424160003662,"300":-1.2689659595489502,"301":-0.44178974628448486,"302":1.9802864789962769,"303":1.013619065284729,"304":2.588435411453247,"305":0.025000154972076416,"306":0.8852684497833252,"307":-0.34981802105903625,"308":-0.15913183987140656,"309":0.9443426132202148,"310":0.7394934296607971,"311":-0.5369405746459961,"312":0.5764167308807373,"313":-0.8338900804519653,"314":-1.7478442192077637,"315":1.467330813407898,"316":-1.0708203315734863,"317":0.6286817789077759,"318":-1.6940662860870361,"319":0.16129978001117706,"320":2.752671480178833,"321":-0.0002549480414018035,"322":-1.2312284708023071,"323":-0.9051281213760376,"324":3.0263960361480713,"325":1.483782172203064,"326":1.278607726097107,"327":1.9138885736465454,"328":0.5044644474983215,"329":-0.6349095106124878,"330":-1.059048056602478,"331":1.0379177331924438,"332":0.9451301693916321,"333":0.4911591112613678,"334":0.011513576842844486,"335":-2.302504539489746,"336":-0.458977609872818,"337":-0.979545533657074,"338":0.8723412156105042,"339":-0.4949357509613037,"340":-0.04500604793429375,"341":0.10583165287971497,"342":1.8608142137527466,"343":-0.8353145122528076,"344":0.2550675868988037,"345":-0.6376953125,"346":0.8596997261047363,"347":-1.7506804466247559,"348":-0.3847479224205017,"349":1.1563242673873901,"350":0.04580829292535782,"351":-1.1500123739242554,"352":0.3341149687767029,"353":1.0352180004119873,"354":0.1805640161037445,"355":-0.11218909919261932,"356":0.2652757167816162,"357":0.29558664560317993,"358":-1.5425310134887695,"359":-0.9863499999046326,"360":-1.5180124044418335,"361":0.3421862721443176,"362":-0.6458780765533447,"363":0.5102458596229553,"364":0.3084814250469208,"365":-0.7460837960243225,"366":-1.2697328329086304,"367":0.6432019472122192,"368":-0.8191542029380798,"369":-1.3380706310272217,"370":0.021345041692256927,"371":1.020554542541504,"372":0.5931559801101685,"373":-1.1203892230987549,"374":0.11483821272850037,"375":0.27188989520072937,"376":0.3514188528060913,"377":1.7928519248962402,"378":0.041218869388103485,"379":1.279812216758728,"380":-1.7797377109527588,"381":1.1065611839294434,"382":2.4814064502716064,"383":-2.0800018310546875,"384":-1.7283692359924316,"385":-0.19128739833831787,"386":1.193078637123108,"387":-1.300972580909729,"388":-0.6659799218177795,"389":-2.5541207790374756,"390":0.6197358965873718,"391":0.07647548615932465,"392":1.3152343034744263,"393":0.43323013186454773,"394":-2.4172592163085938,"395":-0.08111760020256042,"396":0.4982551336288452,"397":-1.1348704099655151,"398":-1.3878108263015747,"399":-0.28588342666625977,"400":0.18750059604644775,"401":-0.8569692373275757,"402":-0.7237299680709839,"403":-0.8288822770118713,"404":-0.9885393381118774,"405":1.2353122234344482,"406":-0.7901853322982788,"407":-0.09672857820987701,"408":-1.6592224836349487,"409":-0.006510693114250898,"410":-1.5234785079956055,"411":-0.6230782270431519,"412":1.707976222038269,"413":1.590625524520874,"414":1.127488374710083,"415":-2.12308931350708,"416":1.4847307205200195,"417":2.216815948486328,"418":2.831350326538086,"419":-1.1511460542678833,"420":-1.6859605312347412,"421":-0.21349786221981049,"422":1.1729856729507446,"423":2.0370945930480957,"424":-0.3783026933670044,"425":-0.06184333935379982,"426":0.9326891303062439,"427":0.7551112771034241,"428":-0.059031423181295395,"429":1.1169732809066772,"430":0.7185730934143066,"431":0.8311221599578857,"432":1.0654819011688232,"433":1.113840103149414,"434":-0.31680846214294434,"435":1.3935495615005493,"436":1.5608694553375244,"437":2.576183557510376,"438":0.25302332639694214,"439":0.6264926195144653,"440":0.3295597732067108,"441":-1.7084838151931763,"442":2.8475658893585205,"443":-0.4087539315223694,"444":1.3386337757110596,"445":0.01240055076777935,"446":-0.054287951439619064,"447":0.9492123126983643,"448":1.2019951343536377,"449":1.0914961099624634,"450":1.1087983846664429,"451":0.18454952538013458,"452":2.280318260192871,"453":-0.4326917231082916,"454":-0.9231178164482117,"455":-0.6447003483772278,"456":1.588794469833374,"457":-0.08361273258924484,"458":0.47323787212371826,"459":-0.9462943077087402,"460":0.9634908437728882,"461":-0.9601061344146729,"462":0.7722939252853394,"463":-0.3644225001335144,"464":-2.854365825653076,"465":0.31022319197654724,"466":0.02977110631763935,"467":-0.8310093283653259,"468":-1.7407413721084595,"469":0.9166795015335083,"470":2.1407198905944824,"471":0.4957696199417114,"472":0.8825748562812805,"473":-2.1691784858703613,"474":-1.690657615661621,"475":-0.9539077877998352,"476":-0.03862175717949867,"477":-0.983070433139801,"478":0.34489038586616516,"479":-1.1468361616134644,"480":-0.110206238925457,"481":0.9339421987533569,"482":-0.5343906879425049,"483":1.3535751104354858,"484":0.2535705864429474,"485":1.1237733364105225,"486":-0.8121906518936157,"487":1.1563985347747803,"488":0.2662537097930908,"489":-0.029566094279289246,"490":-0.0032004122622311115,"491":2.3841676712036133,"492":-1.8099870681762695,"493":0.2748373746871948,"494":-1.858971357345581,"495":0.27517351508140564,"496":1.761633038520813,"497":-0.3415466547012329,"498":-2.7945351600646973,"499":0.421845406293869,"500":-0.8889735341072083,"501":-0.43122047185897827,"502":-0.6233906149864197,"503":-0.6276094913482666,"504":-0.42830994725227356,"505":-0.8786313533782959,"506":-0.9095367193222046,"507":-0.7511804103851318,"508":-1.1604949235916138,"509":2.435636043548584,"510":-0.8440159559249878,"511":0.19435259699821472,"512":-0.7502217292785645,"513":0.17270256578922272,"514":0.4138880670070648,"515":-0.6434298157691956,"516":-1.368155837059021,"517":1.1348187923431396,"518":-1.781482458114624,"519":0.793197512626648,"520":0.6945220232009888,"521":1.1344597339630127,"522":-0.6673070788383484,"523":2.2292726039886475,"524":0.768466591835022,"525":0.2211180478334427,"526":0.5224141478538513,"527":0.8052585124969482,"528":-0.5874642729759216,"529":0.5901501178741455,"530":-0.4876665472984314,"531":0.39782747626304626,"532":0.20321987569332123,"533":-0.34890514612197876,"534":1.1764791011810303,"535":1.4617946147918701,"536":-0.38337111473083496,"537":1.686194658279419,"538":0.7306074500083923,"539":0.5637860298156738,"540":-0.9097698330879211,"541":-0.05091322585940361,"542":-1.5887280702590942,"543":-0.6750355958938599,"544":-0.4317658543586731,"545":0.8995670676231384,"546":-1.745457649230957,"547":1.6284003257751465,"548":-2.3042681217193604,"549":-0.526924192905426,"550":0.6857954263687134,"551":-0.10732969641685486,"552":1.4520869255065918,"553":1.7523057460784912,"554":-1.195773720741272,"555":-0.2761822044849396,"556":0.015163715928792953,"557":-0.7228915691375732,"558":-0.566375732421875,"559":-0.7324602603912354,"560":-0.6471532583236694,"561":1.6262071132659912,"562":-1.0869736671447754,"563":-0.028103919699788094,"564":0.1467938870191574,"565":-1.3808857202529907,"566":1.08454430103302,"567":-1.0091485977172852,"568":0.5320395231246948,"569":-1.5488126277923584,"570":-0.8041010499000549,"571":-2.011228322982788,"572":-0.6029384136199951,"573":-0.5729907751083374,"574":-0.3854494094848633,"575":-0.22362303733825684,"576":1.706108808517456,"577":-2.573913097381592,"578":-0.4824879467487335,"579":1.8895443677902222}},"forgetHidden":{"rows":20,"columns":20,"weights":{"0":-1.0986344814300537,"1":-0.6210693717002869,"2":-0.26430168747901917,"3":-0.3898780941963196,"4":0.8408231139183044,"5":-0.013538805767893791,"6":-1.3551808595657349,"7":0.32582569122314453,"8":-1.5890650749206543,"9":1.7444101572036743,"10":-2.011901617050171,"11":-0.3282845914363861,"12":-2.525421619415283,"13":-0.13666358590126038,"14":-0.10367196798324585,"15":0.7767269015312195,"16":0.050675295293331146,"17":0.4765496850013733,"18":1.576998233795166,"19":-0.6598448157310486,"20":0.10253076255321503,"21":-0.2627301514148712,"22":1.2932350635528564,"23":-2.191383123397827,"24":-0.41259196400642395,"25":1.0590850114822388,"26":0.013479274697601795,"27":0.4474320113658905,"28":0.39439138770103455,"29":-0.09023723751306534,"30":0.8229027986526489,"31":-0.35550370812416077,"32":0.5327979922294617,"33":0.7541062235832214,"34":-1.6434476375579834,"35":0.017778625711798668,"36":-1.2935489416122437,"37":0.30608242750167847,"38":-1.8435089588165283,"39":-0.8669410347938538,"40":0.2683303952217102,"41":-1.9542840719223022,"42":-0.6322413086891174,"43":0.42168205976486206,"44":0.2124246507883072,"45":0.09695291519165039,"46":1.6982166767120361,"47":1.0356169939041138,"48":0.9720667004585266,"49":-0.9187012910842896,"50":0.5875114798545837,"51":0.000166534140589647,"52":1.2969989776611328,"53":-0.8270560503005981,"54":-0.28734251856803894,"55":-0.6185334324836731,"56":0.5305678844451904,"57":0.974405825138092,"58":-0.05878418684005737,"59":-0.5449225902557373,"60":-0.8306408524513245,"61":-0.7167178988456726,"62":-0.28255748748779297,"63":-0.6509400010108948,"64":0.5873516201972961,"65":-1.3865302801132202,"66":-0.3840113580226898,"67":0.9927348494529724,"68":-0.6766529679298401,"69":-0.2691149413585663,"70":2.2812118530273438,"71":0.46555188298225403,"72":0.24093684554100037,"73":-1.4432861804962158,"74":-1.0104531049728394,"75":-0.3879756033420563,"76":-0.4244588315486908,"77":0.6325681805610657,"78":-1.4231696128845215,"79":0.7125504612922668,"80":2.987431526184082,"81":-1.3825395107269287,"82":1.3086645603179932,"83":-1.760810136795044,"84":-3.3053576946258545,"85":1.7972416877746582,"86":-4.887584209442139,"87":1.057593584060669,"88":-1.3567824363708496,"89":-1.2884825468063354,"90":2.2135226726531982,"91":0.3086489140987396,"92":-0.4205598533153534,"93":1.98562753200531,"94":0.6850646138191223,"95":3.380502462387085,"96":-1.9710206985473633,"97":3.9166054725646973,"98":0.29095351696014404,"99":0.9431020021438599,"100":-0.48921385407447815,"101":-1.4435174465179443,"102":-0.30384019017219543,"103":-0.5725839734077454,"104":1.2142233848571777,"105":-0.5173407793045044,"106":0.21302920579910278,"107":0.4714163839817047,"108":-0.07609355449676514,"109":0.8680084347724915,"110":0.0744817927479744,"111":-3.161663770675659,"112":-0.29800137877464294,"113":-0.6085150837898254,"114":-0.30054208636283875,"115":0.3117105960845947,"116":0.9496444463729858,"117":0.238926500082016,"118":1.960752248764038,"119":0.3937396705150604,"120":1.9290140867233276,"121":-1.09816575050354,"122":0.7012059688568115,"123":0.517308235168457,"124":-0.05700621008872986,"125":-1.259806752204895,"126":-1.306348443031311,"127":1.6661921739578247,"128":-0.9536545872688293,"129":0.9907526969909668,"130":-0.4391928017139435,"131":0.16316546499729156,"132":-0.1005881130695343,"133":1.1371731758117676,"134":0.6468017101287842,"135":-0.12595222890377045,"136":-0.9892123341560364,"137":0.5038333535194397,"138":1.0165196657180786,"139":1.6622288227081299,"140":0.7818235754966736,"141":0.25303003191947937,"142":0.41422563791275024,"143":-0.9533820748329163,"144":-0.9423552751541138,"145":-1.2807973623275757,"146":-0.07384403795003891,"147":0.2717081308364868,"148":0.18238070607185364,"149":-1.0059244632720947,"150":0.6981726884841919,"151":-0.6821843385696411,"152":0.25564631819725037,"153":-1.0461232662200928,"154":0.02401488646864891,"155":0.1720009297132492,"156":0.1652555912733078,"157":0.3340362310409546,"158":0.133488267660141,"159":0.1233750581741333,"160":1.151450276374817,"161":0.7774105668067932,"162":-0.51177579164505,"163":0.6902678608894348,"164":-0.5108397603034973,"165":2.2170181274414062,"166":3.5796196460723877,"167":0.7046574354171753,"168":3.9091837406158447,"169":1.464246153831482,"170":-3.4117448329925537,"171":-1.9244636297225952,"172":0.7406541109085083,"173":2.4958081245422363,"174":3.199208974838257,"175":0.1534021645784378,"176":-0.28467684984207153,"177":-1.0361379384994507,"178":2.413783550262451,"179":-2.4078521728515625,"180":-0.5755289793014526,"181":-0.9850391745567322,"182":-0.6432289481163025,"183":-1.9830266237258911,"184":4.672666549682617,"185":-2.902700185775757,"186":2.1301259994506836,"187":2.2077550888061523,"188":0.4279351234436035,"189":-3.192838668823242,"190":0.4130382835865021,"191":-3.3124730587005615,"192":1.8315938711166382,"193":0.13963092863559723,"194":1.4369401931762695,"195":-0.7450645565986633,"196":-1.014825701713562,"197":0.016029033809900284,"198":1.689880609512329,"199":2.305633068084717,"200":0.5041440725326538,"201":-1.3604819774627686,"202":0.12037012726068497,"203":-0.6672094464302063,"204":-1.9823817014694214,"205":0.11673453450202942,"206":-1.705883502960205,"207":2.1696808338165283,"208":-0.4575822949409485,"209":0.2807556092739105,"210":1.8486567735671997,"211":-1.3626530170440674,"212":-0.14056426286697388,"213":1.0183639526367188,"214":0.4546058177947998,"215":0.20191965997219086,"216":-1.7725518941879272,"217":2.758939504623413,"218":0.4970909357070923,"219":0.06127750128507614,"220":-2.5849313735961914,"221":-2.3832197189331055,"222":-0.026607194915413857,"223":-0.3446352183818817,"224":1.645829677581787,"225":2.79464054107666,"226":3.5864901542663574,"227":-1.7935250997543335,"228":2.7666518688201904,"229":-0.8047842383384705,"230":-1.1926919221878052,"231":-2.831021547317505,"232":-0.5603801012039185,"233":-1.6424953937530518,"234":-1.4031022787094116,"235":-0.333551287651062,"236":-0.1575334668159485,"237":0.15532977879047394,"238":-0.7083580493927002,"239":0.07463090866804123,"240":0.773074746131897,"241":2.314486265182495,"242":3.1032297611236572,"243":-1.445383906364441,"244":-4.7607035636901855,"245":-0.22403858602046967,"246":-2.4344732761383057,"247":1.5324910879135132,"248":-0.4371818006038666,"249":2.872006416320801,"250":2.7644028663635254,"251":0.20252765715122223,"252":-0.6861104369163513,"253":0.7805866003036499,"254":-5.2752532958984375,"255":-4.914557933807373,"256":-2.5628178119659424,"257":0.8496388792991638,"258":0.458099901676178,"259":-1.7830426692962646,"260":0.2635651230812073,"261":-0.010311966761946678,"262":-1.1823385953903198,"263":0.5944324731826782,"264":4.020411014556885,"265":2.4113502502441406,"266":0.7848766446113586,"267":-1.2776998281478882,"268":0.04075254872441292,"269":-0.11287929117679596,"270":-2.915616035461426,"271":-0.4029632806777954,"272":-0.16763971745967865,"273":-2.835925579071045,"274":1.0772757530212402,"275":2.5200510025024414,"276":1.789229393005371,"277":0.8650635480880737,"278":0.9669897556304932,"279":2.91933012008667,"280":-1.6371785402297974,"281":-0.9258327484130859,"282":0.8290076851844788,"283":-0.8006806373596191,"284":-1.6902849674224854,"285":-0.8740515112876892,"286":-0.252637654542923,"287":-0.0779707208275795,"288":3.3070056438446045,"289":-0.40029177069664,"290":-0.8445470929145813,"291":2.4880144596099854,"292":-2.8558883666992188,"293":-4.166694641113281,"294":-0.21267226338386536,"295":1.3407928943634033,"296":1.7249860763549805,"297":1.2794816493988037,"298":-0.3617134988307953,"299":0.6720525622367859,"300":0.7194983959197998,"301":-0.176797017455101,"302":0.09883510321378708,"303":-0.37512636184692383,"304":-0.09747789055109024,"305":1.164641261100769,"306":-1.0931273698806763,"307":1.0204259157180786,"308":0.9482065439224243,"309":0.0505317859351635,"310":0.11468887329101562,"311":0.13188402354717255,"312":0.07954896241426468,"313":-1.1582491397857666,"314":0.15731607377529144,"315":0.43613263964653015,"316":-0.18349488079547882,"317":-0.12361760437488556,"318":-0.2551085352897644,"319":-0.6172916889190674,"320":-0.6723474860191345,"321":-0.39313703775405884,"322":1.2971199750900269,"323":-1.2072957754135132,"324":-1.4803706407546997,"325":1.4583759307861328,"326":0.08145071566104889,"327":-0.8484985828399658,"328":-0.1360514760017395,"329":0.019552599638700485,"330":2.1626744270324707,"331":1.2109525203704834,"332":1.131176233291626,"333":0.4289475083351135,"334":-0.8079949617385864,"335":-0.1186128705739975,"336":-0.694788932800293,"337":0.9785704612731934,"338":-1.0818606615066528,"339":-0.20327310264110565,"340":-2.5359268188476562,"341":-0.5962923765182495,"342":1.2633103132247925,"343":-0.5964982509613037,"344":1.554926872253418,"345":0.9079437255859375,"346":0.5915660262107849,"347":-0.021784963086247444,"348":-0.8811143636703491,"349":-0.3207927644252777,"350":-0.8947068452835083,"351":1.7907638549804688,"352":2.0766971111297607,"353":1.3029903173446655,"354":-0.8467068672180176,"355":-1.6110039949417114,"356":-1.1170498132705688,"357":2.6154351234436035,"358":0.1281285583972931,"359":-1.4489803314208984,"360":-1.404512643814087,"361":-0.6769083738327026,"362":0.9594935774803162,"363":-0.821124792098999,"364":0.9567828178405762,"365":1.2679506540298462,"366":-1.7350413799285889,"367":0.7578922510147095,"368":-0.6137858629226685,"369":0.7632158994674683,"370":0.9316807389259338,"371":-0.24001988768577576,"372":0.4180195927619934,"373":-0.5138806700706482,"374":-0.1126723438501358,"375":-0.8322566747665405,"376":0.23059232532978058,"377":-0.10788672417402267,"378":-0.7410565614700317,"379":0.5824809670448303,"380":0.4629882872104645,"381":0.8502421975135803,"382":-0.2517078220844269,"383":2.415184736251831,"384":-0.39914265275001526,"385":-2.4673783779144287,"386":-3.6494827270507812,"387":0.11935009062290192,"388":4.0499138832092285,"389":-0.4946114122867584,"390":0.8261027336120605,"391":-4.269656181335449,"392":2.7665019035339355,"393":-1.8389708995819092,"394":1.8057376146316528,"395":-3.4103643894195557,"396":-1.5737714767456055,"397":-1.815005898475647,"398":0.6013146042823792,"399":1.4876153469085693}},"forgetBias":{"rows":20,"columns":1,"weights":{"0":0,"1":0,"2":0,"3":0,"4":0,"5":0,"6":0,"7":0,"8":0,"9":0,"10":0,"11":0,"12":0,"13":0,"14":0,"15":0,"16":0,"17":0,"18":0,"19":0}},"outputMatrix":{"rows":20,"columns":29,"weights":{"0":1.1004407405853271,"1":-0.7458642721176147,"2":-2.3548145294189453,"3":0.010415867902338505,"4":0.21193797886371613,"5":-0.42041364312171936,"6":-0.16987036168575287,"7":-0.1708185076713562,"8":0.5439119935035706,"9":0.4127284586429596,"10":-0.5040494799613953,"11":0.5419207811355591,"12":0.9364436268806458,"13":-0.4759579002857208,"14":-1.8868623971939087,"15":-0.42174530029296875,"16":1.2009769678115845,"17":3.5773091316223145,"18":0.8075658082962036,"19":0.8943446278572083,"20":0.8890541195869446,"21":-2.4242234230041504,"22":0.33046677708625793,"23":-0.8689102530479431,"24":0.830289900302887,"25":2.04976224899292,"26":0.22373472154140472,"27":0.4388304352760315,"28":1.1187583208084106,"29":1.0201853513717651,"30":1.8668981790542603,"31":-0.15833891928195953,"32":1.2858806848526,"33":-0.620710551738739,"34":-1.099776029586792,"35":0.19619621336460114,"36":1.7194361686706543,"37":-0.5440891981124878,"38":-1.292884111404419,"39":-2.0388681888580322,"40":-3.3054304122924805,"41":0.6776350140571594,"42":1.8404886722564697,"43":2.227707624435425,"44":0.13055945932865143,"45":-0.568674623966217,"46":1.7866346836090088,"47":-0.278338760137558,"48":-0.18185430765151978,"49":0.20156657695770264,"50":-1.0692960023880005,"51":0.844541609287262,"52":-0.7113816142082214,"53":-1.4048473834991455,"54":1.747629165649414,"55":-0.8259044289588928,"56":0.22768737375736237,"57":1.1841912269592285,"58":0.6291007399559021,"59":2.6832704544067383,"60":2.1112172603607178,"61":0.013872819021344185,"62":1.5963512659072876,"63":0.3634304404258728,"64":-1.1801124811172485,"65":0.995866596698761,"66":0.2638455033302307,"67":0.5646541714668274,"68":-1.8036668300628662,"69":-1.5366240739822388,"70":1.9152296781539917,"71":2.4161698818206787,"72":1.0101507902145386,"73":1.9713897705078125,"74":3.0190505981445312,"75":0.45980194211006165,"76":-0.33439311385154724,"77":-0.6389424204826355,"78":-1.4032995700836182,"79":0.5696775317192078,"80":-0.5661445260047913,"81":0.860112190246582,"82":-0.9301893711090088,"83":0.8836763501167297,"84":-0.8777241706848145,"85":-0.4509997069835663,"86":-0.12022679299116135,"87":0.49976328015327454,"88":0.13872919976711273,"89":-0.5531126260757446,"90":1.6080093383789062,"91":-0.8489239811897278,"92":-1.952738642692566,"93":-0.47914931178092957,"94":0.3523023724555969,"95":-0.7034062743186951,"96":0.6963619589805603,"97":-1.0133676528930664,"98":-0.7649609446525574,"99":0.461799681186676,"100":0.41000330448150635,"101":0.9583921432495117,"102":-0.699100911617279,"103":-0.9910924434661865,"104":0.03231849521398544,"105":2.139937400817871,"106":-1.3015462160110474,"107":0.5959308743476868,"108":2.7954444885253906,"109":1.0606064796447754,"110":-0.5729278326034546,"111":-0.7170145511627197,"112":1.2535271644592285,"113":0.5522324442863464,"114":-0.3329992890357971,"115":0.46907344460487366,"116":-3.4935741424560547,"117":-2.421581268310547,"118":-1.1356303691864014,"119":0.554766058921814,"120":-0.21824194490909576,"121":-0.6595593094825745,"122":0.6309972405433655,"123":-1.8373522758483887,"124":-0.11049399524927139,"125":-1.1387784481048584,"126":-1.255428671836853,"127":0.04074443131685257,"128":-0.04537578672170639,"129":-1.1216094493865967,"130":0.7271625399589539,"131":-0.6277182102203369,"132":0.38265442848205566,"133":-1.2753005027770996,"134":1.637291669845581,"135":0.29495951533317566,"136":0.22727924585342407,"137":0.16923567652702332,"138":0.3619017004966736,"139":-1.013677716255188,"140":1.3227367401123047,"141":-0.3983103930950165,"142":2.077580451965332,"143":-0.25162473320961,"144":0.13822665810585022,"145":-0.12541653215885162,"146":0.9355165362358093,"147":-0.15191277861595154,"148":0.04808147996664047,"149":-0.4394280016422272,"150":0.34224849939346313,"151":0.24527426064014435,"152":-0.8004071116447449,"153":0.6165279746055603,"154":0.3830969035625458,"155":-4.256645202636719,"156":-3.063969850540161,"157":1.9253559112548828,"158":0.1573142260313034,"159":-0.9713424444198608,"160":1.0619477033615112,"161":-0.23093703389167786,"162":-0.060805559158325195,"163":-0.011795839294791222,"164":0.6694408655166626,"165":1.4523863792419434,"166":-2.1541924476623535,"167":-1.4085599184036255,"168":-0.8404677510261536,"169":-0.3471980690956116,"170":2.5884382724761963,"171":-1.0288721323013306,"172":0.2376061975955963,"173":0.8555571436882019,"174":-0.8596775531768799,"175":0.48320087790489197,"176":0.334362268447876,"177":1.4010140895843506,"178":0.7056427597999573,"179":-0.5713698267936707,"180":-0.00015739063383080065,"181":2.47184419631958,"182":-1.182895541191101,"183":-0.9103691577911377,"184":-0.5392037630081177,"185":-0.9232900142669678,"186":3.263108968734741,"187":2.316908359527588,"188":3.127307653427124,"189":0.08716879040002823,"190":1.7633490562438965,"191":2.0327699184417725,"192":-0.7553106546401978,"193":-1.1693841218948364,"194":0.418536901473999,"195":-0.5525570511817932,"196":-0.082297682762146,"197":-0.5782272219657898,"198":-0.41816747188568115,"199":3.5412380695343018,"200":-0.09501613676548004,"201":-1.794242024421692,"202":0.7202222943305969,"203":-0.2787180542945862,"204":0.37088754773139954,"205":1.3780685663223267,"206":1.4119404554367065,"207":2.1154444217681885,"208":-1.136357069015503,"209":0.14615027606487274,"210":1.2191394567489624,"211":-2.758453130722046,"212":-0.5168826580047607,"213":1.1863921880722046,"214":0.08333183825016022,"215":0.2747636139392853,"216":-0.3715532124042511,"217":1.7153770923614502,"218":0.6232364773750305,"219":-0.3950363099575043,"220":0.7184910774230957,"221":1.635466456413269,"222":-2.451204299926758,"223":1.4327458143234253,"224":0.014530002139508724,"225":1.4151948690414429,"226":-1.6639430522918701,"227":-0.016298137605190277,"228":1.766498327255249,"229":-0.1314772367477417,"230":-2.5352556705474854,"231":-2.0455827713012695,"232":0.7442613244056702,"233":-0.2507980763912201,"234":-0.7880436778068542,"235":-2.0327277183532715,"236":-2.5872962474823,"237":2.028743028640747,"238":1.6420444250106812,"239":-0.42171767354011536,"240":1.0538729429244995,"241":-0.9056660532951355,"242":-0.7427480816841125,"243":-0.6494864225387573,"244":-0.6871098875999451,"245":-0.6089799404144287,"246":-0.717147707939148,"247":-1.5704419612884521,"248":0.1301729530096054,"249":-1.1253297328948975,"250":-1.6563382148742676,"251":0.9797231554985046,"252":-0.3712722361087799,"253":0.4771310091018677,"254":-1.9108684062957764,"255":2.5247371196746826,"256":1.4055932760238647,"257":-1.5348401069641113,"258":1.3334826231002808,"259":1.2050120830535889,"260":0.9413040280342102,"261":-0.31911414861679077,"262":0.9499896168708801,"263":-0.876532256603241,"264":-0.11168906837701797,"265":-2.4778759479522705,"266":-0.31616276502609253,"267":5.319522857666016,"268":-0.3826168179512024,"269":2.4517385959625244,"270":-2.4544806480407715,"271":0.274583637714386,"272":-0.806569516658783,"273":2.0664777755737305,"274":-1.1200556755065918,"275":1.0957918167114258,"276":-0.15793292224407196,"277":1.9172089099884033,"278":0.20681244134902954,"279":0.4842824339866638,"280":2.2811827659606934,"281":0.8943880796432495,"282":-0.27982962131500244,"283":-1.8840605020523071,"284":0.034133948385715485,"285":1.244827389717102,"286":2.0982773303985596,"287":0.26002413034439087,"288":1.4503720998764038,"289":-1.5994367599487305,"290":0.5750528573989868,"291":-0.25728288292884827,"292":0.29620587825775146,"293":0.488768994808197,"294":2.3136937618255615,"295":0.016712911427021027,"296":-3.1849584579467773,"297":-0.38336920738220215,"298":-0.5600624084472656,"299":3.1004858016967773,"300":-2.5344855785369873,"301":-0.4156153202056885,"302":-0.6301975250244141,"303":-0.007366100791841745,"304":-0.909549355506897,"305":1.8473236560821533,"306":-0.4163350462913513,"307":-2.3782870769500732,"308":1.0605926513671875,"309":-0.3559277653694153,"310":-2.0626375675201416,"311":-1.1612074375152588,"312":0.1489529013633728,"313":-0.03258343040943146,"314":0.18294084072113037,"315":0.6905249953269958,"316":-1.0895633697509766,"317":-0.9593119621276855,"318":1.0374568700790405,"319":-0.8551965951919556,"320":0.9937312006950378,"321":-0.8221587538719177,"322":-3.6508917808532715,"323":-1.14517343044281,"324":2.0435779094696045,"325":0.3572743833065033,"326":-0.15607202053070068,"327":1.513114094734192,"328":-1.581336498260498,"329":2.6042773723602295,"330":1.6200742721557617,"331":-0.34051069617271423,"332":-0.33257731795310974,"333":-0.08209214359521866,"334":0.5140165686607361,"335":-1.3862268924713135,"336":0.67473965883255,"337":-1.0048221349716187,"338":2.194021224975586,"339":-1.0018340349197388,"340":-1.1146957874298096,"341":-0.5199405550956726,"342":0.8351961374282837,"343":-0.7933638095855713,"344":0.6690548658370972,"345":-0.8369288444519043,"346":0.973964273929596,"347":-1.4572877883911133,"348":-1.3710682392120361,"349":0.13277265429496765,"350":-0.027631746605038643,"351":0.41497257351875305,"352":1.1906633377075195,"353":0.2593892216682434,"354":-0.2510454058647156,"355":0.9000986218452454,"356":-0.10386486351490021,"357":0.7854214310646057,"358":0.1270846724510193,"359":-0.3172406554222107,"360":2.499831438064575,"361":0.5106889605522156,"362":0.9006838798522949,"363":0.8621488809585571,"364":-0.5564815402030945,"365":1.8596606254577637,"366":1.8971060514450073,"367":0.05217479541897774,"368":1.7825871706008911,"369":0.31919577717781067,"370":0.44356754422187805,"371":-0.6144020557403564,"372":-0.6375467777252197,"373":2.1483864784240723,"374":-0.7438292503356934,"375":0.200280100107193,"376":-1.2390707731246948,"377":-0.3732946813106537,"378":1.8813775777816772,"379":0.3595018684864044,"380":-1.7403663396835327,"381":-0.30279067158699036,"382":0.8094761967658997,"383":1.9924615621566772,"384":-0.30251771211624146,"385":0.5716443061828613,"386":-1.6401190757751465,"387":0.8604243397712708,"388":0.7263553142547607,"389":-0.9131177663803101,"390":0.46095067262649536,"391":-0.9911022186279297,"392":0.8285378813743591,"393":0.1976839154958725,"394":-1.5687017440795898,"395":-2.1623377799987793,"396":-0.23605333268642426,"397":-2.785433530807495,"398":-0.5734031200408936,"399":-2.9959287643432617,"400":2.167691469192505,"401":-1.4472962617874146,"402":-3.2522060871124268,"403":-0.19476532936096191,"404":0.017947057262063026,"405":-0.36777883768081665,"406":-0.06996313482522964,"407":-0.8709812760353088,"408":-1.2446318864822388,"409":0.8380606770515442,"410":-1.003472924232483,"411":-1.479814052581787,"412":0.7310181260108948,"413":1.564642310142517,"414":0.25617220997810364,"415":-0.6257808208465576,"416":-3.03959584236145,"417":-1.8188776969909668,"418":0.5416324138641357,"419":0.6115593910217285,"420":-0.7018175721168518,"421":-1.5213139057159424,"422":0.48969465494155884,"423":1.5004416704177856,"424":-0.5791724324226379,"425":-0.25293028354644775,"426":0.03923964500427246,"427":-1.2196325063705444,"428":-1.2238680124282837,"429":-0.4344593584537506,"430":-0.6001505255699158,"431":0.9731619954109192,"432":-0.07244749367237091,"433":1.4127541780471802,"434":1.4314978122711182,"435":1.816137433052063,"436":0.9342235326766968,"437":1.938802719116211,"438":1.393394947052002,"439":1.25669264793396,"440":0.43221619725227356,"441":1.1384185552597046,"442":0.236066535115242,"443":-1.4603805541992188,"444":0.32288020849227905,"445":-0.5682806372642517,"446":-2.637955904006958,"447":1.0511152744293213,"448":0.726520299911499,"449":2.416736364364624,"450":0.7457715272903442,"451":1.0138894319534302,"452":-0.10380304604768753,"453":0.19046853482723236,"454":-1.3440215587615967,"455":0.13115575909614563,"456":-0.08055426925420761,"457":1.2360482215881348,"458":-1.0201358795166016,"459":-0.49083244800567627,"460":3.0418965816497803,"461":-0.5039507150650024,"462":-2.4361839294433594,"463":-0.8407171964645386,"464":-0.8194853663444519,"465":-0.8134652972221375,"466":0.5181333422660828,"467":2.5259616374969482,"468":2.0698883533477783,"469":-1.518839955329895,"470":-1.331851601600647,"471":2.0364298820495605,"472":-1.963735580444336,"473":1.1466126441955566,"474":-0.03541349619626999,"475":-0.9428414702415466,"476":2.651841640472412,"477":1.1178058385849,"478":1.9764200448989868,"479":0.45974063873291016,"480":0.16865263879299164,"481":1.5497002601623535,"482":1.7658307552337646,"483":-2.534895658493042,"484":1.2073086500167847,"485":1.7605688571929932,"486":2.5221939086914062,"487":-1.8725595474243164,"488":-0.13674454391002655,"489":2.5155141353607178,"490":0.23270216584205627,"491":-2.0603561401367188,"492":-0.19103536009788513,"493":-0.6143535375595093,"494":-2.230682849884033,"495":-0.9856134057044983,"496":0.5761387944221497,"497":1.1438089609146118,"498":-0.04904431477189064,"499":0.6453713774681091,"500":-1.5768665075302124,"501":0.5711647868156433,"502":0.41080808639526367,"503":-0.20185117423534393,"504":-0.2144174724817276,"505":-0.713005542755127,"506":-0.49127259850502014,"507":-0.6455134153366089,"508":-1.3842253684997559,"509":0.4842013120651245,"510":-1.0485255718231201,"511":-0.49987366795539856,"512":0.16430173814296722,"513":1.0374197959899902,"514":-1.1509275436401367,"515":0.853320300579071,"516":0.2926667332649231,"517":1.489153265953064,"518":-1.1932077407836914,"519":2.1007938385009766,"520":0.689178466796875,"521":-0.27199748158454895,"522":0.19254761934280396,"523":0.7312324047088623,"524":0.20960238575935364,"525":-1.3411073684692383,"526":-0.001912657986395061,"527":2.2706854343414307,"528":-1.2354611158370972,"529":-1.277426838874817,"530":0.7998095750808716,"531":0.006866228301078081,"532":-1.6638356447219849,"533":-1.779204249382019,"534":-1.6420843601226807,"535":2.1908962726593018,"536":0.8806788325309753,"537":1.5592262744903564,"538":0.3564326763153076,"539":-2.6061878204345703,"540":-2.663989305496216,"541":0.4809647798538208,"542":-3.0412819385528564,"543":-1.4134067296981812,"544":-2.998727798461914,"545":1.6187773942947388,"546":-0.9427595138549805,"547":-0.5187954902648926,"548":-1.2205899953842163,"549":-0.010630027391016483,"550":2.1287896633148193,"551":-1.5630136728286743,"552":2.299935817718506,"553":-0.7746270298957825,"554":-0.7329553961753845,"555":-0.47170117497444153,"556":-0.2288379818201065,"557":1.8183375597000122,"558":-0.3132321834564209,"559":0.6210787296295166,"560":-2.0980515480041504,"561":0.09330835193395615,"562":-0.47495755553245544,"563":0.6190030574798584,"564":0.42083391547203064,"565":-0.8109251260757446,"566":0.3863357603549957,"567":0.9159708023071289,"568":0.884183943271637,"569":1.236055850982666,"570":-0.03522226959466934,"571":-0.22542573511600494,"572":1.4172773361206055,"573":-1.8076645135879517,"574":-0.34184640645980835,"575":0.24720913171768188,"576":-0.2954432964324951,"577":-0.31720244884490967,"578":0.38920858502388,"579":0.3199923634529114}},"outputHidden":{"rows":20,"columns":20,"weights":{"0":2.4646434783935547,"1":2.0731563568115234,"2":1.5457165241241455,"3":0.5574711561203003,"4":3.0734047889709473,"5":-4.062230110168457,"6":1.850145697593689,"7":4.164094924926758,"8":-1.8397125005722046,"9":-1.071631908416748,"10":-3.87013840675354,"11":-0.09448529779911041,"12":2.4956860542297363,"13":0.10772546380758286,"14":1.989367961883545,"15":-1.174885630607605,"16":-1.3296852111816406,"17":-3.0762462615966797,"18":-2.815643310546875,"19":0.7136924862861633,"20":1.0009764432907104,"21":1.204236388206482,"22":-1.6926751136779785,"23":-0.31217721104621887,"24":-3.3043479919433594,"25":1.1473864316940308,"26":3.606605052947998,"27":-0.9566481113433838,"28":-2.372206211090088,"29":-0.28624227643013,"30":-0.16550472378730774,"31":0.17474637925624847,"32":2.677717924118042,"33":1.0469329357147217,"34":1.9135394096374512,"35":-2.4168541431427,"36":0.7202436923980713,"37":0.7467774152755737,"38":0.1442120224237442,"39":1.6197680234909058,"40":-0.21414318680763245,"41":1.0639132261276245,"42":-0.6786914467811584,"43":-0.7296328544616699,"44":-2.226127862930298,"45":1.57966947555542,"46":0.3511735796928406,"47":-0.7990512251853943,"48":0.6971338391304016,"49":-0.6568679213523865,"50":-0.6325100660324097,"51":-1.5966246128082275,"52":-0.3953469693660736,"53":-1.137037992477417,"54":-2.2392473220825195,"55":0.9938130974769592,"56":1.1149266958236694,"57":2.3642637729644775,"58":-0.29298877716064453,"59":-1.8770519495010376,"60":0.6343753933906555,"61":0.1577632874250412,"62":1.922529697418213,"63":0.7615035772323608,"64":0.07779189944267273,"65":-0.0813041403889656,"66":0.4840013086795807,"67":-1.0054214000701904,"68":1.6264065504074097,"69":-5.1918134689331055,"70":-0.3658117651939392,"71":-1.6509993076324463,"72":-0.8501563668251038,"73":1.2148603200912476,"74":-1.1821008920669556,"75":-2.1591272354125977,"76":-1.5582386255264282,"77":0.49192824959754944,"78":-3.7244651317596436,"79":-4.208052635192871,"80":1.3907185792922974,"81":-3.3573758602142334,"82":1.3243036270141602,"83":-2.966752767562866,"84":-2.2433013916015625,"85":-2.296938896179199,"86":-4.069305419921875,"87":-0.6841778755187988,"88":1.1927529573440552,"89":-0.44382143020629883,"90":2.4457147121429443,"91":3.2791354656219482,"92":-0.9164843559265137,"93":1.4367854595184326,"94":-0.8190760612487793,"95":-0.03113761730492115,"96":-2.2316598892211914,"97":3.6423847675323486,"98":-0.061182260513305664,"99":-1.2390905618667603,"100":2.5804555416107178,"101":1.5198004245758057,"102":-0.08115753531455994,"103":1.1769108772277832,"104":2.640721082687378,"105":-3.9524881839752197,"106":-3.591946601867676,"107":1.115053653717041,"108":-4.336685657501221,"109":-0.30606237053871155,"110":0.9006778597831726,"111":2.948826551437378,"112":-3.7285726070404053,"113":-4.4484992027282715,"114":-0.8354596495628357,"115":-0.08720461279153824,"116":4.180663108825684,"117":-2.4259090423583984,"118":-1.9810972213745117,"119":-0.6708085536956787,"120":2.2480831146240234,"121":-0.650796115398407,"122":1.5529621839523315,"123":0.1352473497390747,"124":-1.9859027862548828,"125":0.25909024477005005,"126":-0.9475152492523193,"127":2.845548152923584,"128":-2.683711528778076,"129":2.3058855533599854,"130":-0.2373751550912857,"131":-0.4875739812850952,"132":0.009295077994465828,"133":0.970437228679657,"134":-0.8529873490333557,"135":-0.11518777161836624,"136":-1.5774140357971191,"137":1.6579099893569946,"138":-2.0085501670837402,"139":0.19000296294689178,"140":-1.2542500495910645,"141":-1.3174184560775757,"142":-0.4707651734352112,"143":-0.6379745602607727,"144":1.0072683095932007,"145":-0.252430260181427,"146":1.1227706670761108,"147":-0.019604509696364403,"148":0.6564963459968567,"149":-0.21969731152057648,"150":-0.18891747295856476,"151":0.5099189281463623,"152":1.588258981704712,"153":-2.4851386547088623,"154":-0.1888115406036377,"155":1.0502902269363403,"156":-0.5085856914520264,"157":0.5432338118553162,"158":-0.2202358990907669,"159":-1.1196576356887817,"160":1.2475297451019287,"161":3.017976760864258,"162":-0.8087977766990662,"163":1.7490776777267456,"164":-0.631706953048706,"165":-3.27384877204895,"166":-2.1581873893737793,"167":-0.7194961905479431,"168":-0.08297888189554214,"169":-1.5506391525268555,"170":-0.9454311728477478,"171":-1.2924017906188965,"172":-2.6102070808410645,"173":2.0881502628326416,"174":1.6836562156677246,"175":-1.1444741487503052,"176":-1.4898265600204468,"177":0.1216060221195221,"178":0.9605704545974731,"179":1.232506275177002,"180":-0.2436532974243164,"181":-0.41101646423339844,"182":1.4762195348739624,"183":-1.9352091550827026,"184":-0.27827188372612,"185":-2.5928213596343994,"186":1.9531822204589844,"187":-2.795515775680542,"188":-0.13214625418186188,"189":2.605574131011963,"190":0.7900885343551636,"191":-3.7921085357666016,"192":1.8561879396438599,"193":0.4777372181415558,"194":-3.003103733062744,"195":-0.9173632264137268,"196":-0.38409966230392456,"197":-0.27902770042419434,"198":2.2895424365997314,"199":-1.499247670173645,"200":2.4194376468658447,"201":0.5665180683135986,"202":0.10094710439443588,"203":1.8786230087280273,"204":-1.917179822921753,"205":0.3713826537132263,"206":0.3531514108181,"207":3.0978832244873047,"208":0.11492636799812317,"209":-1.2727382183074951,"210":0.21626423299312592,"211":2.3687527179718018,"212":-1.376304030418396,"213":-2.303049325942993,"214":1.2500015497207642,"215":-0.19698277115821838,"216":0.4729834198951721,"217":2.6254756450653076,"218":-1.2007337808609009,"219":-3.2664148807525635,"220":-2.1120829582214355,"221":-4.011015892028809,"222":-4.461953163146973,"223":-2.4306774139404297,"224":2.029750347137451,"225":-3.749728202819824,"226":3.7480344772338867,"227":-0.4122945964336395,"228":2.799715280532837,"229":-4.268169403076172,"230":0.32092300057411194,"231":-3.392129421234131,"232":0.7772528529167175,"233":-1.801184892654419,"234":-2.1374759674072266,"235":3.656221628189087,"236":-1.1844894886016846,"237":-1.410103678703308,"238":2.1727705001831055,"239":-1.015201449394226,"240":0.7799190878868103,"241":-0.3977081775665283,"242":3.6801111698150635,"243":-0.13567155599594116,"244":-3.682342767715454,"245":0.3518781363964081,"246":0.9121347665786743,"247":-2.362175226211548,"248":-0.6580916047096252,"249":1.8776562213897705,"250":1.1994600296020508,"251":2.880634307861328,"252":-2.045574903488159,"253":0.23251307010650635,"254":-3.207129955291748,"255":-8.338726043701172,"256":0.031732477247714996,"257":0.42973291873931885,"258":1.6300419569015503,"259":-4.054609298706055,"260":0.049540791660547256,"261":0.6341436505317688,"262":0.5016354918479919,"263":-1.8761930465698242,"264":0.8107239603996277,"265":-1.4604264497756958,"266":-0.24715298414230347,"267":-0.8631177544593811,"268":0.4521402418613434,"269":0.5360721349716187,"270":0.3899700939655304,"271":1.3555887937545776,"272":-0.49695542454719543,"273":-0.6898504495620728,"274":0.9128322005271912,"275":-0.07337777316570282,"276":-0.07339661568403244,"277":-0.3841940462589264,"278":1.2637823820114136,"279":2.775683879852295,"280":-0.8382293581962585,"281":-3.826132297515869,"282":0.33948174118995667,"283":-2.9918978214263916,"284":1.2968465089797974,"285":-2.3446245193481445,"286":2.700462579727173,"287":2.5022802352905273,"288":-0.7172945737838745,"289":0.2905982732772827,"290":0.6458964347839355,"291":4.457577228546143,"292":0.08387257158756256,"293":0.347661554813385,"294":1.4582223892211914,"295":-2.2720425128936768,"296":0.5112178325653076,"297":-0.23955510556697845,"298":-3.121129274368286,"299":-1.5511481761932373,"300":-1.970640778541565,"301":0.8529504537582397,"302":0.26452627778053284,"303":-1.3841266632080078,"304":-1.2935558557510376,"305":-0.29941126704216003,"306":0.10328790545463562,"307":-0.36420339345932007,"308":1.7469981908798218,"309":-3.830089569091797,"310":1.265324354171753,"311":2.034118175506592,"312":1.3286162614822388,"313":-4.193280220031738,"314":-1.7339268922805786,"315":1.1336828470230103,"316":2.5943448543548584,"317":1.2575149536132812,"318":-2.1559958457946777,"319":-2.5973522663116455,"320":0.4798986315727234,"321":0.2111489474773407,"322":-0.7018022537231445,"323":0.15856428444385529,"324":-0.2601931393146515,"325":1.4845820665359497,"326":0.6763054132461548,"327":-0.8101340532302856,"328":-0.10698416084051132,"329":-0.24823163449764252,"330":1.8104335069656372,"331":2.2671687602996826,"332":-0.3146655261516571,"333":1.2812867164611816,"334":1.6449872255325317,"335":0.21713760495185852,"336":1.1239019632339478,"337":-0.19917218387126923,"338":-1.0147560834884644,"339":0.40817204117774963,"340":-3.4812159538269043,"341":-1.3077811002731323,"342":0.7808507680892944,"343":0.7806175947189331,"344":-1.419034719467163,"345":-0.21530494093894958,"346":1.9991319179534912,"347":-0.5674601197242737,"348":-5.514296531677246,"349":0.09191418439149857,"350":0.36042842268943787,"351":1.185882806777954,"352":2.5812370777130127,"353":1.4854497909545898,"354":-1.3114221096038818,"355":0.6556975245475769,"356":-0.8431679606437683,"357":2.0658693313598633,"358":-0.06379133462905884,"359":-2.861351251602173,"360":3.0354552268981934,"361":2.325951099395752,"362":-4.00933313369751,"363":-0.06931020319461823,"364":-0.6146386861801147,"365":1.7920403480529785,"366":-1.7820765972137451,"367":1.0800968408584595,"368":1.7044306993484497,"369":-2.3598244190216064,"370":-2.0251448154449463,"371":1.4179894924163818,"372":-1.2612278461456299,"373":1.878794550895691,"374":0.4760625958442688,"375":-3.136751890182495,"376":0.24503280222415924,"377":1.2110992670059204,"378":-0.2054271101951599,"379":1.151726484298706,"380":-5.337307453155518,"381":1.4244277477264404,"382":0.15080739557743073,"383":-2.857252359390259,"384":0.21042713522911072,"385":2.9291832447052,"386":-2.7403602600097656,"387":5.1592230796813965,"388":3.05656099319458,"389":-1.7689183950424194,"390":-4.285457134246826,"391":-8.305862426757812,"392":0.8753672242164612,"393":-1.3726283311843872,"394":-0.5823466777801514,"395":-0.8513674139976501,"396":1.2763934135437012,"397":-0.9419944882392883,"398":-0.41246429085731506,"399":3.3509223461151123}},"outputBias":{"rows":20,"columns":1,"weights":{"0":0.43551015853881836,"1":-0.4890718460083008,"2":-0.4058149456977844,"3":-0.696087121963501,"4":0.012395928613841534,"5":0.9613572359085083,"6":3.7563610076904297,"7":-1.2690954208374023,"8":0.009530396200716496,"9":0.50528484582901,"10":0.46727365255355835,"11":0.2026512771844864,"12":0.1674792468547821,"13":0.07982581853866577,"14":-0.3094434440135956,"15":-1.772850751876831,"16":-0.10949733853340149,"17":0.007514340337365866,"18":0.993435263633728,"19":0.522947371006012}},