{"type":"LSTM","options":{"inputSize":31,"inputRange":31,"hiddenLayers":[20,20],"outputSize":31,"decayRate":0.999,"smoothEps":1e-8,"regc":0.000001,"clipval":5,"maxPredictionLength":100,"dataFormatter":{"values":[["Laney","Kristian"],"Kristian",["Laney","Honey"],["Laney","Honeybear"],["Laney","Babe"],["Laney","Kristian Jones"],["Laney","Kristian F Jones"],["Laney","Adi"],"Adi",["Laney","Adi Linden"],["Laney","Harpreet"],"Harpreet",["Laney","HP"],["Kristian","Harpreeet"],["Kristian","HP"],["Kristian","Laney"],"Laney",["Kristian","Laney Gliddy"],["Kristian","Honeybear"],["Kristian","Honey"],["Kristian","Babe"],["Kristian","Babe"],["Adi","Kristian"],["Adi","Kristian Jones"],["Adi","Kristian F Jones"],["Adi","KristianFJones"],["Adi","Laney"],["Adi","Laney Gliddy"],["Adi","Harpreeet"],["Adi","HP"],["Kristian","Adi"],["Kristian","Adi Linden"]],"indexTable":{"Laney":0,"Kristian":1,"K":2,"r":3,"i":4,"s":5,"t":6,"a":7,"n":8,"Honey":9,"Honeybear":10,"Babe":11,"Kristian Jones":12,"Kristian F Jones":13,"Adi":14,"A":15,"d":16,"Adi Linden":17,"Harpreet":18,"H":19,"p":20,"e":21,"HP":22,"Harpreeet":23,"L":24,"y":25,"Laney Gliddy":26,"KristianFJones":27,"stop-input":28,"start-output":29,"unrecognized":30},"characterTable":{"0":"Laney","1":"Kristian","2":"K","3":"r","4":"i","5":"s","6":"t","7":"a","8":"n","9":"Honey","10":"Honeybear","11":"Babe","12":"Kristian Jones","13":"Kristian F Jones","14":"Adi","15":"A","16":"d","17":"Adi Linden","18":"Harpreet","19":"H","20":"p","21":"e","22":"HP","23":"Harpreeet","24":"L","25":"y","26":"Laney Gliddy","27":"KristianFJones","28":null,"29":null,"30":null},"characters":["Laney","Kristian","K","r","i","s","t","a","n","Honey","Honeybear","Babe","Kristian Jones","Kristian F Jones","Adi","A","d","Adi Linden","Harpreet","H","p","e","HP","Harpreeet","L","y","Laney Gliddy","KristianFJones","stop-input","start-output","unrecognized"],"specialIndexes":[28,29,30]}},"input":{"rows":32,"columns":31,"weights":{"0":-0.1603812873363495,"1":-0.17432904243469238,"2":-0.47821322083473206,"3":-0.20488472282886505,"4":-0.4569912850856781,"5":-0.4590306878089905,"6":0.0011826001573354006,"7":-0.12265592068433762,"8":-0.33434242010116577,"9":0.27389758825302124,"10":-0.4462893009185791,"11":-0.14427657425403595,"12":0.126116082072258,"13":0.7066084146499634,"14":-0.06554759293794632,"15":0.12045758962631226,"16":0.036623984575271606,"17":0.43747735023498535,"18":-0.03938838467001915,"19":-0.32288438081741333,"20":0.8812910914421082,"21":-0.008027242496609688,"22":-1.1909945011138916,"23":-0.00391117250546813,"24":0.4475594162940979,"25":-0.030710682272911072,"26":0.10650123655796051,"27":-0.07257404178380966,"28":-0.12832263112068176,"29":0.7795704007148743,"30":0.04468118026852608,"31":-1.3697223663330078,"32":0.4846676290035248,"33":0.6012770533561707,"34":1.3596909046173096,"35":0.8840534090995789,"36":-0.38151681423187256,"37":1.222274899482727,"38":1.3844738006591797,"39":-1.7406412363052368,"40":-0.811018168926239,"41":2.3877434730529785,"42":0.46952196955680847,"43":3.253652572631836,"44":1.5122936964035034,"45":1.5911531448364258,"46":-0.25143057107925415,"47":-1.7584660053253174,"48":0.3759806454181671,"49":1.254661202430725,"50":0.6442697048187256,"51":0.03078516200184822,"52":3.1566078662872314,"53":1.5705556869506836,"54":-0.212264746427536,"55":-0.6945633888244629,"56":1.0382616519927979,"57":-0.9890931248664856,"58":0.46725600957870483,"59":0.04700395092368126,"60":-1.762866497039795,"61":0.029644476249814034,"62":2.6048338413238525,"63":-5.707599639892578,"64":-0.9188790321350098,"65":-0.6045401096343994,"66":2.822962760925293,"67":2.541499376296997,"68":-0.06717847287654877,"69":-5.110669136047363,"70":1.992655634880066,"71":4.2053375244140625,"72":2.5738141536712646,"73":5.335709571838379,"74":-4.348601341247559,"75":-0.5456435680389404,"76":0.39674702286720276,"77":0.8645315170288086,"78":0.9604105949401855,"79":-3.1129844188690186,"80":-4.275298595428467,"81":0.2776879668235779,"82":-0.17268525063991547,"83":-3.5344302654266357,"84":1.2317171096801758,"85":-0.2961006462574005,"86":-2.67555832862854,"87":-0.909553050994873,"88":0.7533720135688782,"89":0.3777528405189514,"90":-5.436175346374512,"91":0.10906241834163666,"92":0.827749490737915,"93":0.09360397607088089,"94":-0.4395292401313782,"95":0.2560732662677765,"96":-0.30631256103515625,"97":-0.6907190680503845,"98":0.11150528490543365,"99":-0.5241890549659729,"100":-0.24543912708759308,"101":1.4458211660385132,"102":0.17822524905204773,"103":-2.5705626010894775,"104":-2.8440520763397217,"105":0.015391231514513493,"106":-1.1551094055175781,"107":-0.793465793132782,"108":-0.683521568775177,"109":-0.6452536582946777,"110":0.7086056470870972,"111":-0.12593093514442444,"112":0.7231966257095337,"113":-0.4342656135559082,"114":1.7625017166137695,"115":-3.155844211578369,"116":-0.21296104788780212,"117":1.7932448387145996,"118":1.0513701438903809,"119":-0.30502060055732727,"120":0.22229547798633575,"121":0.34009504318237305,"122":-0.7669335603713989,"123":-0.530838668346405,"124":0.9753889441490173,"125":-0.6222966313362122,"126":0.8529045581817627,"127":-0.26885634660720825,"128":1.3140157461166382,"129":1.4659324884414673,"130":-0.04508042708039284,"131":-0.862254798412323,"132":1.0081766843795776,"133":1.128487467765808,"134":1.077113389968872,"135":1.899570107460022,"136":-1.2226241827011108,"137":-0.683901846408844,"138":0.3279264271259308,"139":0.39142802357673645,"140":0.895805299282074,"141":-1.236320972442627,"142":-1.02876877784729,"143":0.05949612334370613,"144":-0.684981107711792,"145":-1.4623178243637085,"146":1.4678107500076294,"147":1.0883785486221313,"148":-1.341793179512024,"149":-0.7828781008720398,"150":1.0132158994674683,"151":-0.20591850578784943,"152":-0.3862678110599518,"153":-0.028748471289873123,"154":0.6972956657409668,"155":0.4088645577430725,"156":0.10087480396032333,"157":0.6059585809707642,"158":-1.0473936796188354,"159":0.08680319786071777,"160":-0.21502646803855896,"161":1.1707054376602173,"162":0.055072084069252014,"163":-0.03448858857154846,"164":1.821700096130371,"165":-0.03953482210636139,"166":0.43571144342422485,"167":-1.4138600826263428,"168":0.1081956997513771,"169":0.6933342218399048,"170":0.2933395206928253,"171":1.7891523838043213,"172":-0.1580786556005478,"173":0.027392635121941566,"174":-1.7393238544464111,"175":1.4598661661148071,"176":-0.34550490975379944,"177":0.4291080832481384,"178":1.5279228687286377,"179":-0.10296212881803513,"180":-1.7190532684326172,"181":1.1372580528259277,"182":-1.0493541955947876,"183":-0.01255975104868412,"184":1.4405951499938965,"185":1.332677960395813,"186":2.459171772003174,"187":-1.6574628353118896,"188":3.016122579574585,"189":-1.2228052616119385,"190":2.5056440830230713,"191":2.1919422149658203,"192":3.3780884742736816,"193":-2.130186080932617,"194":-0.10021354258060455,"195":1.26741623878479,"196":2.8064942359924316,"197":2.246478319168091,"198":-1.245581865310669,"199":0.7950977683067322,"200":2.8567914962768555,"201":1.5684928894042969,"202":1.3683702945709229,"203":-2.406005620956421,"204":-2.099490165710449,"205":-1.2137738466262817,"206":0.8152115941047668,"207":-2.8458569049835205,"208":2.989363670349121,"209":2.504758358001709,"210":-2.7718026638031006,"211":-1.6256095170974731,"212":1.2096843719482422,"213":-2.443983316421509,"214":-2.0227982997894287,"215":1.5231671333312988,"216":1.206129550933838,"217":0.3569301962852478,"218":-0.355746328830719,"219":1.3045507669448853,"220":-1.185687780380249,"221":0.40498989820480347,"222":0.6167038083076477,"223":1.3346455097198486,"224":0.07391268014907837,"225":0.7173709869384766,"226":1.3704335689544678,"227":0.1554574966430664,"228":1.0443817377090454,"229":-1.733782172203064,"230":0.3286672532558441,"231":1.4788367748260498,"232":1.4196009635925293,"233":1.8829537630081177,"234":-0.43976086378097534,"235":-0.5331717729568481,"236":-1.7254854440689087,"237":1.5548185110092163,"238":-0.5993530750274658,"239":0.9933930039405823,"240":1.3731671571731567,"241":-0.9837962985038757,"242":-1.6524903774261475,"243":1.3282140493392944,"244":-3.0966572761535645,"245":0.6023785471916199,"246":1.1718369722366333,"247":1.0539917945861816,"248":1.2795164585113525,"249":0.7959682941436768,"250":1.1559451818466187,"251":0.31169071793556213,"252":1.543014407157898,"253":1.4634674787521362,"254":-0.37198981642723083,"255":0.47437912225723267,"256":0.8380316495895386,"257":-0.18586502969264984,"258":1.7741678953170776,"259":0.08152004331350327,"260":0.047059621661901474,"261":-3.3676562309265137,"262":0.04347147420048714,"263":-0.16553224623203278,"264":-1.5247613191604614,"265":-1.3321388959884644,"266":-0.0650142952799797,"267":2.3017418384552,"268":-0.8481529951095581,"269":-0.29801836609840393,"270":1.325965166091919,"271":0.2283320128917694,"272":-1.4748456478118896,"273":0.23427703976631165,"274":-0.1598314642906189,"275":0.3193742334842682,"276":1.0019387006759644,"277":-1.4742356538772583,"278":-0.06617812067270279,"279":1.935858964920044,"280":-2.7419192790985107,"281":1.2904521226882935,"282":-1.2837282419204712,"283":1.8819935321807861,"284":1.6133716106414795,"285":0.571548581123352,"286":-1.8798203468322754,"287":-1.511029839515686,"288":1.7322514057159424,"289":1.794900894165039,"290":0.9564485549926758,"291":-0.9270725250244141,"292":0.869488000869751,"293":0.7235397696495056,"294":1.3511040210723877,"295":0.6173940300941467,"296":-1.5591531991958618,"297":-2.728062868118286,"298":-1.0103769302368164,"299":0.9644197821617126,"300":-1.7168850898742676,"301":1.3702415227890015,"302":0.9572597742080688,"303":-1.563395619392395,"304":-1.4105559587478638,"305":1.0622812509536743,"306":-1.5292531251907349,"307":-2.2539408206939697,"308":1.8251678943634033,"309":1.1442368030548096,"310":-2.260223150253296,"311":1.2240147590637207,"312":0.590354859828949,"313":3.705758571624756,"314":3.5820014476776123,"315":-1.0838098526000977,"316":4.0456132888793945,"317":2.4597721099853516,"318":-5.570253372192383,"319":-5.657726287841797,"320":3.43678617477417,"321":-0.27161720395088196,"322":6.181199073791504,"323":2.8283209800720215,"324":3.4499223232269287,"325":-3.428370714187622,"326":-2.150108814239502,"327":-2.2232143878936768,"328":1.0806913375854492,"329":0.5865861773490906,"330":-0.16296426951885223,"331":2.063652992248535,"332":0.5074983835220337,"333":-2.188077449798584,"334":-0.6287069916725159,"335":6.265860557556152,"336":-3.4627158641815186,"337":3.9562368392944336,"338":1.6897889375686646,"339":-5.059109210968018,"340":-1.432990550994873,"341":1.1570578813552856,"342":0.6601500511169434,"343":6.964801788330078,"344":2.820611000061035,"345":3.5376338958740234,"346":5.258016586303711,"347":1.4374611377716064,"348":0.007421095389872789,"349":5.1604156494140625,"350":-6.372339725494385,"351":6.734604358673096,"352":-0.9064112901687622,"353":2.5094234943389893,"354":-7.115620136260986,"355":1.0675736665725708,"356":-1.854948878288269,"357":1.175097942352295,"358":-2.1221911907196045,"359":-1.6937525272369385,"360":4.19676399230957,"361":-3.9577646255493164,"362":-0.8066826462745667,"363":5.023017406463623,"364":-1.2506836652755737,"365":-5.384719371795654,"366":1.0977224111557007,"367":-1.1701076030731201,"368":0.5387690663337708,"369":2.1894726753234863,"370":-7.070155143737793,"371":0.45633482933044434,"372":-5.3188629150390625,"373":5.235872268676758,"374":0.34795883297920227,"375":0.24684910476207733,"376":-2.082540512084961,"377":-4.909806251525879,"378":1.075951099395752,"379":5.863611221313477,"380":-4.433638095855713,"381":-2.1138579845428467,"382":-0.45505186915397644,"383":-2.8087801933288574,"384":3.232353925704956,"385":-0.4623225927352905,"386":-0.3498401641845703,"387":0.3224025070667267,"388":0.35192346572875977,"389":4.377018451690674,"390":5.549376964569092,"391":0.5682303309440613,"392":-0.6094523668289185,"393":7.006015300750732,"394":1.6195967197418213,"395":1.4872214794158936,"396":3.094130754470825,"397":0.43375322222709656,"398":-0.1018373891711235,"399":0.06655098497867584,"400":4.813045978546143,"401":-2.664318799972534,"402":0.48804613947868347,"403":-5.754859447479248,"404":-4.477755546569824,"405":-4.39528751373291,"406":3.9777772426605225,"407":-2.7997190952301025,"408":-0.21713107824325562,"409":-4.901226997375488,"410":6.495263576507568,"411":-4.797723293304443,"412":-2.246940851211548,"413":-1.5353816747665405,"414":-4.824351787567139,"415":5.04859733581543,"416":7.171020984649658,"417":-3.3197999000549316,"418":-2.740074872970581,"419":-3.341569423675537,"420":5.483658790588379,"421":-0.18519410490989685,"422":-1.8340210914611816,"423":-0.5782513618469238,"424":5.240283489227295,"425":-1.2252726554870605,"426":-5.404144763946533,"427":2.6026463508605957,"428":3.024951934814453,"429":-4.847709655761719,"430":2.349663019180298,"431":-5.240758895874023,"432":-0.3209257423877716,"433":-4.691318511962891,"434":0.3958107531070709,"435":-0.2232052981853485,"436":1.7760378122329712,"437":-4.491149425506592,"438":1.0870575904846191,"439":2.2173337936401367,"440":2.8508899211883545,"441":-2.086238145828247,"442":-7.512173175811768,"443":2.663032054901123,"444":-0.12436295300722122,"445":1.1556096076965332,"446":-2.96237850189209,"447":4.266381740570068,"448":2.4298534393310547,"449":5.0619940757751465,"450":4.879632949829102,"451":-3.0376641750335693,"452":0.6356939077377319,"453":-6.486237049102783,"454":3.757056951522827,"455":1.3617451190948486,"456":1.521872639656067,"457":4.635069847106934,"458":-2.0806658267974854,"459":-5.518145561218262,"460":1.4546353816986084,"461":-4.588390827178955,"462":-3.5305819511413574,"463":5.8106584548950195,"464":3.7744686603546143,"465":-0.14151935279369354,"466":3.4324467182159424,"467":-2.7264747619628906,"468":-0.07266470789909363,"469":-5.247396469116211,"470":-1.209187626838684,"471":-1.3326053619384766,"472":-0.9468477964401245,"473":3.387648344039917,"474":-0.29494592547416687,"475":-4.820756912231445,"476":-3.60661244392395,"477":0.025011980906128883,"478":-1.740291714668274,"479":-4.539094924926758,"480":-2.730234384536743,"481":2.140915632247925,"482":0.3419957160949707,"483":-0.015981610864400864,"484":2.814168930053711,"485":-3.012686252593994,"486":-0.32550930976867676,"487":-2.026872396469116,"488":-0.6642065644264221,"489":4.808074474334717,"490":-0.4044128656387329,"491":0.19408011436462402,"492":2.76898455619812,"493":2.7887775897979736,"494":0.273475706577301,"495":-0.4033016562461853,"496":-0.14066089689731598,"497":1.0306034088134766,"498":3.1694631576538086,"499":-0.062333278357982635,"500":2.5085842609405518,"501":0.18881510198116302,"502":2.1873273849487305,"503":-0.1273219883441925,"504":-1.187968134880066,"505":0.3154910206794739,"506":4.602626323699951,"507":0.7055137157440186,"508":-1.83009934425354,"509":-0.44026267528533936,"510":1.397691011428833,"511":0.8969340324401855,"512":1.8077211380004883,"513":-1.7490317821502686,"514":0.2885514199733734,"515":-0.06705889850854874,"516":-0.654754638671875,"517":-3.481415271759033,"518":4.499090194702148,"519":1.6443957090377808,"520":-1.3272662162780762,"521":-1.1205415725708008,"522":-0.7063276767730713,"523":-0.768521249294281,"524":0.5763880014419556,"525":0.24328216910362244,"526":1.2622649669647217,"527":-1.7218101024627686,"528":2.018660545349121,"529":0.5256534814834595,"530":1.4374198913574219,"531":-2.790858030319214,"532":-2.594358444213867,"533":-2.229701042175293,"534":-0.20855268836021423,"535":1.1238151788711548,"536":-0.5246711373329163,"537":-4.68686580657959,"538":-3.108666181564331,"539":0.17425191402435303,"540":-0.9952443838119507,"541":-2.4717445373535156,"542":-2.061134099960327,"543":-1.4095187187194824,"544":3.523690700531006,"545":2.2803492546081543,"546":0.8361638188362122,"547":-0.9145786762237549,"548":1.230810523033142,"549":-1.1423059701919556,"550":-1.3113418817520142,"551":3.4158177375793457,"552":1.106549620628357,"553":-2.243389129638672,"554":1.4985249042510986,"555":1.9371819496154785,"556":0.3991088271141052,"557":-2.3918728828430176,"558":8.192793846130371,"559":-3.116156578063965,"560":-0.5145450234413147,"561":0.022234931588172913,"562":10.96080493927002,"563":7.364623069763184,"564":0.4004031717777252,"565":-3.0638315677642822,"566":6.049414157867432,"567":1.9738017320632935,"568":9.396164894104004,"569":-1.959070086479187,"570":-2.324183702468872,"571":-1.484944224357605,"572":-1.2110627889633179,"573":-0.08474060893058777,"574":-0.15613803267478943,"575":-11.355012893676758,"576":-4.756009578704834,"577":1.1494529247283936,"578":-0.6598590016365051,"579":-5.591155529022217,"580":4.627100467681885,"581":1.6988164186477661,"582":-7.399168968200684,"583":-0.19665180146694183,"584":-0.549822211265564,"585":1.3466978073120117,"586":-3.074676275253296,"587":0.7281911969184875,"588":-0.16041411459445953,"589":-4.216553211212158,"590":4.171567916870117,"591":-8.730037689208984,"592":-3.8274893760681152,"593":-11.755151748657227,"594":-8.361602783203125,"595":1.4663110971450806,"596":-0.43317869305610657,"597":3.9070115089416504,"598":-1.5522546768188477,"599":-7.198800563812256,"600":3.455764055252075,"601":-4.9205427169799805,"602":5.784672737121582,"603":2.077518939971924,"604":3.865889072418213,"605":6.130719184875488,"606":9.256423950195312,"607":3.406726360321045,"608":-3.2822790145874023,"609":1.6167190074920654,"610":0.8452993035316467,"611":-9.031346321105957,"612":4.580905914306641,"613":13.025680541992188,"614":-5.032553672790527,"615":3.234732151031494,"616":-3.0096659660339355,"617":-0.006142769008874893,"618":5.69651985168457,"619":3.100094795227051,"620":1.1186115741729736,"621":-3.117175340652466,"622":-0.5635802149772644,"623":1.5586265325546265,"624":2.0177712440490723,"625":3.2759885787963867,"626":-2.019622564315796,"627":-2.8465137481689453,"628":-1.7586840391159058,"629":0.5540976524353027,"630":0.0767926424741745,"631":0.3516218960285187,"632":-0.9371622800827026,"633":1.892708659172058,"634":-2.3833749294281006,"635":-1.320563793182373,"636":-2.4391233921051025,"637":-4.0380659103393555,"638":-2.4631924629211426,"639":-0.8153373003005981,"640":0.8726255893707275,"641":-0.1771356165409088,"642":0.9302229285240173,"643":0.5648077726364136,"644":-3.373375415802002,"645":1.1935030221939087,"646":-1.3525296449661255,"647":2.257688522338867,"648":-3.2918169498443604,"649":0.058398209512233734,"650":-1.6808192729949951,"651":2.079456329345703,"652":0.5034412741661072,"653":2.096228837966919,"654":1.2709078788757324,"655":1.7782032489776611,"656":2.0477993488311768,"657":0.25126928091049194,"658":0.44139960408210754,"659":3.025940418243408,"660":-1.656596302986145,"661":2.099766492843628,"662":-0.007703879848122597,"663":0.6450661420822144,"664":-2.631287097930908,"665":-0.654017984867096,"666":-1.392208456993103,"667":-1.549521803855896,"668":-1.6166584491729736,"669":-0.4071512520313263,"670":2.4463324546813965,"671":-2.541050434112549,"672":-1.8718996047973633,"673":1.790174961090088,"674":-0.6937532424926758,"675":-1.9808613061904907,"676":1.4359747171401978,"677":-0.6946225762367249,"678":1.9765185117721558,"679":0.33740153908729553,"680":-2.036731004714966,"681":-0.9411135911941528,"682":-1.5051555633544922,"683":-0.06454851478338242,"684":1.4750713109970093,"685":-1.5491480827331543,"686":-0.7122262120246887,"687":0.5674636363983154,"688":-0.05106520280241966,"689":-0.446225106716156,"690":-2.3180253505706787,"691":2.913809299468994,"692":0.7436214685440063,"693":1.0301542282104492,"694":-2.365098476409912,"695":3.4353771209716797,"696":0.37410613894462585,"697":1.4479846954345703,"698":1.9332339763641357,"699":0.2654311954975128,"700":0.9591780304908752,"701":-3.0047109127044678,"702":2.445946216583252,"703":0.2334226816892624,"704":1.3709394931793213,"705":2.0100162029266357,"706":-0.721546471118927,"707":-2.4436488151550293,"708":0.7205617427825928,"709":-1.8939406871795654,"710":-0.9731847643852234,"711":3.909670114517212,"712":1.2403531074523926,"713":0.10149465501308441,"714":1.1704516410827637,"715":-3.6047582626342773,"716":1.331349492073059,"717":1.0922008752822876,"718":1.3098400831222534,"719":-5.452366828918457,"720":-0.1244480237364769,"721":3.1387696266174316,"722":-0.5228660702705383,"723":-4.294577598571777,"724":-4.654294490814209,"725":-3.24574613571167,"726":-1.2321257591247559,"727":-5.423434257507324,"728":-3.97579288482666,"729":-1.7309170961380005,"730":-1.2687441110610962,"731":-1.076099157333374,"732":1.7984488010406494,"733":-1.224111557006836,"734":-1.462667465209961,"735":-3.6474032402038574,"736":-2.0446596145629883,"737":1.7191250324249268,"738":-0.026203086599707603,"739":-1.8607993125915527,"740":4.3144731521606445,"741":1.3769457340240479,"742":0.6089979410171509,"743":-5.010044097900391,"744":-3.0585484504699707,"745":-2.1075291633605957,"746":-3.7039873600006104,"747":1.3109840154647827,"748":-3.2659027576446533,"749":-1.063623309135437,"750":-6.553772449493408,"751":-0.7061617970466614,"752":6.70144510269165,"753":0.674833357334137,"754":-4.262495040893555,"755":-2.9637856483459473,"756":0.5037331581115723,"757":-0.058807920664548874,"758":-5.217641830444336,"759":-2.505939245223999,"760":-1.565233826637268,"761":3.5960843563079834,"762":0.46129798889160156,"763":0.36957401037216187,"764":-0.19785675406455994,"765":2.412935495376587,"766":-5.602654933929443,"767":-2.587341070175171,"768":4.1472954750061035,"769":0.3474489450454712,"770":-1.7837799787521362,"771":2.3553659915924072,"772":-0.37549784779548645,"773":1.4459494352340698,"774":-2.574469804763794,"775":-1.3495965003967285,"776":-1.3828275203704834,"777":1.069567322731018,"778":-1.2815403938293457,"779":0.1325635313987732,"780":2.430208444595337,"781":0.08013245463371277,"782":-1.3286789655685425,"783":2.0191869735717773,"784":0.19299176335334778,"785":-1.736587643623352,"786":-2.1456668376922607,"787":0.7898989319801331,"788":3.473971366882324,"789":0.7751124501228333,"790":1.5403212308883667,"791":2.231929302215576,"792":-0.3913474678993225,"793":-0.41619521379470825,"794":-2.7479474544525146,"795":3.425354480743408,"796":0.7593711018562317,"797":-0.11907830834388733,"798":-0.8718120455741882,"799":-1.7186747789382935,"800":0.3151155114173889,"801":2.649413585662842,"802":-1.833227515220642,"803":-0.518174409866333,"804":-0.5428181290626526,"805":1.3721282482147217,"806":1.6729795932769775,"807":-2.6024653911590576,"808":2.1703076362609863,"809":-1.7397772073745728,"810":1.7726017236709595,"811":1.9152302742004395,"812":2.3562328815460205,"813":-2.228285312652588,"814":0.9689215421676636,"815":1.8017971515655518,"816":1.7660932540893555,"817":1.3787692785263062,"818":-1.367303729057312,"819":1.8255510330200195,"820":2.4741201400756836,"821":1.97649085521698,"822":2.1677303314208984,"823":-1.6426701545715332,"824":-1.798119306564331,"825":-2.322422504425049,"826":2.249556541442871,"827":-1.6300002336502075,"828":2.0045790672302246,"829":1.6883375644683838,"830":-1.9040321111679077,"831":-1.9124469757080078,"832":1.870695948600769,"833":-2.140002727508545,"834":-2.9159767627716064,"835":1.6502286195755005,"836":1.944669485092163,"837":-5.219929218292236,"838":4.153839111328125,"839":-5.1470627784729,"840":1.7841863632202148,"841":-4.9866228103637695,"842":-6.142067909240723,"843":3.4345436096191406,"844":6.876368999481201,"845":-9.250268936157227,"846":-6.245326519012451,"847":-1.3864781856536865,"848":1.2608059644699097,"849":3.5081615447998047,"850":-1.9585204124450684,"851":1.778071641921997,"852":0.10663110017776489,"853":-1.9002794027328491,"854":4.325985431671143,"855":5.519064426422119,"856":0.3668884038925171,"857":-1.8374648094177246,"858":7.40657377243042,"859":-3.4363765716552734,"860":0.014635932631790638,"861":4.404743194580078,"862":1.2443571090698242,"863":-2.034097194671631,"864":-3.030939817428589,"865":3.677797555923462,"866":-2.639991044998169,"867":1.3023786544799805,"868":1.2904664278030396,"869":-3.9056499004364014,"870":0.29570823907852173,"871":7.820908546447754,"872":2.1576988697052,"873":1.4414341449737549,"874":-2.887338161468506,"875":-1.5514801740646362,"876":-4.221106052398682,"877":-7.138322830200195,"878":1.9036997556686401,"879":-2.411919593811035,"880":5.627480983734131,"881":11.565306663513184,"882":-2.7975401878356934,"883":-5.963838577270508,"884":-2.1518476009368896,"885":-2.526186943054199,"886":-2.726720094680786,"887":6.5654144287109375,"888":-8.190797805786133,"889":2.2255356311798096,"890":2.665433168411255,"891":-4.43337345123291,"892":-1.92295503616333,"893":6.842279434204102,"894":-7.985497951507568,"895":3.094895362854004,"896":-3.959087371826172,"897":-6.943457126617432,"898":-4.7892913818359375,"899":-0.7725992202758789,"900":1.141159176826477,"901":-0.39565715193748474,"902":-0.16062308847904205,"903":-0.8821922540664673,"904":-0.7502290606498718,"905":0.8359917998313904,"906":1.4012316465377808,"907":-0.15140974521636963,"908":0.06816545873880386,"909":-0.41938886046409607,"910":1.2815489768981934,"911":-1.2562434673309326,"912":0.4086662530899048,"913":1.105636477470398,"914":0.3601634204387665,"915":0.3796788454055786,"916":0.8225403428077698,"917":1.1275936365127563,"918":-0.06569520384073257,"919":-0.39995095133781433,"920":1.4938338994979858,"921":-0.6157562732696533,"922":0.8103761076927185,"923":0.8081147074699402,"924":-0.36485734581947327,"925":0.6560053825378418,"926":-0.5270218253135681,"927":1.2275229692459106,"928":0.2801046073436737,"929":0.4177171587944031,"930":0.1708642840385437,"931":1.8211520910263062,"932":0.33852842450141907,"933":-0.3820412755012512,"934":-0.45239731669425964,"935":-0.24120858311653137,"936":0.33425652980804443,"937":1.6107654571533203,"938":0.4716261327266693,"939":-0.6302378177642822,"940":-0.06756705790758133,"941":0.3579292297363281,"942":-0.7890337705612183,"943":-1.1335828304290771,"944":0.24238470196723938,"945":-0.5726691484451294,"946":-0.20340923964977264,"947":0.4622340202331543,"948":0.9991163611412048,"949":0.8106531500816345,"950":-0.9979313015937805,"951":1.4034677743911743,"952":0.8357807993888855,"953":0.25003308057785034,"954":0.612004280090332,"955":-0.14753398299217224,"956":0.45864400267601013,"957":0.26262906193733215,"958":1.8301293849945068,"959":-0.5530146956443787,"960":0.6929612755775452,"961":-0.07447396218776703,"962":-0.07049720734357834,"963":0.006855078972876072,"964":-0.07767995446920395,"965":0.04858069121837616,"966":0.0486236996948719,"967":-0.07346058636903763,"968":-0.012620925903320312,"969":0.058827489614486694,"970":-0.07574361562728882,"971":0.07606455683708191,"972":-0.05360342562198639,"973":0.008854568935930729,"974":-0.06955811381340027,"975":-0.0360267348587513,"976":-0.058383360505104065,"977":0.02847658097743988,"978":0.03740687295794487,"979":0.027996577322483063,"980":0.02728855051100254,"981":0.01356534380465746,"982":-0.022308699786663055,"983":-0.004696489777415991,"984":-0.07485608011484146,"985":0.04528433084487915,"986":0.01058253739029169,"987":-0.07761217653751373,"988":0.05242977291345596,"989":0.04318585619330406,"990":-0.05228139087557793,"991":-0.07169308513402939}},"hiddenLayers":[{"inputMatrix":{"rows":20,"columns":31,"weights":{"0":0.401981920003891,"1":-0.39540839195251465,"2":0.9550442695617676,"3":0.18256214261054993,"4":0.7989683151245117,"5":2.0352954864501953,"6":0.1522596776485443,"7":-0.1138719990849495,"8":1.7944484949111938,"9":-0.6464679837226868,"10":1.072798490524292,"11":0.8046368956565857,"12":-0.028398316353559494,"13":-0.3360704779624939,"14":0.511989176273346,"15":0.33956876397132874,"16":0.07858669757843018,"17":-0.5091911554336548,"18":-0.4563857913017273,"19":0.518476665019989,"20":-0.7127861976623535,"21":-0.4174064099788666,"22":1.0634198188781738,"23":-0.1312708705663681,"24":-1.5550031661987305,"25":0.26975640654563904,"26":0.44982677698135376,"27":-0.07758530229330063,"28":0.5166158676147461,"29":-0.8935083150863647,"30":-0.02380211465060711,"31":-0.7289688587188721,"32":1.7414180040359497,"33":-1.6746686697006226,"34":-0.3161185383796692,"35":-0.99711012840271,"36":-0.4956199824810028,"37":0.4279886484146118,"38":1.8063857555389404,"39":-1.1097781658172607,"40":-0.9340688586235046,"41":0.5618327856063843,"42":0.9405459761619568,"43":0.1188027560710907,"44":-0.6135151982307434,"45":0.8037766814231873,"46":0.1956038773059845,"47":-0.045163922011852264,"48":1.08943772315979,"49":1.531181812286377,"50":0.8312034606933594,"51":-0.7948139905929565,"52":1.1331546306610107,"53":-2.1301164627075195,"54":-0.28435149788856506,"55":0.6732942461967468,"56":0.18303942680358887,"57":0.4172716736793518,"58":0.006047431845217943,"59":1.5495511293411255,"60":-0.23472954332828522,"61":0.46160435676574707,"62":-1.0062346458435059,"63":0.6084408760070801,"64":-0.5947198867797852,"65":-0.3798524737358093,"66":-1.1407108306884766,"67":-0.34546831250190735,"68":-0.4280584156513214,"69":0.9207118153572083,"70":0.3948339521884918,"71":0.2503710091114044,"72":-1.3132301568984985,"73":-0.08491989225149155,"74":-0.48547104001045227,"75":1.1616578102111816,"76":0.031214725226163864,"77":0.07439672201871872,"78":0.4123142659664154,"79":0.8150748014450073,"80":0.7985164523124695,"81":-0.884924054145813,"82":0.8572988510131836,"83":0.978930652141571,"84":-1.0343056917190552,"85":0.04361017048358917,"86":0.63565593957901,"87":-0.3336881697177887,"88":0.4433574378490448,"89":-0.185995951294899,"90":0.9123511910438538,"91":1.0631206035614014,"92":0.31125810742378235,"93":-2.047978401184082,"94":0.9239713549613953,"95":-0.5489295721054077,"96":0.7065325379371643,"97":-2.303959608078003,"98":-1.3179367780685425,"99":-0.017430409789085388,"100":0.5006878972053528,"101":0.15604081749916077,"102":1.2576485872268677,"103":-0.9073830842971802,"104":0.19232326745986938,"105":0.03768940642476082,"106":0.9791821837425232,"107":0.8978583216667175,"108":0.23031364381313324,"109":0.02541535533964634,"110":2.735074996948242,"111":2.2171833515167236,"112":-0.6758214235305786,"113":0.08908461034297943,"114":1.2549629211425781,"115":-0.2895233631134033,"116":1.1080012321472168,"117":1.1904062032699585,"118":-1.0112768411636353,"119":-0.5559418797492981,"120":-0.7561208009719849,"121":0.186150461435318,"122":0.789391040802002,"123":0.23582735657691956,"124":0.2804108262062073,"125":-0.779021680355072,"126":0.00903348345309496,"127":-0.625876784324646,"128":0.26380953192710876,"129":0.2614046633243561,"130":-0.10584759712219238,"131":-0.8623154759407043,"132":-0.42057129740715027,"133":1.5586103200912476,"134":-0.5935705900192261,"135":0.5010045766830444,"136":-1.2720592021942139,"137":0.44493934512138367,"138":-0.08910179883241653,"139":0.18345271050930023,"140":0.027265572920441628,"141":-0.20808537304401398,"142":-0.7286799550056458,"143":-1.2262362241744995,"144":1.0769273042678833,"145":-0.9136114716529846,"146":-0.13740511238574982,"147":1.0429561138153076,"148":-0.1917017251253128,"149":-1.00174081325531,"150":0.31731554865837097,"151":-0.45635986328125,"152":-0.4823916554450989,"153":1.6443448066711426,"154":0.2747866213321686,"155":1.0771071910858154,"156":-1.2748206853866577,"157":0.2015412449836731,"158":-1.3325532674789429,"159":1.0356104373931885,"160":0.3127222955226898,"161":0.08686107397079468,"162":-1.780189037322998,"163":0.26905858516693115,"164":1.0016636848449707,"165":0.5140916109085083,"166":0.7094739079475403,"167":-0.9416759610176086,"168":0.2027708888053894,"169":0.4117324650287628,"170":0.8960867524147034,"171":0.9846933484077454,"172":-1.1161742210388184,"173":-1.530702829360962,"174":-0.4555718004703522,"175":0.6135448813438416,"176":-1.3296329975128174,"177":-0.47725775837898254,"178":0.6323906779289246,"179":-0.5563315153121948,"180":-0.9738338589668274,"181":1.2178915739059448,"182":-0.7021443247795105,"183":-0.996353030204773,"184":0.7215409874916077,"185":1.0714306831359863,"186":-0.29430091381073,"187":-0.8232704401016235,"188":-0.750346839427948,"189":-0.24972382187843323,"190":-0.5125371217727661,"191":-0.6870121955871582,"192":-1.453537940979004,"193":-0.9402183890342712,"194":0.6053300499916077,"195":0.7282547354698181,"196":-0.8482431769371033,"197":-1.1655429601669312,"198":-0.19440369307994843,"199":-0.2361300140619278,"200":-1.8754866123199463,"201":0.24045555293560028,"202":-0.1311357468366623,"203":0.644598662853241,"204":-0.09809426963329315,"205":-0.16347664594650269,"206":0.4346897304058075,"207":0.09614799171686172,"208":-0.9532379508018494,"209":-1.1131393909454346,"210":0.9244504570960999,"211":0.014216726645827293,"212":0.021232908591628075,"213":-0.02091037668287754,"214":-0.6860623955726624,"215":0.40326988697052,"216":-0.7727506160736084,"217":0.19614389538764954,"218":-1.0291086435317993,"219":-0.37415561079978943,"220":0.887113094329834,"221":-0.38361015915870667,"222":-0.6154062747955322,"223":-1.7144670486450195,"224":-0.01636618934571743,"225":0.26298999786376953,"226":-0.012710231356322765,"227":-0.2495446354150772,"228":-1.2884445190429688,"229":1.978362798690796,"230":0.07744330912828445,"231":-1.8601270914077759,"232":-1.0008010864257812,"233":-1.1919251680374146,"234":1.0363550186157227,"235":-0.6380169987678528,"236":0.3238491714000702,"237":0.07019343972206116,"238":-0.5090177655220032,"239":-1.415974736213684,"240":-1.8398782014846802,"241":0.6915989518165588,"242":1.3446502685546875,"243":-0.9063267707824707,"244":0.728623628616333,"245":-0.35355570912361145,"246":0.009973526000976562,"247":-1.3247359991073608,"248":-0.24967940151691437,"249":-0.008592613972723484,"250":0.6053840517997742,"251":1.316616415977478,"252":0.48152485489845276,"253":0.02935854345560074,"254":-0.23187053203582764,"255":0.6570721864700317,"256":-1.2263801097869873,"257":-1.567306637763977,"258":1.0398648977279663,"259":-0.5190620422363281,"260":1.7051656246185303,"261":0.079425148665905,"262":0.10555271059274673,"263":-1.6139692068099976,"264":-1.6248830556869507,"265":0.0807400792837143,"266":0.26727792620658875,"267":1.1828675270080566,"268":-0.9567000269889832,"269":0.5703848600387573,"270":1.515494465827942,"271":-1.237574815750122,"272":-0.794160008430481,"273":1.2361607551574707,"274":-1.5218310356140137,"275":1.4584373235702515,"276":-0.17711001634597778,"277":-1.4087684154510498,"278":-1.0257903337478638,"279":-0.02606046572327614,"280":0.9978882670402527,"281":0.6031568646430969,"282":0.42810437083244324,"283":0.5845860838890076,"284":-0.2628791034221649,"285":-0.36741235852241516,"286":-0.0786503255367279,"287":0.7985092997550964,"288":-0.44443491101264954,"289":0.6632619500160217,"290":-0.4945066273212433,"291":0.2598545253276825,"292":-2.402005910873413,"293":-0.5255851745605469,"294":-0.1815529316663742,"295":-0.014799698255956173,"296":-0.43063318729400635,"297":0.10642305016517639,"298":1.8082399368286133,"299":-2.2402589321136475,"300":-1.4231361150741577,"301":0.7015122175216675,"302":-0.10452933609485626,"303":-0.30840611457824707,"304":0.5769143104553223,"305":0.030806181952357292,"306":0.5789297819137573,"307":1.4769176244735718,"308":-0.8575576543807983,"309":0.20947988331317902,"310":-1.3061258792877197,"311":1.3061325550079346,"312":-1.949906826019287,"313":-0.07288068532943726,"314":-1.609207272529602,"315":-1.6402639150619507,"316":0.2301894575357437,"317":0.9725022912025452,"318":-0.36263248324394226,"319":-0.5884978771209717,"320":-1.2683870792388916,"321":0.044127658009529114,"322":0.2993384003639221,"323":0.7140275239944458,"324":0.31570640206336975,"325":-0.2666891813278198,"326":-0.050533492118120193,"327":1.300360918045044,"328":1.5876374244689941,"329":-0.08776362985372543,"330":-0.5741729736328125,"331":1.829180359840393,"332":-1.5741348266601562,"333":-0.1589067429304123,"334":1.8806506395339966,"335":0.3445524275302887,"336":0.2643965184688568,"337":0.47948014736175537,"338":0.840538740158081,"339":0.407116174697876,"340":0.2523437440395355,"341":-0.7597395777702332,"342":0.7115118503570557,"343":-0.8792009353637695,"344":-0.48508310317993164,"345":-0.8781330585479736,"346":-0.5569692850112915,"347":-0.9545121192932129,"348":-0.001387585885822773,"349":1.4237381219863892,"350":0.6728046536445618,"351":-1.0548051595687866,"352":-0.00018658819317352027,"353":-0.41130173206329346,"354":0.7448390126228333,"355":-0.32931435108184814,"356":0.2431793510913849,"357":0.6715927124023438,"358":0.9952707886695862,"359":0.8375330567359924,"360":-1.360467791557312,"361":1.0776888132095337,"362":-0.8735283613204956,"363":-1.893036127090454,"364":-0.03870613873004913,"365":1.0384129285812378,"366":-0.6115118861198425,"367":0.30675485730171204,"368":0.11693905293941498,"369":-0.16094018518924713,"370":1.8824033737182617,"371":0.07634624093770981,"372":-0.5056953430175781,"373":1.3458809852600098,"374":0.3743128478527069,"375":0.17904244363307953,"376":-0.09502663463354111,"377":-0.7158645987510681,"378":0.25846627354621887,"379":1.424147367477417,"380":-0.6910885572433472,"381":-1.5017666816711426,"382":0.791166365146637,"383":-1.3058093786239624,"384":1.2201142311096191,"385":-0.4686432182788849,"386":-0.14953693747520447,"387":-0.16520842909812927,"388":-0.6602165699005127,"389":0.43458402156829834,"390":0.874309778213501,"391":0.574796199798584,"392":-0.35630103945732117,"393":0.4843255281448364,"394":1.1266405582427979,"395":-0.542037844657898,"396":0.347445547580719,"397":0.6321998238563538,"398":-1.0119364261627197,"399":0.10967154055833817,"400":1.1409668922424316,"401":-1.0836520195007324,"402":-0.25343242287635803,"403":0.6373116374015808,"404":-1.1777455806732178,"405":0.34170082211494446,"406":0.09990490972995758,"407":0.6074145436286926,"408":0.9041966795921326,"409":-1.8278119564056396,"410":-1.1978317499160767,"411":1.739159107208252,"412":0.08885829895734787,"413":-0.32344505190849304,"414":-1.4265185594558716,"415":0.2406754046678543,"416":-0.4231710135936737,"417":-1.5507820844650269,"418":-0.5537988543510437,"419":-0.29674917459487915,"420":-0.4785939157009125,"421":-0.9247223734855652,"422":0.2167731672525406,"423":-0.1564466506242752,"424":-1.1078170537948608,"425":-0.7019881010055542,"426":-0.6448131203651428,"427":-0.38803356885910034,"428":0.5576574206352234,"429":-0.35864752531051636,"430":0.6149352788925171,"431":-0.5460442900657654,"432":0.26494336128234863,"433":-0.7856056094169617,"434":0.3044760525226593,"435":-0.30321696400642395,"436":0.15051715075969696,"437":1.6786613464355469,"438":0.2588900029659271,"439":0.45246440172195435,"440":-1.0548255443572998,"441":-0.48619344830513,"442":0.6265016198158264,"443":-0.3429487645626068,"444":0.5988537073135376,"445":-0.8797069787979126,"446":0.9197638034820557,"447":-0.39484623074531555,"448":-0.9651452302932739,"449":-0.9717282652854919,"450":-1.2423771619796753,"451":-0.24414311349391937,"452":-0.7247739434242249,"453":1.2506684064865112,"454":-0.6305054426193237,"455":-0.320709228515625,"456":0.32321828603744507,"457":-1.1966264247894287,"458":-0.09835587441921234,"459":1.4572588205337524,"460":-1.2877320051193237,"461":1.671392560005188,"462":0.018253633752465248,"463":-0.9340338110923767,"464":-2.1517767906188965,"465":-1.5226882696151733,"466":1.936444878578186,"467":-1.6203477382659912,"468":0.20342426002025604,"469":-1.555808663368225,"470":-1.0738496780395508,"471":-0.43672090768814087,"472":2.157573699951172,"473":-1.6043972969055176,"474":-0.15153583884239197,"475":-0.018353017047047615,"476":0.7574924230575562,"477":0.13833653926849365,"478":0.30256912112236023,"479":-0.32330575585365295,"480":-0.34688064455986023,"481":-0.45720553398132324,"482":2.2249698638916016,"483":2.1484591960906982,"484":0.5932013392448425,"485":-0.7722309231758118,"486":0.4543541967868805,"487":-0.6004941463470459,"488":-0.24896349012851715,"489":1.4928746223449707,"490":0.27765515446662903,"491":-0.3515094220638275,"492":0.29939040541648865,"493":1.2389901876449585,"494":0.28743642568588257,"495":-0.3924727141857147,"496":1.8170125484466553,"497":-0.13984370231628418,"498":-0.13599486649036407,"499":0.17568275332450867,"500":0.6761243939399719,"501":0.43356117606163025,"502":-0.8477143049240112,"503":0.025168143212795258,"504":1.2593069076538086,"505":-0.01658942922949791,"506":0.9641678929328918,"507":0.03630678355693817,"508":-0.4128413200378418,"509":-1.426716923713684,"510":-1.0979079008102417,"511":-0.06118309870362282,"512":-0.33736690878868103,"513":-0.5817538499832153,"514":-1.04951810836792,"515":0.40454789996147156,"516":-0.4274544417858124,"517":-1.5567349195480347,"518":-0.07854681462049484,"519":-0.12191153317689896,"520":0.01797502115368843,"521":0.2609888017177582,"522":-0.21978560090065002,"523":0.3574664890766144,"524":0.3714739680290222,"525":-0.1032872274518013,"526":-0.4343680739402771,"527":0.10849486291408539,"528":0.47577592730522156,"529":-0.1762005239725113,"530":-0.10164764523506165,"531":-0.46508684754371643,"532":-0.4510054588317871,"533":-1.0728554725646973,"534":0.6835212707519531,"535":0.9431915879249573,"536":-0.48591330647468567,"537":-0.015985913574695587,"538":-1.0077898502349854,"539":0.8146454691886902,"540":-1.1641511917114258,"541":-0.7595277428627014,"542":-1.2558448314666748,"543":-1.6315033435821533,"544":0.6180665493011475,"545":0.8986961245536804,"546":1.3000373840332031,"547":-0.7965515851974487,"548":1.0553383827209473,"549":0.07346347719430923,"550":-0.5226301550865173,"551":0.7274338006973267,"552":0.9271528124809265,"553":-0.2624170780181885,"554":0.37865301966667175,"555":1.0621167421340942,"556":-1.325576663017273,"557":-0.5001606345176697,"558":-0.6597579717636108,"559":1.1063936948776245,"560":0.23165825009346008,"561":-0.32610994577407837,"562":-0.5957443118095398,"563":-0.5130190253257751,"564":0.6671857833862305,"565":0.3172447979450226,"566":-0.5871862769126892,"567":0.7395115494728088,"568":-0.2879737615585327,"569":0.42915627360343933,"570":-0.9702816009521484,"571":0.07028938084840775,"572":0.5117664933204651,"573":0.18578703701496124,"574":0.16816870868206024,"575":0.8301278352737427,"576":0.9806634783744812,"577":-0.22440293431282043,"578":0.16972771286964417,"579":0.3342377245426178,"580":-0.4847153425216675,"581":0.9015745520591736,"582":0.6148911118507385,"583":-0.5606698989868164,"584":0.005707690492272377,"585":-0.28914764523506165,"586":1.0726662874221802,"587":0.9566001892089844,"588":0.10718119889497757,"589":-0.523831307888031,"590":-0.19299207627773285,"591":-1.6175025701522827,"592":0.5924761891365051,"593":-0.27907612919807434,"594":-1.2691118717193604,"595":-0.8457380533218384,"596":0.011987896636128426,"597":-2.4816784858703613,"598":0.1094517931342125,"599":-1.0065044164657593,"600":-0.07080189883708954,"601":0.9175012111663818,"602":1.2237567901611328,"603":-1.0801277160644531,"604":-0.7238359451293945,"605":-0.8754324913024902,"606":0.1086883544921875,"607":0.0546976737678051,"608":-0.26932331919670105,"609":0.12751586735248566,"610":0.8072964549064636,"611":-1.5999091863632202,"612":-0.4452986419200897,"613":0.41496795415878296,"614":1.321531891822815,"615":-1.2617907524108887,"616":0.8731361627578735,"617":-0.23095740377902985,"618":0.21730142831802368,"619":-1.1012964248657227}},"inputHidden":{"rows":20,"columns":20,"weights":{"0":0.7409188151359558,"1":-0.39505070447921753,"2":-1.3235684633255005,"3":0.8086423873901367,"4":0.5320883393287659,"5":0.8442302346229553,"6":-0.20518718659877777,"7":0.035815607756376266,"8":-0.07321850955486298,"9":-1.2279471158981323,"10":-0.3264526426792145,"11":-0.9075462818145752,"12":0.47681283950805664,"13":-0.1824612319469452,"14":-0.7447009086608887,"15":-0.03393159061670303,"16":-0.013721266761422157,"17":-0.6251522898674011,"18":1.5290765762329102,"19":1.3617204427719116,"20":1.1059646606445312,"21":-0.2790457308292389,"22":0.2561456263065338,"23":0.45386382937431335,"24":0.23210549354553223,"25":1.5380315780639648,"26":0.11125896871089935,"27":-1.2367146015167236,"28":0.403232216835022,"29":-0.95021653175354,"30":-0.22172611951828003,"31":-0.6221484541893005,"32":1.2517794370651245,"33":0.8078621625900269,"34":-0.5333215594291687,"35":-0.10293427854776382,"36":-1.112046241760254,"37":-0.5481653213500977,"38":-0.1862272024154663,"39":0.519476056098938,"40":-0.13238970935344696,"41":0.7891009449958801,"42":1.1185439825057983,"43":0.8676539659500122,"44":-0.43587327003479004,"45":-0.932435154914856,"46":1.3902626037597656,"47":-2.0363216400146484,"48":0.4652003049850464,"49":-1.0505632162094116,"50":-0.22939901053905487,"51":-2.436739206314087,"52":-0.4651815891265869,"53":1.321120023727417,"54":0.4341873526573181,"55":1.1014618873596191,"56":0.20607054233551025,"57":0.446861207485199,"58":0.38993847370147705,"59":0.6928799748420715,"60":-0.5191237926483154,"61":-1.5240072011947632,"62":-1.1472169160842896,"63":-0.9343817234039307,"64":0.8097872138023376,"65":0.2618755102157593,"66":-0.5276297330856323,"67":0.454274445772171,"68":0.06144176423549652,"69":-0.48460397124290466,"70":-0.011827140115201473,"71":1.247797966003418,"72":0.24736328423023224,"73":-1.093495488166809,"74":-0.29821622371673584,"75":-1.3849716186523438,"76":0.7259560823440552,"77":-0.6388159990310669,"78":-1.2175766229629517,"79":-0.6758829355239868,"80":0.1148817241191864,"81":-0.09212532639503479,"82":-0.4898833632469177,"83":-0.06526273488998413,"84":-0.5868355631828308,"85":1.0454199314117432,"86":0.778898298740387,"87":0.36398354172706604,"88":-0.7242670655250549,"89":0.8242241144180298,"90":-1.2967264652252197,"91":-0.0519886389374733,"92":-1.0322515964508057,"93":-0.0036983229219913483,"94":1.5958349704742432,"95":-1.1569571495056152,"96":0.3241702914237976,"97":1.2636547088623047,"98":-1.6068674325942993,"99":-0.8347522616386414,"100":0.08214613795280457,"101":0.4075735807418823,"102":-0.1570635885000229,"103":-0.08944899588823318,"104":-0.3198729455471039,"105":0.6600611209869385,"106":0.5640274286270142,"107":0.04218454286456108,"108":-0.5519325137138367,"109":0.05736340954899788,"110":-0.4199424386024475,"111":-0.11226626485586166,"112":-0.502416729927063,"113":0.2649756371974945,"114":0.8780612349510193,"115":-0.6730992794036865,"116":1.248481273651123,"117":0.7162137031555176,"118":-0.1824418604373932,"119":-1.1143770217895508,"120":0.7594887614250183,"121":0.5097217559814453,"122":-0.4481956362724304,"123":-0.4930330812931061,"124":-0.32932528853416443,"125":1.2435251474380493,"126":0.2751109004020691,"127":0.4601670801639557,"128":-0.13324305415153503,"129":0.5465463995933533,"130":-1.1773282289505005,"131":-0.2808326780796051,"132":1.2708945274353027,"133":0.41796231269836426,"134":0.7892695069313049,"135":-1.052817940711975,"136":0.31209713220596313,"137":-0.01784050278365612,"138":0.4734761416912079,"139":-0.5822807550430298,"140":0.5354510545730591,"141":1.6744842529296875,"142":0.6449965238571167,"143":-0.7979732751846313,"144":-0.9282236099243164,"145":1.5227099657058716,"146":1.1612296104431152,"147":-0.043096885085105896,"148":-1.244505524635315,"149":0.7529841661453247,"150":-0.9434889554977417,"151":-1.0648881196975708,"152":-0.5011507868766785,"153":1.052620530128479,"154":1.6863198280334473,"155":-0.25062450766563416,"156":-0.8874594569206238,"157":0.955315887928009,"158":-1.2185084819793701,"159":-1.8190394639968872,"160":-0.3406958281993866,"161":1.3355562686920166,"162":0.4133545160293579,"163":0.03953571990132332,"164":-0.48171260952949524,"165":0.8409475088119507,"166":0.47808411717414856,"167":-1.3491768836975098,"168":1.5399439334869385,"169":-0.07123304158449173,"170":0.048249777406454086,"171":-0.6134427189826965,"172":-0.15057136118412018,"173":1.2068674564361572,"174":-0.2132580727338791,"175":0.25319811701774597,"176":-0.21898014843463898,"177":-0.39818763732910156,"178":0.2822848856449127,"179":1.8453319072723389,"180":0.4877549707889557,"181":-0.4409399926662445,"182":-0.28075817227363586,"183":-0.4675407409667969,"184":-0.8677299618721008,"185":1.4365878105163574,"186":0.4639287292957306,"187":0.010395088233053684,"188":0.36306285858154297,"189":-0.5341089367866516,"190":-0.27460768818855286,"191":0.1984463334083557,"192":-1.1269028186798096,"193":-0.3991566002368927,"194":-0.8680456280708313,"195":-1.1660701036453247,"196":0.3571701645851135,"197":0.8756174445152283,"198":-0.5244340896606445,"199":1.1815084218978882,"200":1.769457221031189,"201":-0.17068494856357574,"202":0.20673862099647522,"203":-0.31692928075790405,"204":-0.1957874596118927,"205":0.4188745319843292,"206":-0.12125111371278763,"207":1.7089405059814453,"208":2.0373013019561768,"209":0.35537397861480713,"210":0.5401780605316162,"211":-0.4763847887516022,"212":0.4873804450035095,"213":1.0467276573181152,"214":-0.14716775715351105,"215":0.25912970304489136,"216":-1.0493910312652588,"217":-0.2942591905593872,"218":0.9237845540046692,"219":2.307182788848877,"220":0.3162726163864136,"221":-0.7829021215438843,"222":-0.570000171661377,"223":-1.0918312072753906,"224":0.568531334400177,"225":0.34604695439338684,"226":-0.3937215805053711,"227":0.19445596635341644,"228":0.4452230632305145,"229":-0.3096383810043335,"230":0.7445316314697266,"231":-0.14459052681922913,"232":-0.2078552097082138,"233":0.13516320288181305,"234":-0.12874409556388855,"235":-0.22049495577812195,"236":-0.6530550718307495,"237":-0.3877372741699219,"238":-1.225038766860962,"239":0.22665317356586456,"240":-0.054769013077020645,"241":0.3018413782119751,"242":-0.5808550119400024,"243":1.3418768644332886,"244":-0.2527996003627777,"245":-0.05648266524076462,"246":0.20125123858451843,"247":-1.0432723760604858,"248":0.08543939888477325,"249":1.2316503524780273,"250":-0.7894656658172607,"251":0.1817137748003006,"252":0.9601265788078308,"253":1.2550749778747559,"254":1.1912761926651,"255":0.6569351553916931,"256":-1.3269801139831543,"257":-0.14761966466903687,"258":2.018026828765869,"259":-0.010598435997962952,"260":0.5337183475494385,"261":0.35620832443237305,"262":-0.30559682846069336,"263":-0.14430895447731018,"264":-1.1297540664672852,"265":0.6090066432952881,"266":0.5544098019599915,"267":-0.5649484395980835,"268":0.4366316497325897,"269":0.6120408773422241,"270":-1.2751060724258423,"271":-1.0360344648361206,"272":0.2838555574417114,"273":1.3036319017410278,"274":0.9069075584411621,"275":0.026965118944644928,"276":0.05784657225012779,"277":0.5164528489112854,"278":-0.5282883644104004,"279":0.4566608965396881,"280":0.5284343957901001,"281":0.583601713180542,"282":1.3359450101852417,"283":-0.1443779617547989,"284":-0.4986688494682312,"285":0.49976199865341187,"286":0.8041135668754578,"287":-0.5371389985084534,"288":-0.514575719833374,"289":-0.06329450756311417,"290":-0.6528684496879578,"291":-0.3699958324432373,"292":-0.97320157289505,"293":0.5025372505187988,"294":0.8048761487007141,"295":-0.5643776655197144,"296":-0.29200783371925354,"297":0.7014824151992798,"298":-0.6167741417884827,"299":-0.5295811295509338,"300":-0.22270925343036652,"301":0.9487012624740601,"302":-0.060986220836639404,"303":-0.8673080205917358,"304":-0.8439605236053467,"305":1.2059674263000488,"306":0.782190203666687,"307":1.1895169019699097,"308":-0.0667409747838974,"309":1.0976744890213013,"310":0.2873519957065582,"311":0.3604355454444885,"312":-0.7271724939346313,"313":0.5154172778129578,"314":0.15538765490055084,"315":-1.1202279329299927,"316":0.9137732982635498,"317":0.6573178172111511,"318":-0.8144115209579468,"319":-1.082770824432373,"320":0.30670177936553955,"321":-0.616422712802887,"322":-1.034503698348999,"323":-1.0097086429595947,"324":0.5393269658088684,"325":0.39683541655540466,"326":-0.48947960138320923,"327":0.22702950239181519,"328":-0.07001759856939316,"329":0.3424052298069,"330":-1.429626703262329,"331":-0.4264637231826782,"332":1.1402543783187866,"333":0.40237221121788025,"334":-0.7318790555000305,"335":-1.2702651023864746,"336":0.003966628108173609,"337":-0.8858231902122498,"338":0.03522837162017822,"339":0.09710537642240524,"340":0.5769417881965637,"341":0.07956238836050034,"342":0.19743502140045166,"343":0.12772081792354584,"344":-0.25211724638938904,"345":-0.5908976793289185,"346":0.8733580708503723,"347":-0.44932156801223755,"348":-0.40192487835884094,"349":0.050325293093919754,"350":0.7446807622909546,"351":-0.5004510283470154,"352":-0.9280235171318054,"353":0.5965226292610168,"354":0.9126683473587036,"355":0.9829822182655334,"356":0.2503346800804138,"357":0.8698393702507019,"358":-0.3287617862224579,"359":-0.9697449207305908,"360":-0.5496773719787598,"361":1.9976086616516113,"362":2.350306987762451,"363":1.9076699018478394,"364":-0.886883020401001,"365":-1.891361951828003,"366":1.0487794876098633,"367":-0.6262326836585999,"368":1.5933388471603394,"369":1.4121443033218384,"370":-0.5746254920959473,"371":-1.9893622398376465,"372":-0.752851665019989,"373":2.325705051422119,"374":0.9731372594833374,"375":3.216663360595703,"376":0.6693045496940613,"377":1.4325379133224487,"378":-0.2696612775325775,"379":0.4296671450138092,"380":-0.6294286847114563,"381":0.3167845904827118,"382":0.1061033308506012,"383":-0.999108612537384,"384":-0.2522259056568146,"385":0.2113545686006546,"386":0.5779661536216736,"387":0.015969574451446533,"388":-0.6106418967247009,"389":0.23712770640850067,"390":-0.28177139163017273,"391":0.17405562102794647,"392":-0.7670384645462036,"393":1.2262065410614014,"394":1.7100837230682373,"395":-1.2886056900024414,"396":0.8023315668106079,"397":0.6856321096420288,"398":-0.8721829056739807,"399":0.6402413845062256}},"inputBias":{"rows":20,"columns":1,"weights":{"0":-0.03249553591012955,"1":0.10256651043891907,"2":-0.5455116629600525,"3":-0.5258263945579529,"4":-0.23081839084625244,"5":1.8486850261688232,"6":-0.17430271208286285,"7":0.7529493570327759,"8":-1.2670477628707886,"9":-0.4839279055595398,"10":-0.010379346087574959,"11":-0.3446310758590698,"12":-0.3820941150188446,"13":0.007361960131675005,"14":-0.4391753375530243,"15":1.1369738578796387,"16":0.018869169056415558,"17":-0.5914737582206726,"18":-0.030873455107212067,"19":0.01905389502644539}},"forgetMatrix":{"rows":20,"columns":31,"weights":{"0":1.5759133100509644,"1":-0.8119309544563293,"2":1.582579255104065,"3":0.10586614161729813,"4":2.1291675567626953,"5":2.8157565593719482,"6":0.5516490340232849,"7":-0.021761074662208557,"8":1.3661924600601196,"9":-0.38240453600883484,"10":1.961659550666809,"11":0.3007943034172058,"12":-0.16065825521945953,"13":-0.8022273778915405,"14":0.43001240491867065,"15":0.2743678689002991,"16":-0.14236228168010712,"17":-1.4814916849136353,"18":-1.422831416130066,"19":0.7114089727401733,"20":-0.753477931022644,"21":-0.6601358652114868,"22":2.020251512527466,"23":0.42972612380981445,"24":-2.7438764572143555,"25":0.11871979385614395,"26":0.00848730280995369,"27":-0.1594306379556656,"28":0.5222311615943909,"29":-0.9781337380409241,"30":0.21933218836784363,"31":-0.26865139603614807,"32":-1.0862879753112793,"33":-0.368751585483551,"34":0.7214935421943665,"35":-0.541556715965271,"36":-0.5655185580253601,"37":-0.5108855366706848,"38":-0.8800707459449768,"39":-0.058566052466630936,"40":-0.47734344005584717,"41":-1.6364034414291382,"42":-2.4727237224578857,"43":2.376739978790283,"44":1.2923974990844727,"45":-0.8480207324028015,"46":0.20097005367279053,"47":-0.019716644659638405,"48":-0.29895898699760437,"49":-0.3193536102771759,"50":-1.0384001731872559,"51":1.1696895360946655,"52":-0.25262215733528137,"53":-0.1972084790468216,"54":-0.8819863200187683,"55":0.14994606375694275,"56":0.5793891549110413,"57":-0.8935983180999756,"58":-0.14735186100006104,"59":-2.3516013622283936,"60":-0.1569390445947647,"61":-0.8379289507865906,"62":0.9766614437103271,"63":-0.23051461577415466,"64":-0.1484464704990387,"65":1.0179253816604614,"66":0.17573392391204834,"67":0.2910977005958557,"68":-0.9787203669548035,"69":-0.19459258019924164,"70":1.0414278507232666,"71":-0.791864812374115,"72":0.0801238864660263,"73":-1.024451732635498,"74":0.5204280614852905,"75":-0.8502494096755981,"76":-1.1573309898376465,"77":-1.6209827661514282,"78":-1.1656370162963867,"79":-0.586302638053894,"80":-0.3763333857059479,"81":0.8422988057136536,"82":-0.757571816444397,"83":-0.13994021713733673,"84":0.18729710578918457,"85":-1.1619582176208496,"86":-0.09987354278564453,"87":1.596716046333313,"88":-0.5027560591697693,"89":1.6409999132156372,"90":0.17524421215057373,"91":-0.4367203712463379,"92":-0.7269363403320312,"93":-0.3564774990081787,"94":1.4693931341171265,"95":-1.227010726928711,"96":-0.15125180780887604,"97":-0.3078266680240631,"98":-2.1762890815734863,"99":-0.5449663400650024,"100":0.9459964036941528,"101":-0.6352612376213074,"102":-0.88802170753479,"103":0.02511187084019184,"104":0.6033103466033936,"105":-0.0997609943151474,"106":0.26785361766815186,"107":-0.40105271339416504,"108":-0.6529176831245422,"109":-0.1852457970380783,"110":0.6466596722602844,"111":0.7780847549438477,"112":0.30182763934135437,"113":-0.8447214961051941,"114":-0.5357062220573425,"115":0.3557211756706238,"116":-0.025658193975687027,"117":1.3628488779067993,"118":0.24501140415668488,"119":-0.7091578245162964,"120":0.9395532608032227,"121":0.6955035924911499,"122":0.1311115324497223,"123":0.09540723264217377,"124":-0.3934903144836426,"125":-0.17378224432468414,"126":-0.6644287109375,"127":0.5996465682983398,"128":-0.6759989857673645,"129":-0.8273534178733826,"130":-1.0349304676055908,"131":-0.0988529697060585,"132":-0.6010053753852844,"133":0.056785132735967636,"134":-0.7627174854278564,"135":-0.702076256275177,"136":0.28660017251968384,"137":1.1668561697006226,"138":-0.7445377111434937,"139":-0.44502171874046326,"140":-0.18241438269615173,"141":0.6684463024139404,"142":0.47792237997055054,"143":-0.33812853693962097,"144":0.4133822023868561,"145":0.5235921144485474,"146":-0.682573139667511,"147":-0.3813452422618866,"148":0.966174840927124,"149":0.51416015625,"150":-0.5398687124252319,"151":0.3020668625831604,"152":-0.9509059190750122,"153":0.20158740878105164,"154":-0.5100296139717102,"155":0.9377629160881042,"156":-0.07311799377202988,"157":-0.32838505506515503,"158":1.0487817525863647,"159":0.3733068108558655,"160":-0.1128738522529602,"161":-1.1960266828536987,"162":0.0021655913442373276,"163":0.4992222189903259,"164":-0.19197829067707062,"165":0.3538641929626465,"166":-0.5567492246627808,"167":1.285352349281311,"168":-0.6054076552391052,"169":-1.3525933027267456,"170":-1.1751588582992554,"171":-1.8283299207687378,"172":-0.5376728773117065,"173":-0.022780876606702805,"174":1.1455817222595215,"175":-0.8242364525794983,"176":0.43743303418159485,"177":-0.47556498646736145,"178":-1.5542188882827759,"179":0.14933179318904877,"180":1.3159828186035156,"181":-1.0798742771148682,"182":1.4422128200531006,"183":-0.5227076411247253,"184":-1.2783455848693848,"185":-1.1560617685317993,"186":0.29397109150886536,"187":0.4514041841030121,"188":0.34745118021965027,"189":1.0196151733398438,"190":0.22777466475963593,"191":0.07949088513851166,"192":-0.43758371472358704,"193":0.3762235641479492,"194":-0.39178207516670227,"195":-1.4027866125106812,"196":0.19666102528572083,"197":-0.9500290751457214,"198":1.8510013818740845,"199":0.05645885318517685,"200":-0.45682066679000854,"201":-0.8165314793586731,"202":-0.8809010982513428,"203":-0.6986488103866577,"204":0.3699144423007965,"205":0.6756123900413513,"206":-0.507996678352356,"207":0.5913684368133545,"208":0.24115034937858582,"209":-0.6951687335968018,"210":-0.2945716083049774,"211":1.4914093017578125,"212":-1.224852204322815,"213":0.93465256690979,"214":0.037467844784259796,"215":-0.8926825523376465,"216":-0.2906727194786072,"217":0.3756396770477295,"218":-1.4651010036468506,"219":-0.8521588444709778,"220":0.6050775647163391,"221":0.26073604822158813,"222":-1.1532424688339233,"223":-0.7815293073654175,"224":-0.9070447683334351,"225":-0.28710582852363586,"226":-0.4722555875778198,"227":0.4165687561035156,"228":-0.6942381858825684,"229":0.666405975818634,"230":0.05106884241104126,"231":-1.095833420753479,"232":-0.4963880479335785,"233":-0.6217992305755615,"234":-0.30080243945121765,"235":-1.3882660865783691,"236":0.21036723256111145,"237":0.028550628572702408,"238":-0.5633018016815186,"239":-0.8504762649536133,"240":-1.2928940057754517,"241":0.8296452164649963,"242":0.9046802520751953,"243":-0.7744211554527283,"244":1.121957778930664,"245":-1.2875707149505615,"246":-0.8454833030700684,"247":-0.35889098048210144,"248":-0.24061141908168793,"249":0.05847921594977379,"250":0.23876266181468964,"251":0.8327183127403259,"252":0.11755933612585068,"253":-0.0847746729850769,"254":-0.7454326152801514,"255":0.27094554901123047,"256":-0.19834239780902863,"257":-0.9667558670043945,"258":0.3542075753211975,"259":-0.3267768621444702,"260":1.0834354162216187,"261":-0.768966019153595,"262":-0.709235429763794,"263":-1.0569477081298828,"264":-1.1163748502731323,"265":0.17717106640338898,"266":0.19144852459430695,"267":1.0692089796066284,"268":-0.4390857219696045,"269":0.04717289283871651,"270":1.0633076429367065,"271":-1.0553703308105469,"272":0.018824340775609016,"273":1.3308554887771606,"274":-1.269108772277832,"275":1.117089033126831,"276":0.2597861886024475,"277":-1.0401819944381714,"278":-0.8911264538764954,"279":0.3451840579509735,"280":0.38323330879211426,"281":-0.6350491046905518,"282":0.8947859406471252,"283":-0.513687252998352,"284":-0.2638547420501709,"285":-0.6037393808364868,"286":0.38541558384895325,"287":-0.011048967018723488,"288":-1.4746659994125366,"289":-0.24450215697288513,"290":-0.08935205638408661,"291":0.8630819916725159,"292":-0.8337108492851257,"293":-0.43458226323127747,"294":-0.6332650184631348,"295":-1.2895910739898682,"296":-0.3246012330055237,"297":-0.1657792627811432,"298":1.0734505653381348,"299":-0.5351407527923584,"300":0.17700299620628357,"301":-0.6011121273040771,"302":-0.5656833648681641,"303":0.5957865118980408,"304":1.4587777853012085,"305":-1.0924162864685059,"306":0.8305089473724365,"307":0.37895724177360535,"308":-0.7360119819641113,"309":-0.1952410489320755,"310":-1.073297381401062,"311":1.7826265096664429,"312":-0.5574241280555725,"313":-0.5750189423561096,"314":-2.179889440536499,"315":-0.6525445580482483,"316":0.7285871505737305,"317":1.4975450038909912,"318":-1.33295738697052,"319":0.12740680575370789,"320":-1.298876166343689,"321":-0.22944869101047516,"322":0.1267918348312378,"323":0.5837267637252808,"324":0.4035608172416687,"325":0.7412741780281067,"326":1.3226356506347656,"327":1.735694408416748,"328":2.056563138961792,"329":-0.49274206161499023,"330":0.14804162085056305,"331":1.3400458097457886,"332":-0.19656510651111603,"333":0.8443137407302856,"334":1.368674397468567,"335":-0.7877374887466431,"336":0.32982227206230164,"337":-0.6041037440299988,"338":0.24784499406814575,"339":0.6888386607170105,"340":0.7340801358222961,"341":-0.47651028633117676,"342":0.8929471969604492,"343":-1.3974720239639282,"344":0.11615558713674545,"345":-1.5394017696380615,"346":-1.1265045404434204,"347":0.6485096216201782,"348":0.8244023323059082,"349":0.2847905158996582,"350":-0.37565329670906067,"351":-0.8786386251449585,"352":0.25023311376571655,"353":0.3070371448993683,"354":-0.234424889087677,"355":0.6188344359397888,"356":0.2945554256439209,"357":-0.8407048583030701,"358":0.5147863626480103,"359":1.0944998264312744,"360":-0.16604572534561157,"361":0.3102995753288269,"362":1.0709158182144165,"363":-0.8801524639129639,"364":-0.6293871998786926,"365":1.2414755821228027,"366":0.6551703214645386,"367":0.5011091232299805,"368":0.6391568183898926,"369":0.743567168712616,"370":0.05655520409345627,"371":0.6248327493667603,"372":-0.19335176050662994,"373":1.115889310836792,"374":0.4497978091239929,"375":-0.028259051963686943,"376":-0.8316950798034668,"377":-0.5217637419700623,"378":-0.036425575613975525,"379":1.0220669507980347,"380":-0.1422739177942276,"381":-0.9232889413833618,"382":-0.5684232115745544,"383":-0.16543380916118622,"384":0.6718087196350098,"385":-0.22349601984024048,"386":-0.14493414759635925,"387":-0.7347401976585388,"388":-0.6107919812202454,"389":0.20695874094963074,"390":1.0981000661849976,"391":0.6133055686950684,"392":-0.5695265531539917,"393":0.9185401201248169,"394":-0.34432658553123474,"395":-0.37858089804649353,"396":0.7181596755981445,"397":0.4987231492996216,"398":-0.012702320702373981,"399":0.8461125493049622,"400":0.507271945476532,"401":-0.6530037522315979,"402":-0.25749239325523376,"403":-0.6196695566177368,"404":1.0451953411102295,"405":-0.7149850726127625,"406":1.2281594276428223,"407":-1.1184505224227905,"408":-0.991900622844696,"409":-0.003073891857638955,"410":0.9375928044319153,"411":0.0665743425488472,"412":-1.8694751262664795,"413":-1.1185033321380615,"414":-0.9753538966178894,"415":1.2909479141235352,"416":0.17835964262485504,"417":-0.20092006027698517,"418":-0.4731152355670929,"419":0.11244022101163864,"420":0.613336980342865,"421":0.952824592590332,"422":-0.15066523849964142,"423":-0.265743225812912,"424":0.8624060153961182,"425":-0.692733645439148,"426":-0.3509402275085449,"427":0.9538097977638245,"428":0.5768396258354187,"429":-0.7425637245178223,"430":0.5420823693275452,"431":0.9003785848617554,"432":-0.36987370252609253,"433":-0.7760723829269409,"434":1.383296251296997,"435":-0.5889484286308289,"436":0.2539059817790985,"437":0.9569082856178284,"438":0.3995598554611206,"439":0.29926207661628723,"440":-0.7584070563316345,"441":-0.7433616518974304,"442":-0.35064560174942017,"443":-1.2257788181304932,"444":0.4626193940639496,"445":-0.5392968654632568,"446":1.2704188823699951,"447":0.5663926601409912,"448":-0.6572142243385315,"449":-0.1848732829093933,"450":-0.24096429347991943,"451":-0.8834506273269653,"452":-0.6605009436607361,"453":0.2904060482978821,"454":-0.36280593276023865,"455":-0.18157890439033508,"456":0.5541718602180481,"457":-1.1503028869628906,"458":-0.4635287821292877,"459":0.9293960332870483,"460":-0.9603620767593384,"461":0.48348161578178406,"462":-0.7435181736946106,"463":-0.4370252788066864,"464":-0.2396974116563797,"465":-0.3906419575214386,"466":0.6322581768035889,"467":-0.791293740272522,"468":-0.0535152442753315,"469":-1.1563720703125,"470":-1.9675201177597046,"471":-0.3573191165924072,"472":0.2989040017127991,"473":-0.9561507701873779,"474":-0.7584903240203857,"475":-1.1057019233703613,"476":-0.016459140926599503,"477":-0.26739102602005005,"478":-0.6596819758415222,"479":-0.43630102276802063,"480":-1.2376006841659546,"481":-0.5517370104789734,"482":1.2146896123886108,"483":0.5893935561180115,"484":0.7716432213783264,"485":-0.8203902244567871,"486":0.916751503944397,"487":-0.2699313759803772,"488":0.0017692805267870426,"489":2.5872385501861572,"490":-0.3001888692378998,"491":-0.4499413073062897,"492":0.8586736917495728,"493":0.021601619198918343,"494":-0.21913625299930573,"495":0.267394095659256,"496":-0.024913234636187553,"497":0.2765134274959564,"498":0.04233285039663315,"499":1.0163791179656982,"500":0.6089115142822266,"501":0.3272823691368103,"502":-0.27435800433158875,"503":0.5864095091819763,"504":1.2414469718933105,"505":-0.6928479075431824,"506":0.24520529806613922,"507":-0.8142734169960022,"508":0.8047012090682983,"509":-0.9031397700309753,"510":-0.4704381227493286,"511":-0.8927893042564392,"512":-1.2022415399551392,"513":0.00011870156595250592,"514":0.11913184076547623,"515":1.0975042581558228,"516":-0.9134560227394104,"517":0.4666961431503296,"518":0.45266300439834595,"519":-0.4397437274456024,"520":-0.48058372735977173,"521":0.8883165121078491,"522":-0.5696372985839844,"523":0.9521758556365967,"524":0.13091853260993958,"525":-1.130331039428711,"526":-0.7040994167327881,"527":0.17701546847820282,"528":0.011738207191228867,"529":0.3951556086540222,"530":1.1762378215789795,"531":-0.34164273738861084,"532":-0.35260704159736633,"533":-0.9561400413513184,"534":-0.39938583970069885,"535":-0.13399583101272583,"536":-1.4146418571472168,"537":-0.5202658772468567,"538":-1.2411515712738037,"539":2.316479206085205,"540":0.12568998336791992,"541":-1.2363834381103516,"542":-1.0067635774612427,"543":-0.6423711776733398,"544":-0.059261731803417206,"545":0.2052423655986786,"546":0.47122424840927124,"547":-0.10006601363420486,"548":0.2667061686515808,"549":-0.220707967877388,"550":-1.527849555015564,"551":0.4935929477214813,"552":1.1504149436950684,"553":-1.3181796073913574,"554":0.9798591136932373,"555":-0.5104514360427856,"556":-0.8402576446533203,"557":-0.8881278038024902,"558":0.6320708394050598,"559":-2.571237802505493,"560":-0.06407912075519562,"561":-0.9144817590713501,"562":-0.13995914161205292,"563":-0.20407593250274658,"564":0.2060191035270691,"565":-1.749430775642395,"566":-0.527673602104187,"567":1.087613821029663,"568":-0.8718072175979614,"569":-1.3607152700424194,"570":0.45297396183013916,"571":0.9340676665306091,"572":-0.06766682863235474,"573":0.22396913170814514,"574":-0.13752974569797516,"575":-0.23212479054927826,"576":-0.9195998907089233,"577":-1.2695000171661377,"578":2.0659291744232178,"579":0.48354101181030273,"580":-0.5656937956809998,"581":0.10648166388273239,"582":0.7151660919189453,"583":0.3783407211303711,"584":0.175113707780838,"585":-0.7376759052276611,"586":-2.6599481105804443,"587":0.580467700958252,"588":0.3039102256298065,"589":-1.1175382137298584,"590":0.05813523381948471,"591":0.25018492341041565,"592":0.5035783052444458,"593":-0.577777087688446,"594":0.20507073402404785,"595":-0.13711875677108765,"596":-0.45972639322280884,"597":-0.36451610922813416,"598":-0.30903950333595276,"599":-1.0624191761016846,"600":-0.8052626848220825,"601":0.8612896203994751,"602":0.962611973285675,"603":-0.39255210757255554,"604":-0.6254417896270752,"605":-0.112019844353199,"606":0.26716095209121704,"607":1.068443775177002,"608":-0.2487514317035675,"609":0.17349810898303986,"610":1.0282177925109863,"611":0.010819348506629467,"612":-1.0613033771514893,"613":0.060009878128767014,"614":0.5685547590255737,"615":-0.47985631227493286,"616":0.14991851150989532,"617":-0.2124810814857483,"618":0.0902869775891304,"619":-0.1124134361743927}},"forgetHidden":{"rows":20,"columns":20,"weights":{"0":-0.4379604160785675,"1":-0.023534370586276054,"2":1.185678243637085,"3":0.03421418368816376,"4":0.3281312882900238,"5":-0.9579690098762512,"6":0.06325401365756989,"7":0.3813788890838623,"8":-0.23674596846103668,"9":-0.9509788155555725,"10":0.022193415090441704,"11":-0.014511621557176113,"12":-0.09435069561004639,"13":-0.9199165105819702,"14":-0.41906240582466125,"15":-0.49348926544189453,"16":0.07558704167604446,"17":0.020842822268605232,"18":0.5764538645744324,"19":1.3866363763809204,"20":1.329163670539856,"21":-0.19956450164318085,"22":0.2762412130832672,"23":0.31122997403144836,"24":-0.5611925721168518,"25":-0.956790566444397,"26":0.48385295271873474,"27":-1.0963088274002075,"28":-1.0339783430099487,"29":0.3630583882331848,"30":0.5298552513122559,"31":-0.6735153198242188,"32":-0.3788098692893982,"33":1.266911268234253,"34":0.5936448574066162,"35":0.9162328243255615,"36":-0.5326089262962341,"37":0.4271987974643707,"38":0.39890095591545105,"39":-0.7659628987312317,"40":0.01463052723556757,"41":-0.027893969789147377,"42":-0.6979878544807434,"43":0.3335358500480652,"44":-0.7858763337135315,"45":1.0658061504364014,"46":-0.04101085662841797,"47":1.341355562210083,"48":-0.11295878887176514,"49":-0.090791717171669,"50":-1.631234884262085,"51":0.9722806811332703,"52":0.6871301531791687,"53":-0.665786623954773,"54":0.14298278093338013,"55":-0.6313592791557312,"56":-0.11546525359153748,"57":0.3208974003791809,"58":-0.7355449795722961,"59":-0.26868000626564026,"60":-0.47859370708465576,"61":1.7151386737823486,"62":1.6382997035980225,"63":1.4390097856521606,"64":-2.3559348583221436,"65":0.11409531533718109,"66":0.7213721871376038,"67":-1.0595873594284058,"68":-0.20249588787555695,"69":0.8387129306793213,"70":-0.9557207226753235,"71":-1.8158000707626343,"72":-1.8691953420639038,"73":0.5163856148719788,"74":0.8563472032546997,"75":0.5118733644485474,"76":0.09563229233026505,"77":2.0383570194244385,"78":-0.855776309967041,"79":-0.25504186749458313,"80":0.1158762276172638,"81":0.20113015174865723,"82":0.619063138961792,"83":1.2421470880508423,"84":0.05531143397092819,"85":-0.7348921298980713,"86":0.07178843021392822,"87":-1.0556323528289795,"88":0.05445137247443199,"89":-0.1344253271818161,"90":0.2643371820449829,"91":-0.43542569875717163,"92":0.2306167334318161,"93":0.7949253916740417,"94":0.05585765838623047,"95":0.8428606986999512,"96":-0.1333722174167633,"97":0.17109908163547516,"98":0.2845994830131531,"99":0.7615785598754883,"100":-0.19879482686519623,"101":1.7405083179473877,"102":-0.6539058089256287,"103":-0.234107106924057,"104":-0.9179840087890625,"105":0.5033305287361145,"106":1.033524513244629,"107":0.03777555748820305,"108":-0.9981071352958679,"109":0.4995908737182617,"110":-1.6636195182800293,"111":-0.787851095199585,"112":-0.18005980551242828,"113":-0.07729079574346542,"114":1.3140709400177002,"115":-0.6428168416023254,"116":0.3040145933628082,"117":0.8097368478775024,"118":-1.9717131853103638,"119":-1.2683387994766235,"120":-0.07085663825273514,"121":0.3946457505226135,"122":0.2964021563529968,"123":-0.08346942812204361,"124":-0.3976496756076813,"125":-0.7599931955337524,"126":-0.20072638988494873,"127":-0.8469030261039734,"128":-0.42149943113327026,"129":-1.1480129957199097,"130":0.4204663038253784,"131":-0.4221332371234894,"132":-0.2692306935787201,"133":0.5891548991203308,"134":-0.03398537263274193,"135":0.5030336380004883,"136":0.1948518306016922,"137":-0.08805852383375168,"138":-0.5725703239440918,"139":-0.8337759375572205,"140":0.7238566875457764,"141":1.71133553981781,"142":1.2549206018447876,"143":0.5331076979637146,"144":-1.120963454246521,"145":-0.9796252250671387,"146":0.5645651817321777,"147":-0.9516236186027527,"148":-0.38275596499443054,"149":0.48466914892196655,"150":-0.20270328223705292,"151":-1.6391432285308838,"152":-0.694800853729248,"153":1.0825867652893066,"154":0.49285873770713806,"155":0.9211085438728333,"156":-0.8169350624084473,"157":0.7360971570014954,"158":0.3172622621059418,"159":-0.7358794212341309,"160":0.15865865349769592,"161":0.06362693011760712,"162":0.4321245849132538,"163":0.0072643388994038105,"164":0.20900876820087433,"165":0.36727839708328247,"166":0.48578202724456787,"167":-0.16029170155525208,"168":-0.6368258595466614,"169":0.3532226085662842,"170":-0.3125603199005127,"171":-0.44553735852241516,"172":-1.1619596481323242,"173":0.7677242159843445,"174":0.4393104016780853,"175":0.42471322417259216,"176":0.15346699953079224,"177":0.5086471438407898,"178":-0.5777254700660706,"179":-0.5403785109519958,"180":0.009217320941388607,"181":0.21800856292247772,"182":0.12980422377586365,"183":0.22967985272407532,"184":-0.5104066133499146,"185":0.5406489968299866,"186":-0.6153579950332642,"187":0.11005504429340363,"188":-0.5518153309822083,"189":-0.2821978032588959,"190":-0.15618497133255005,"191":0.31860262155532837,"192":0.2999807894229889,"193":0.5159475207328796,"194":0.2888195514678955,"195":0.0762706845998764,"196":-0.5207820534706116,"197":-0.19108420610427856,"198":-0.20061732828617096,"199":-0.723785936832428,"200":0.24852782487869263,"201":0.3615517318248749,"202":0.20272387564182281,"203":1.2206506729125977,"204":-0.23475012183189392,"205":-1.3192665576934814,"206":-0.8065881729125977,"207":0.311725914478302,"208":-1.7373754978179932,"209":-1.6450777053833008,"210":0.3188505172729492,"211":1.9686784744262695,"212":-2.0292224884033203,"213":-1.8192415237426758,"214":-0.5905362367630005,"215":0.7357010841369629,"216":0.056432075798511505,"217":-0.7695497274398804,"218":0.012196122668683529,"219":-1.214856743812561,"220":0.697643518447876,"221":0.3343107998371124,"222":0.35471111536026,"223":1.2920359373092651,"224":-0.7611703276634216,"225":-0.9131675362586975,"226":0.2385215312242508,"227":-0.026820557191967964,"228":0.07720982283353806,"229":0.20666563510894775,"230":-0.4234989881515503,"231":0.13459578156471252,"232":-0.3945901095867157,"233":0.0796247124671936,"234":0.31233489513397217,"235":1.2995063066482544,"236":-0.6270831227302551,"237":0.2562086880207062,"238":0.13698743283748627,"239":0.6364824771881104,"240":-0.3731202483177185,"241":-0.4091411828994751,"242":-0.4059129059314728,"243":0.2078537791967392,"244":-0.03663506358861923,"245":0.4662932753562927,"246":0.003295008558779955,"247":-0.2466522604227066,"248":-0.07687488943338394,"249":-0.04677163437008858,"250":0.41723939776420593,"251":0.005257446318864822,"252":0.20586128532886505,"253":0.9019055366516113,"254":0.01255393959581852,"255":0.6725989580154419,"256":-0.3061223030090332,"257":0.28565627336502075,"258":-0.046863384544849396,"259":-0.11145363003015518,"260":0.7552469968795776,"261":0.16109231114387512,"262":0.4488024115562439,"263":0.38405826687812805,"264":-0.15643537044525146,"265":0.5370132923126221,"266":0.027676984667778015,"267":0.13191084563732147,"268":0.09919469803571701,"269":0.04398857802152634,"270":-0.4130672216415405,"271":-0.23837122321128845,"272":0.13653869926929474,"273":0.21512369811534882,"274":0.03245433419942856,"275":0.18649905920028687,"276":-0.40705791115760803,"277":-0.054173391312360764,"278":0.2089695930480957,"279":-0.045107100158929825,"280":-0.05682188645005226,"281":-0.2385730892419815,"282":0.1107616275548935,"283":-0.7392430305480957,"284":0.44060218334198,"285":0.8125739693641663,"286":-0.5327762961387634,"287":0.2907177209854126,"288":-0.9321450591087341,"289":-0.1316279172897339,"290":0.44889044761657715,"291":0.6975482106208801,"292":-0.2223181575536728,"293":-0.3147585690021515,"294":-0.021341178566217422,"295":-0.05602440983057022,"296":-0.6703531742095947,"297":-0.7274408936500549,"298":-0.23036663234233856,"299":-1.0147590637207031,"300":0.4866909384727478,"301":1.398654580116272,"302":0.16413626074790955,"303":0.9873964786529541,"304":-1.3371115922927856,"305":-0.564831554889679,"306":0.963434100151062,"307":0.8914270401000977,"308":-1.3346093893051147,"309":1.3862402439117432,"310":-1.7790558338165283,"311":-0.28286004066467285,"312":-1.675441861152649,"313":0.6790410876274109,"314":0.9855036735534668,"315":2.1672110557556152,"316":-1.0604033470153809,"317":1.176265835762024,"318":-1.0607517957687378,"319":-1.081973671913147,"320":-0.017791880294680595,"321":-0.1190003827214241,"322":-0.46608874201774597,"323":-0.04270487278699875,"324":0.03104034624993801,"325":0.37810930609703064,"326":-0.15153768658638,"327":0.22246596217155457,"328":0.19734132289886475,"329":-0.004677341319620609,"330":0.1960834562778473,"331":0.12493786215782166,"332":0.15218359231948853,"333":-0.27636486291885376,"334":-0.05659937486052513,"335":-0.39900296926498413,"336":-0.24131982028484344,"337":-0.11565648764371872,"338":0.8435049653053284,"339":0.7946979999542236,"340":0.2969842851161957,"341":0.24492168426513672,"342":0.42321059107780457,"343":-0.1179090291261673,"344":0.2401944398880005,"345":-0.016389774158596992,"346":0.19383594393730164,"347":-0.7428995966911316,"348":-0.8254983425140381,"349":-0.16207930445671082,"350":-0.018632860854268074,"351":-0.18046630918979645,"352":-0.26701340079307556,"353":0.5333710312843323,"354":0.06371593475341797,"355":0.5356903672218323,"356":-0.09555699676275253,"357":0.1864931285381317,"358":-0.6890296936035156,"359":-0.8540765643119812,"360":-0.14912457764148712,"361":-0.08066721260547638,"362":-0.12626995146274567,"363":1.8539068698883057,"364":-1.1214396953582764,"365":-0.7914455533027649,"366":0.488858163356781,"367":-1.1373836994171143,"368":0.6098983287811279,"369":0.278217613697052,"370":-1.8989111185073853,"371":-0.8960230350494385,"372":1.1437710523605347,"373":0.5090842843055725,"374":0.2751278579235077,"375":0.34197506308555603,"376":-0.5042411684989929,"377":-0.10272485762834549,"378":0.49023720622062683,"379":-0.40712854266166687,"380":0.5308851003646851,"381":-0.8925613760948181,"382":0.03749840334057808,"383":-0.3648790717124939,"384":-0.010823960416018963,"385":-0.5875193476676941,"386":0.18453605473041534,"387":0.35943084955215454,"388":-0.06767139583826065,"389":1.1539654731750488,"390":0.12444315105676651,"391":0.7079453468322754,"392":-0.06212814152240753,"393":0.09434811025857925,"394":0.12424570322036743,"395":0.1573437750339508,"396":-0.8995068669319153,"397":0.01707262359559536,"398":0.2981701195240021,"399":1.2256938219070435}},"forgetBias":{"rows":20,"columns":1,"weights":{"0":0,"1":0,"2":0,"3":0,"4":0,"5":0,"6":0,"7":0,"8":0,"9":0,"10":0,"11":0,"12":0,"13":0,"14":0,"15":0,"16":0,"17":0,"18":0,"19":0}},"outputMatrix":{"rows":20,"columns":31,"weights":{"0":0.5053989887237549,"1":-1.424910545349121,"2":1.2233752012252808,"3":-0.4393497705459595,"4":0.40733006596565247,"5":0.9647154808044434,"6":0.004908017348498106,"7":-1.324123501777649,"8":1.1012693643569946,"9":0.30766385793685913,"10":0.10594762116670609,"11":-0.38118109107017517,"12":-0.15201152861118317,"13":0.7707756757736206,"14":-0.0474235825240612,"15":0.3740500509738922,"16":0.4960249960422516,"17":-0.33704978227615356,"18":-0.8429889678955078,"19":-0.4892858862876892,"20":0.4283108711242676,"21":-1.49466872215271,"22":0.9380629658699036,"23":0.2974763512611389,"24":-1.0744495391845703,"25":-0.3744622766971588,"26":0.3923828899860382,"27":-0.45610758662223816,"28":-0.7131096720695496,"29":0.2923171818256378,"30":0.20822538435459137,"31":-0.15149681270122528,"32":-0.7702920436859131,"33":0.48483896255493164,"34":0.7392415404319763,"35":-0.13769984245300293,"36":0.7897704243659973,"37":-0.29220888018608093,"38":-0.7926647067070007,"39":0.04858270660042763,"40":-0.45462465286254883,"41":-0.9916797280311584,"42":-1.467063069343567,"43":1.0291208028793335,"44":0.18416251242160797,"45":-0.5080586075782776,"46":-0.514069139957428,"47":-0.5604895353317261,"48":-0.372229665517807,"49":-0.5268851518630981,"50":-0.07192601263523102,"51":0.5970726013183594,"52":0.5609618425369263,"53":-1.1996755599975586,"54":-0.8348953127861023,"55":-0.6319314241409302,"56":0.7871276140213013,"57":-0.7689143419265747,"58":0.47882404923439026,"59":-0.48917797207832336,"60":-0.18645569682121277,"61":-0.5981631278991699,"62":-1.6348589658737183,"63":0.2876330018043518,"64":-0.48737096786499023,"65":-0.7631523013114929,"66":-1.6828848123550415,"67":-0.4381803274154663,"68":0.31647443771362305,"69":1.0589064359664917,"70":0.35976794362068176,"71":0.6859835386276245,"72":-1.2310901880264282,"73":0.5398133397102356,"74":-0.9348499178886414,"75":0.6459551453590393,"76":0.436260849237442,"77":0.5365469455718994,"78":1.0635486841201782,"79":1.3990851640701294,"80":0.6521494388580322,"81":-1.1965619325637817,"82":0.36084726452827454,"83":1.1700866222381592,"84":-1.6002520322799683,"85":0.4931279718875885,"86":0.9002487659454346,"87":-0.8737402558326721,"88":0.8597919344902039,"89":-0.7564523816108704,"90":1.0024003982543945,"91":1.5475072860717773,"92":0.5992649793624878,"93":-2.1154818534851074,"94":-0.1089201495051384,"95":-1.7042536735534668,"96":0.07557220011949539,"97":-1.9067699909210205,"98":-2.3910160064697266,"99":-1.2550249099731445,"100":0.19650810956954956,"101":-1.9418150186538696,"102":0.9453035593032837,"103":-0.8296205997467041,"104":0.2110271453857422,"105":-0.046295225620269775,"106":0.5926570296287537,"107":-0.19891740381717682,"108":0.24605023860931396,"109":0.011629878543317318,"110":2.3691718578338623,"111":1.3223093748092651,"112":-0.5702097415924072,"113":0.16612641513347626,"114":0.26305073499679565,"115":-1.6510941982269287,"116":-0.11611226946115494,"117":2.0406150817871094,"118":-0.4358745217323303,"119":-0.860203206539154,"120":-0.09711067378520966,"121":-0.5599390864372253,"122":1.1398022174835205,"123":-0.5200956463813782,"124":0.4571549892425537,"125":-0.2924686074256897,"126":-0.43846264481544495,"127":1.0246121883392334,"128":0.26207321882247925,"129":0.4652179479598999,"130":-1.2552969455718994,"131":-0.3774247467517853,"132":0.468495637178421,"133":-0.3360389769077301,"134":-0.4513729214668274,"135":-1.2481129169464111,"136":1.1081641912460327,"137":-0.5801714062690735,"138":-1.6761229038238525,"139":-1.174763798713684,"140":-1.2546651363372803,"141":-0.5513268113136292,"142":0.04782974720001221,"143":0.8502511382102966,"144":-0.6989544034004211,"145":0.13267458975315094,"146":-0.5737250447273254,"147":-1.3006495237350464,"148":-0.20292574167251587,"149":1.5238593816757202,"150":-0.8831565976142883,"151":1.1819669008255005,"152":-0.3633725643157959,"153":-0.9436111450195312,"154":-1.4203864336013794,"155":-0.457694411277771,"156":-0.6563202142715454,"157":-0.4998589754104614,"158":-0.13778221607208252,"159":-0.6096017956733704,"160":-1.588984489440918,"161":0.6882064342498779,"162":-0.18655899167060852,"163":-1.7437092065811157,"164":0.5391354560852051,"165":-0.6705846786499023,"166":0.20960648357868195,"167":0.5986170172691345,"168":2.0382139682769775,"169":0.787001371383667,"170":1.414571762084961,"171":0.7991757988929749,"172":0.5709487795829773,"173":0.0002649986126925796,"174":-1.9466221332550049,"175":2.1178057193756104,"176":0.5966099500656128,"177":-1.4783685207366943,"178":-0.19844003021717072,"179":0.876837432384491,"180":-0.13869637250900269,"181":0.08833290636539459,"182":-1.642435073852539,"183":-0.9267973303794861,"184":0.14095835387706757,"185":0.3489703834056854,"186":-0.396054208278656,"187":-0.15057668089866638,"188":-1.0463374853134155,"189":0.44434529542922974,"190":-0.5184113383293152,"191":-0.5376906991004944,"192":-1.0233831405639648,"193":0.16766934096813202,"194":-0.2993166446685791,"195":-0.12923318147659302,"196":-0.5729179382324219,"197":-1.1151562929153442,"198":1.053036093711853,"199":-0.03854871168732643,"200":-1.102321982383728,"201":-0.6274760961532593,"202":-1.7144287824630737,"203":0.45782437920570374,"204":0.32856249809265137,"205":0.22465761005878448,"206":0.7869769930839539,"207":0.7001984715461731,"208":-0.5100885033607483,"209":-0.049877919256687164,"210":0.4334864914417267,"211":1.3367266654968262,"212":-0.9663107395172119,"213":0.9902490973472595,"214":-0.3106345534324646,"215":-0.1946149617433548,"216":-1.1043362617492676,"217":-0.04570496454834938,"218":-0.9325137138366699,"219":-1.0398454666137695,"220":-0.5906877517700195,"221":-0.7741410136222839,"222":-0.6387296319007874,"223":-0.4101819097995758,"224":-0.9940911531448364,"225":0.8527815937995911,"226":1.4441208839416504,"227":-0.9084930419921875,"228":-0.07796795666217804,"229":-0.95499187707901,"230":-0.6629164814949036,"231":-0.28919923305511475,"232":0.2677920460700989,"233":0.21809963881969452,"234":0.6680019497871399,"235":-0.6597216725349426,"236":-0.8465256690979004,"237":0.36809617280960083,"238":-0.6110811829566956,"239":-1.9878695011138916,"240":0.06226347014307976,"241":1.3963006734848022,"242":-0.4012124836444855,"243":0.2962934970855713,"244":-0.945527195930481,"245":-0.4672614634037018,"246":1.2545340061187744,"247":0.10892913490533829,"248":-1.2310302257537842,"249":0.1832931786775589,"250":0.3355711102485657,"251":0.0014845249243080616,"252":-0.9910483360290527,"253":-1.57717764377594,"254":-0.3424745500087738,"255":0.434327632188797,"256":-0.6655911803245544,"257":-1.152184009552002,"258":0.4137537181377411,"259":-0.6527882814407349,"260":2.183925151824951,"261":0.6455242037773132,"262":-0.6263480186462402,"263":0.14204460382461548,"264":0.8036196231842041,"265":0.8867253065109253,"266":0.6072554588317871,"267":0.054432086646556854,"268":-0.20378918945789337,"269":0.6069256663322449,"270":-0.21836115419864655,"271":-1.4575377702713013,"272":1.1711393594741821,"273":0.26005762815475464,"274":-0.7682246565818787,"275":-0.0863673985004425,"276":0.041193392127752304,"277":-0.4496253430843353,"278":0.015567351132631302,"279":0.9406682252883911,"280":0.5817649364471436,"281":0.34870606660842896,"282":0.507699191570282,"283":0.9443176984786987,"284":-0.01414168905466795,"285":-0.4667868912220001,"286":-0.8810991048812866,"287":1.4883251190185547,"288":-0.7164793610572815,"289":0.8448905944824219,"290":-0.19251284003257751,"291":0.3720172941684723,"292":-0.8424056768417358,"293":-0.874626636505127,"294":-0.20817245543003082,"295":-0.1148628443479538,"296":-0.7063782215118408,"297":-0.32637539505958557,"298":1.576353669166565,"299":-1.4003403186798096,"300":-1.738326072692871,"301":1.1220576763153076,"302":0.007766752038151026,"303":-0.6915281414985657,"304":0.37834233045578003,"305":-0.30602753162384033,"306":1.073709487915039,"307":0.543499231338501,"308":-1.122933030128479,"309":-0.0963824987411499,"310":-0.49238166213035583,"311":1.0176169872283936,"312":-0.6039875149726868,"313":-0.06525692343711853,"314":-1.3336832523345947,"315":-1.4939552545547485,"316":0.561285138130188,"317":0.43781185150146484,"318":-1.1525110006332397,"319":0.49576807022094727,"320":-0.20475515723228455,"321":1.3854831457138062,"322":-0.4580991864204407,"323":0.7748051881790161,"324":0.568759560585022,"325":0.41523805260658264,"326":0.48853421211242676,"327":0.9353227019309998,"328":1.2475284337997437,"329":0.008695166558027267,"330":-0.01358439028263092,"331":0.6528451442718506,"332":0.020735953003168106,"333":0.7548074722290039,"334":0.9973120093345642,"335":-1.2317241430282593,"336":0.34271374344825745,"337":-0.28606539964675903,"338":0.42403724789619446,"339":0.9257507920265198,"340":0.7780367732048035,"341":1.7019990682601929,"342":0.6270254254341125,"343":0.044130321592092514,"344":1.081594705581665,"345":0.20665593445301056,"346":0.8284002542495728,"347":-1.0600323677062988,"348":-1.0451786518096924,"349":1.1552737951278687,"350":-0.9545157551765442,"351":-0.09433222562074661,"352":-0.14256712794303894,"353":0.04939153417944908,"354":-1.3335762023925781,"355":-1.3125859498977661,"356":-1.031060814857483,"357":-0.8282946944236755,"358":-1.3459242582321167,"359":-0.323995977640152,"360":0.9378722906112671,"361":-1.022995114326477,"362":-1.275801420211792,"363":0.3253006637096405,"364":-1.2800447940826416,"365":-0.624355673789978,"366":1.159528374671936,"367":-0.9915206432342529,"368":1.1121774911880493,"369":0.009801022708415985,"370":-0.4084347188472748,"371":-0.950358510017395,"372":0.2560822665691376,"373":0.45680487155914307,"374":1.3091721534729004,"375":0.16850368678569794,"376":0.16916730999946594,"377":-0.3972041606903076,"378":1.348443865776062,"379":0.6438382267951965,"380":-0.6436840891838074,"381":-0.3746195435523987,"382":1.351950764656067,"383":0.4788714349269867,"384":0.6661906838417053,"385":-0.025019340217113495,"386":1.2983742952346802,"387":0.2515312433242798,"388":-0.03668270632624626,"389":-0.06454537063837051,"390":0.5382351279258728,"391":0.448224276304245,"392":-0.04173969477415085,"393":0.4964233934879303,"394":1.5796691179275513,"395":0.5811193585395813,"396":-0.4800037741661072,"397":-0.14134849607944489,"398":0.2976030707359314,"399":-0.2563830614089966,"400":0.5534229874610901,"401":-0.4924972653388977,"402":0.8874469995498657,"403":0.12483597546815872,"404":-0.2359168380498886,"405":-0.587804913520813,"406":0.9083917140960693,"407":0.06661084294319153,"408":0.24745354056358337,"409":-0.85550856590271,"410":0.13949507474899292,"411":-0.5614803433418274,"412":0.06553047895431519,"413":0.20682600140571594,"414":-1.0321162939071655,"415":1.3359376192092896,"416":-0.8097441792488098,"417":-1.0104196071624756,"418":-0.780331015586853,"419":-1.4828391075134277,"420":-0.4305039644241333,"421":-0.12321536242961884,"422":1.082192063331604,"423":-0.4813591241836548,"424":0.3505583703517914,"425":-0.6691654324531555,"426":-0.9317606687545776,"427":-0.04285323619842529,"428":1.0758647918701172,"429":-0.6638574004173279,"430":1.1542668342590332,"431":0.004247007891535759,"432":-1.247053623199463,"433":-0.7502118945121765,"434":-0.579822838306427,"435":0.7523204684257507,"436":0.14274396002292633,"437":1.0025808811187744,"438":-0.49438756704330444,"439":-0.32132115960121155,"440":-0.44008371233940125,"441":0.8630593419075012,"442":0.5196146368980408,"443":-0.8075811862945557,"444":-0.12728086113929749,"445":-0.6834003925323486,"446":1.1850025653839111,"447":-0.725974977016449,"448":-0.9540322422981262,"449":-0.9878295063972473,"450":-0.9745863676071167,"451":0.6779642105102539,"452":0.3234218955039978,"453":1.2415382862091064,"454":-0.9100553393363953,"455":0.45701080560684204,"456":-0.02631388232111931,"457":-1.151678204536438,"458":0.3970562815666199,"459":1.2014433145523071,"460":-0.9144008159637451,"461":1.0569965839385986,"462":1.0106492042541504,"463":-0.8331030011177063,"464":-1.0352981090545654,"465":-1.670997142791748,"466":1.2663291692733765,"467":-1.4772858619689941,"468":0.23279772698879242,"469":-1.488101601600647,"470":-1.9033910036087036,"471":-0.16036280989646912,"472":1.3718262910842896,"473":-1.0364760160446167,"474":0.249199777841568,"475":-0.4941953718662262,"476":-0.06370475888252258,"477":-0.03072788380086422,"478":0.615653395652771,"479":-0.037132468074560165,"480":-0.4387497305870056,"481":-0.3968750536441803,"482":2.0412838459014893,"483":1.8854496479034424,"484":0.09086240828037262,"485":0.19881752133369446,"486":1.5023548603057861,"487":-0.4743212163448334,"488":-0.049066681414842606,"489":2.0198347568511963,"490":0.02195945382118225,"491":-0.10635890066623688,"492":0.1624286025762558,"493":0.3930928707122803,"494":0.5532971620559692,"495":-0.45283642411231995,"496":1.0698570013046265,"497":-0.3856254816055298,"498":0.4284609854221344,"499":0.7234874367713928,"500":1.5635539293289185,"501":0.05788395553827286,"502":-0.23580580949783325,"503":-0.01639695279300213,"504":0.1453707367181778,"505":-0.870083212852478,"506":1.4286220073699951,"507":-0.5479518175125122,"508":1.1048986911773682,"509":-0.27512261271476746,"510":-0.3747388422489166,"511":-0.6331910490989685,"512":-0.7537925243377686,"513":-1.2637323141098022,"514":-1.1720062494277954,"515":0.5179406404495239,"516":-0.41608041524887085,"517":-0.9718185067176819,"518":1.0761909484863281,"519":-1.1018399000167847,"520":-0.5367908477783203,"521":0.8989617228507996,"522":-1.0350600481033325,"523":0.7362260818481445,"524":-0.4768821895122528,"525":-0.8112554550170898,"526":-0.6919739246368408,"527":0.35372209548950195,"528":0.6442291140556335,"529":0.8123405575752258,"530":-0.5765798687934875,"531":0.07604750990867615,"532":0.5678356289863586,"533":-1.2860304117202759,"534":0.13333666324615479,"535":2.0311479568481445,"536":0.9915599226951599,"537":0.025724060833454132,"538":-0.9401371479034424,"539":-0.4245973527431488,"540":-2.2968318462371826,"541":-1.3356878757476807,"542":0.010263645090162754,"543":-0.2716524302959442,"544":0.10006408393383026,"545":0.13815824687480927,"546":0.962409257888794,"547":-0.41401979327201843,"548":-0.24483880400657654,"549":0.5145055055618286,"550":0.3632112741470337,"551":-0.03708213195204735,"552":-0.5072939991950989,"553":0.8660997748374939,"554":0.09836142510175705,"555":1.1666830778121948,"556":-0.6479185223579407,"557":0.07247451692819595,"558":-1.3116790056228638,"559":0.8553656935691833,"560":0.10346868634223938,"561":-0.4660218358039856,"562":-1.1838933229446411,"563":-1.3649283647537231,"564":1.487579107284546,"565":1.0512608289718628,"566":-1.3232920169830322,"567":-0.5794394612312317,"568":-1.59486985206604,"569":-0.8478456139564514,"570":0.7100545167922974,"571":0.9878183007240295,"572":0.7464346289634705,"573":0.7066162824630737,"574":0.6461882591247559,"575":1.0823476314544678,"576":1.0671566724777222,"577":-1.1373543739318848,"578":1.1595121622085571,"579":1.796877384185791,"580":-0.2882763743400574,"581":0.07324568182229996,"582":0.9025859236717224,"583":0.028666367754340172,"584":0.5272465944290161,"585":-0.9110310673713684,"586":1.070728063583374,"587":0.056268248707056046,"588":0.500175416469574,"589":0.41402557492256165,"590":-0.008600649423897266,"591":0.5206674933433533,"592":1.726576328277588,"593":1.154445767402649,"594":0.5298578143119812,"595":0.7099239826202393,"596":-0.27455735206604004,"597":-1.6973515748977661,"598":-1.1016266345977783,"599":1.4166244268417358,"600":0.2844684422016144,"601":1.668468952178955,"602":0.468517005443573,"603":0.7183154821395874,"604":-0.847021758556366,"605":-2.06614351272583,"606":-0.9748350977897644,"607":0.04093654826283455,"608":0.7025207281112671,"609":-0.523239254951477,"610":0.49100038409233093,"611":0.7549566626548767,"612":-0.6327985525131226,"613":-1.2590819597244263,"614":1.3682233095169067,"615":-1.0304112434387207,"616":1.4477882385253906,"617":-0.6071091294288635,"618":-0.9080385565757751,"619":-0.4277172386646271}},"outputHidden":{"rows":20,"columns":20,"weights":{"0":-0.03988126292824745,"1":-0.7330173850059509,"2":-1.4566707611083984,"3":0.37807604670524597,"4":0.20493993163108826,"5":0.7633042931556702,"6":-0.06678132712841034,"7":1.2832739353179932,"8":-0.2838592827320099,"9":0.5876345038414001,"10":-0.3949264585971832,"11":-0.554930567741394,"12":-0.06908946484327316,"13":0.37915635108947754,"14":0.562667727470398,"15":0.31044554710388184,"16":0.2962702512741089,"17":0.04136637970805168,"18":1.183737874031067,"19":1.3120379447937012,"20":1.2016088962554932,"21":-0.49472174048423767,"22":1.1134933233261108,"23":1.7762378454208374,"24":-0.030801651999354362,"25":0.4692341089248657,"26":0.6108406186103821,"27":-1.812386155128479,"28":-0.7556357979774475,"29":0.6050495505332947,"30":-0.6939272284507751,"31":-0.3098593056201935,"32":0.6601001024246216,"33":1.313993215560913,"34":0.912180483341217,"35":0.8476713299751282,"36":-1.2816059589385986,"37":0.2172306329011917,"38":0.08462689816951752,"39":0.1683388203382492,"40":-0.07382874190807343,"41":0.5449594855308533,"42":0.7819347381591797,"43":-0.058504004031419754,"44":-0.1985384225845337,"45":-1.787579894065857,"46":-0.22647681832313538,"47":-0.5766815543174744,"48":0.23327182233333588,"49":-0.786072850227356,"50":-0.019474413245916367,"51":-0.24989493191242218,"52":-0.06429161876440048,"53":-0.013511061668395996,"54":-0.4432038366794586,"55":0.6751713752746582,"56":0.022963741794228554,"57":-0.0698624700307846,"58":0.13612478971481323,"59":0.2759076654911041,"60":-0.5176374912261963,"61":0.18159708380699158,"62":-0.1098649874329567,"63":-1.2165234088897705,"64":-0.008033177815377712,"65":0.793312668800354,"66":-0.5719843506813049,"67":0.8268904089927673,"68":0.04810613766312599,"69":-0.2737610936164856,"70":-0.46032872796058655,"71":0.5621824860572815,"72":0.8641433715820312,"73":0.3604549765586853,"74":0.27770811319351196,"75":-1.684235692024231,"76":0.9064136147499084,"77":-0.6971334218978882,"78":-0.6831737160682678,"79":0.1281382143497467,"80":0.18639007210731506,"81":-0.12599843740463257,"82":-0.3290310800075531,"83":-0.32346341013908386,"84":0.4930821359157562,"85":0.49404966831207275,"86":-0.33410099148750305,"87":0.09446743130683899,"88":-0.5669806599617004,"89":0.08751894533634186,"90":0.7202101349830627,"91":-0.7243916392326355,"92":0.3153705894947052,"93":0.7141477465629578,"94":-0.27562108635902405,"95":0.043377771973609924,"96":-0.1514808088541031,"97":-0.5643684267997742,"98":0.5306221842765808,"99":2.150264024734497,"100":-1.041631817817688,"101":1.4747318029403687,"102":1.5997995138168335,"103":-1.0795668363571167,"104":-0.5699424147605896,"105":-0.001717678620480001,"106":0.04488486051559448,"107":-1.1554675102233887,"108":-0.2764218747615814,"109":0.20697423815727234,"110":0.4873144328594208,"111":-0.97834312915802,"112":-0.9444116353988647,"113":0.45700085163116455,"114":0.13959740102291107,"115":0.6065248847007751,"116":0.15720491111278534,"117":0.4748062789440155,"118":-1.9273022413253784,"119":-0.5187273025512695,"120":-0.8617377877235413,"121":0.42728352546691895,"122":-0.5341115593910217,"123":-1.1003268957138062,"124":-0.6027007102966309,"125":-0.21257668733596802,"126":-0.9529790282249451,"127":-1.100818157196045,"128":0.049848832190036774,"129":0.19553078711032867,"130":0.424215167760849,"131":-0.15217705070972443,"132":0.5419710874557495,"133":1.0781599283218384,"134":0.2191188782453537,"135":-0.7130309343338013,"136":1.9143390655517578,"137":-0.17188957333564758,"138":-0.04064778611063957,"139":-1.5050466060638428,"140":0.3922816514968872,"141":-0.7465354800224304,"142":-1.5938736200332642,"143":-0.5031623244285583,"144":-0.15731342136859894,"145":0.886055052280426,"146":0.1272822469472885,"147":1.2359187602996826,"148":-0.10267141461372375,"149":0.6482759714126587,"150":0.6563003063201904,"151":1.0465282201766968,"152":0.5566157102584839,"153":-0.06685452163219452,"154":0.18621975183486938,"155":-0.41249340772628784,"156":-0.6444417238235474,"157":0.35926368832588196,"158":-0.4545072615146637,"159":-0.6904019713401794,"160":2.0960094928741455,"161":0.4435155689716339,