{"type":"LSTM","options":{"inputSize":9,"inputRange":9,"hiddenLayers":[20,20],"outputSize":9,"decayRate":0.999,"smoothEps":1e-8,"regc":0.000001,"clipval":5,"maxPredictionLength":100,"dataFormatter":{"indexTable":{"0":5,"1":4,"3":3,"4":0,"6":2,"7":1,"stop-input":6,"start-output":7,"unrecognized":8},"characterTable":{"0":"4","1":"7","2":"6","3":"3","4":"1","5":"0","6":null,"7":null,"8":null},"values":["4763","1","4764","0"],"characters":["4","7","6","3","1","0","stop-input","start-output","unrecognized"],"specialIndexes":[6,7,8]}},"input":{"rows":10,"columns":9,"weights":{"0":0.2888830304145813,"1":-0.6764830946922302,"2":-1.1652374267578125,"3":0.3076421022415161,"4":-0.34294867515563965,"5":0.41965121030807495,"6":0.09288707375526428,"7":-0.4739537835121155,"8":-0.3800823986530304,"9":-0.6202304363250732,"10":-0.293893039226532,"11":0.5111362338066101,"12":0.8823815584182739,"13":0.44534870982170105,"14":-0.5231999158859253,"15":0.045237138867378235,"16":0.34411051869392395,"17":0.601128876209259,"18":-0.1772218495607376,"19":-1.0850375890731812,"20":0.29300302267074585,"21":0.7656636834144592,"22":-0.4034776985645294,"23":0.4959874749183655,"24":1.2298716306686401,"25":-0.5252101421356201,"26":0.5974565148353577,"27":-0.5314685106277466,"28":1.2014766931533813,"29":0.8537030220031738,"30":1.0334076881408691,"31":0.32508689165115356,"32":-0.37518399953842163,"33":-0.7894705533981323,"34":0.36920157074928284,"35":0.9152355790138245,"36":-0.2370975911617279,"37":0.4345400631427765,"38":0.1860506534576416,"39":0.16438302397727966,"40":-1.4464515447616577,"41":1.5197129249572754,"42":0.8589192032814026,"43":-1.3307033777236938,"44":-0.06152104586362839,"45":0.6453185081481934,"46":0.9436869621276855,"47":-0.4221193492412567,"48":-0.8157106637954712,"49":-0.3324504494667053,"50":0.34736472368240356,"51":-1.0576591491699219,"52":-0.3211674392223358,"53":-0.657220721244812,"54":1.2573186159133911,"55":0.5223622918128967,"56":-0.49985596537590027,"57":-1.6782289743423462,"58":0.296742707490921,"59":-0.8063750863075256,"60":-0.23919951915740967,"61":0.6780292391777039,"62":-1.400164008140564,"63":0.8817620873451233,"64":0.21502797305583954,"65":-0.6183252930641174,"66":-0.732922375202179,"67":-0.6865658760070801,"68":0.7226954102516174,"69":-0.21770714223384857,"70":-0.8044151663780212,"71":-0.7968058586120605,"72":-0.5478771924972534,"73":-0.20321622490882874,"74":0.5035773515701294,"75":0.820513129234314,"76":0.2502424120903015,"77":-0.2095351219177246,"78":0.31310784816741943,"79":0.16042998433113098,"80":0.7969022989273071,"81":-0.01163613423705101,"82":0.005151643883436918,"83":0.05757623538374901,"84":-0.004771414678543806,"85":-0.015561848878860474,"86":0.03520500287413597,"87":-0.0448484905064106,"88":-0.030070709064602852,"89":0.07068584859371185}},"hiddenLayers":[{"inputMatrix":{"rows":20,"columns":9,"weights":{"0":-0.7499087452888489,"1":0.7239576578140259,"2":1.113102912902832,"3":0.5162578225135803,"4":0.4446467161178589,"5":-0.5730292201042175,"6":-0.996696949005127,"7":0.6769844889640808,"8":0.7593398094177246,"9":0.7757943868637085,"10":0.7579384446144104,"11":-0.765749990940094,"12":-0.669588029384613,"13":-0.46719059348106384,"14":0.4605271518230438,"15":-0.7774220108985901,"16":-0.4530209004878998,"17":-0.9350069761276245,"18":-0.6161303520202637,"19":0.6146067380905151,"20":0.9703577756881714,"21":0.2967035174369812,"22":0.6870512366294861,"23":-0.7085449695587158,"24":-0.9530589580535889,"25":0.7838225364685059,"26":0.5492175221443176,"27":-0.26253175735473633,"28":0.7374932765960693,"29":0.9688596129417419,"30":0.1339501440525055,"31":0.5261269211769104,"32":-0.6256008148193359,"33":-0.9076852202415466,"34":0.5089078545570374,"35":0.08124412596225739,"36":-0.5892466306686401,"37":0.5816844701766968,"38":0.9812567234039307,"39":0.8720918297767639,"40":0.5596845746040344,"41":-0.6819896697998047,"42":-0.6361704468727112,"43":0.6723492741584778,"44":0.6351028680801392,"45":-0.2224501669406891,"46":1.0100303888320923,"47":0.6647700667381287,"48":-0.038104888051748276,"49":0.39596378803253174,"50":-0.48507410287857056,"51":-0.9719623923301697,"52":0.5887515544891357,"53":0.028147967532277107,"54":-0.5696105360984802,"55":0.8094085454940796,"56":1.0575997829437256,"57":0.43993666768074036,"58":0.5531290769577026,"59":-0.6077458262443542,"60":-0.9070470333099365,"61":0.6974776983261108,"62":0.5363423228263855,"63":0.5910772085189819,"64":-0.6782948970794678,"65":-0.997355580329895,"66":-0.2184208482503891,"67":-0.5866904258728027,"68":0.6760661602020264,"69":0.5076291561126709,"70":-0.8728179931640625,"71":-0.8505944013595581,"72":-0.7436689138412476,"73":0.7173960208892822,"74":1.2674615383148193,"75":0.5025704503059387,"76":0.6413536071777344,"77":-0.7061254382133484,"78":-0.8396827578544617,"79":0.6822928190231323,"80":0.9359498620033264,"81":-0.7623960971832275,"82":0.5434841513633728,"83":1.0146706104278564,"84":0.3223137855529785,"85":0.5239418745040894,"86":-0.550608217716217,"87":-0.8134887218475342,"88":0.716778576374054,"89":0.8892812728881836,"90":-0.6295808553695679,"91":0.7491216659545898,"92":1.216825008392334,"93":0.49493977427482605,"94":0.6199670433998108,"95":-0.7301359176635742,"96":-1.0644705295562744,"97":0.6787402033805847,"98":0.7812449336051941,"99":-0.6572211980819702,"100":0.5809986591339111,"101":1.0005364418029785,"102":0.41268688440322876,"103":0.6169694662094116,"104":-0.780673086643219,"105":-0.8477933406829834,"106":0.7118593454360962,"107":0.6658403277397156,"108":-0.7639727592468262,"109":0.638059139251709,"110":1.1892118453979492,"111":0.4662873446941376,"112":0.6520666480064392,"113":-0.686266303062439,"114":-0.7920213937759399,"115":0.7224562168121338,"116":0.8408165574073792,"117":-0.6721509695053101,"118":0.5985605120658875,"119":1.108166217803955,"120":0.3322431743144989,"121":0.5554783940315247,"122":-0.6610525250434875,"123":-0.8591205477714539,"124":0.7812138199806213,"125":0.7194700837135315,"126":-0.5956472754478455,"127":0.7019614577293396,"128":1.1087017059326172,"129":0.43314820528030396,"130":0.542754054069519,"131":-0.7560869455337524,"132":-0.9564701318740845,"133":0.6645512580871582,"134":0.7791411280632019,"135":-0.7815397381782532,"136":0.5468300580978394,"137":1.2606974840164185,"138":0.44115108251571655,"139":0.5999190211296082,"140":-0.6970177888870239,"141":-0.9179816842079163,"142":0.7832722663879395,"143":0.9298630356788635,"144":-0.66563880443573,"145":0.6935210227966309,"146":1.1465736627578735,"147":0.4383696913719177,"148":0.6206003427505493,"149":-0.7229682207107544,"150":-0.899681031703949,"151":0.7567753195762634,"152":0.8934537172317505,"153":0.1584382802248001,"154":-0.2923722565174103,"155":-0.21758928894996643,"156":-0.6220491528511047,"157":0.115101158618927,"158":-0.2470638006925583,"159":0.29080626368522644,"160":-0.19532574713230133,"161":-0.40250685811042786,"162":0.3611905574798584,"163":0.04189794510602951,"164":-1.0443894863128662,"165":-0.4506407678127289,"166":-0.17961058020591736,"167":-0.003122084541246295,"168":-0.49652063846588135,"169":-0.05717520788311958,"170":-0.931572437286377,"171":0.5113732218742371,"172":-1.0661983489990234,"173":-0.8980235457420349,"174":0.17400991916656494,"175":-0.33186906576156616,"176":0.4014887809753418,"177":0.8936480283737183,"178":-0.447898268699646,"179":-0.1878042072057724}},"inputHidden":{"rows":20,"columns":20,"weights":{"0":-0.1572985202074051,"1":0.5762327909469604,"2":0.31839719414711,"3":0.15916003286838531,"4":-0.12012762576341629,"5":-0.012050330638885498,"6":0.018617823719978333,"7":-0.30356189608573914,"8":0.00710657611489296,"9":0.15120308101177216,"10":-0.07905716449022293,"11":-0.11293165385723114,"12":-0.14918990433216095,"13":0.2086338847875595,"14":-0.053667549043893814,"15":-0.28400495648384094,"16":0.010977648198604584,"17":-0.0451507568359375,"18":0.04176928102970123,"19":-0.39333170652389526,"20":-0.03438121825456619,"21":0.47263163328170776,"22":0.09653638303279877,"23":0.2832118570804596,"24":0.15711985528469086,"25":-0.18167762458324432,"26":0.02283243089914322,"27":0.6263583898544312,"28":-0.03616912662982941,"29":-0.07278475165367126,"30":0.059745121747255325,"31":0.22389325499534607,"32":-0.25695088505744934,"33":-0.04223573952913284,"34":-0.015583907254040241,"35":-0.16089101135730743,"36":-0.018348127603530884,"37":-0.5137591361999512,"38":0.41503411531448364,"39":0.7148394584655762,"40":-0.23220376670360565,"41":0.6964989900588989,"42":0.30902498960494995,"43":-0.2808699905872345,"44":-0.45228439569473267,"45":0.10539481788873672,"46":-0.1503039002418518,"47":0.016032136976718903,"48":-0.13775016367435455,"49":-0.04388360306620598,"50":-0.12116587162017822,"51":-0.1991170346736908,"52":0.26372769474983215,"53":0.015901505947113037,"54":-0.05801943317055702,"55":0.20024241507053375,"56":-0.14487583935260773,"57":-0.3963968753814697,"58":-0.28979814052581787,"59":-0.02149268612265587,"60":0.3320483863353729,"61":-0.09307623654603958,"62":-0.42655929923057556,"63":0.27348217368125916,"64":0.4857209324836731,"65":-0.08882317692041397,"66":0.2499091923236847,"67":-0.27475786209106445,"68":0.4193679988384247,"69":-0.559381365776062,"70":0.2897149920463562,"71":0.4967944324016571,"72":-0.6269741058349609,"73":-0.5267428755760193,"74":0.5358119010925293,"75":-0.577393651008606,"76":0.3661904036998749,"77":0.1461106538772583,"78":0.22135592997074127,"79":-0.27898189425468445,"80":0.0078263645991683,"81":0.46457186341285706,"82":0.11937812715768814,"83":-0.11245454847812653,"84":-0.26433414220809937,"85":-0.05904276296496391,"86":0.08259429782629013,"87":0.09102335572242737,"88":0.1163131445646286,"89":-0.3068655729293823,"90":0.17936380207538605,"91":0.01247221790254116,"92":-0.16236533224582672,"93":-0.25807857513427734,"94":0.2618580460548401,"95":-0.03748262673616409,"96":0.13578248023986816,"97":-0.35949429869651794,"98":-0.1366683840751648,"99":-0.11178143322467804,"100":0.2728373110294342,"101":-0.18580277264118195,"102":-0.19947317242622375,"103":0.3597489595413208,"104":0.48905080556869507,"105":-0.2079443484544754,"106":0.3316650688648224,"107":-0.12067144364118576,"108":0.34848281741142273,"109":-0.49271345138549805,"110":0.4703856408596039,"111":0.5606988072395325,"112":-0.7916833162307739,"113":-0.4688054621219635,"114":0.608109176158905,"115":-0.7375306487083435,"116":0.3739396333694458,"117":0.17447906732559204,"118":0.2959314286708832,"119":-0.11614226549863815,"120":-0.10065198689699173,"121":0.42536789178848267,"122":0.056429002434015274,"123":0.03712114691734314,"124":0.04491627588868141,"125":0.011266689747571945,"126":0.06760246306657791,"127":-0.21864278614521027,"128":0.07124539464712143,"129":-0.1157379224896431,"130":0.06847629696130753,"131":0.10531751811504364,"132":-0.17810414731502533,"133":-0.07747553288936615,"134":0.130237877368927,"135":-0.1383674293756485,"136":-0.019523095339536667,"137":-0.0999014675617218,"138":0.038849666714668274,"139":-0.2090219408273697,"140":0.4171668291091919,"141":-0.18924939632415771,"142":-0.7788111567497253,"143":-0.0886673554778099,"144":0.7489700317382812,"145":-0.06439175456762314,"146":0.38257384300231934,"147":0.3272731304168701,"148":0.6317293047904968,"149":-0.716309130191803,"150":0.5727635025978088,"151":0.7548767924308777,"152":-0.7065929174423218,"153":-0.721687912940979,"154":0.7019966840744019,"155":-0.6933800578117371,"156":0.47328659892082214,"157":-0.34466758370399475,"158":-0.22727848589420319,"159":-0.09295202046632767,"160":-0.03204084932804108,"161":0.533359944820404,"162":0.1561332643032074,"163":0.04713084548711777,"164":-0.1392897516489029,"165":0.0021984311752021313,"166":0.00028457894222810864,"167":-0.17484700679779053,"168":0.0610831044614315,"169":-0.030319958925247192,"170":0.1716764122247696,"171":-0.13994455337524414,"172":-0.11348550766706467,"173":-0.06455034017562866,"174":0.18964537978172302,"175":-0.19961439073085785,"176":0.175924614071846,"177":-0.1077711284160614,"178":0.009469319134950638,"179":-0.22970347106456757,"180":-0.3852069079875946,"181":0.5417566895484924,"182":0.7148023843765259,"183":-0.36939382553100586,"184":-0.6973478198051453,"185":0.23503634333610535,"186":-0.5317951440811157,"187":-0.10214818269014359,"188":-0.4090788960456848,"189":0.32123053073883057,"190":-0.42091473937034607,"191":-0.5456522703170776,"192":0.4428893029689789,"193":0.45401573181152344,"194":-0.46428224444389343,"195":0.43837469816207886,"196":-0.4590519070625305,"197":-0.1719198226928711,"198":-0.1785222589969635,"199":-0.1266680508852005,"200":0.012596984393894672,"201":0.5421225428581238,"202":0.04502361640334129,"203":0.25272849202156067,"204":0.03225450590252876,"205":-0.08353443443775177,"206":0.05528256669640541,"207":-0.16032907366752625,"208":0.2746396064758301,"209":0.0400862880051136,"210":0.11441800743341446,"211":-0.02046474814414978,"212":-0.24758344888687134,"213":-0.10897190123796463,"214":0.26478269696235657,"215":-0.24590392410755157,"216":0.32289189100265503,"217":-0.0839054211974144,"218":0.013324514031410217,"219":-0.24071665108203888,"220":-0.04174637794494629,"221":0.5818125605583191,"222":0.07603228092193604,"223":-0.10971403867006302,"224":-0.07004788517951965,"225":0.043958887457847595,"226":-0.14924708008766174,"227":0.06185074895620346,"228":-0.020606398582458496,"229":0.0044046491384506226,"230":-0.04252391681075096,"231":-0.12830552458763123,"232":0.014199648052453995,"233":-0.005347381345927715,"234":-0.029074372723698616,"235":0.07801329344511032,"236":-0.00236662314273417,"237":-0.36413872241973877,"238":-0.2481517791748047,"239":-0.03557626157999039,"240":0.020250629633665085,"241":0.6253452897071838,"242":0.07624278962612152,"243":-0.0520392470061779,"244":-0.17623840272426605,"245":-0.0053316629491746426,"246":0.015233506448566914,"247":-0.045129045844078064,"248":0.11178982257843018,"249":-0.19737081229686737,"250":0.18560834228992462,"251":0.12988992035388947,"252":-0.14898477494716644,"253":-0.21668580174446106,"254":0.24363917112350464,"255":-0.21223030984401703,"256":0.13527637720108032,"257":-0.19805963337421417,"258":-0.17948739230632782,"259":-0.06849517673254013,"260":-0.4391910433769226,"261":0.7055689692497253,"262":0.6658161878585815,"263":-0.4298008978366852,"264":-0.7411937713623047,"265":0.3289165198802948,"266":-0.5000720024108887,"267":-0.16586703062057495,"268":-0.3797382116317749,"269":0.30339938402175903,"270":-0.29536327719688416,"271":-0.619487464427948,"272":0.5952502489089966,"273":0.3587101101875305,"274":-0.40187370777130127,"275":0.3737699091434479,"276":-0.3602035641670227,"277":-0.22261610627174377,"278":-0.2550686299800873,"279":-0.19081595540046692,"280":0.009550047107040882,"281":0.6048584580421448,"282":0.22930429875850677,"283":0.03258240967988968,"284":-0.31034496426582336,"285":0.0796666294336319,"286":-0.08813537657260895,"287":-0.15252147614955902,"288":-0.0021911198273301125,"289":0.16078360378742218,"290":0.1485268473625183,"291":-0.34495067596435547,"292":0.22117963433265686,"293":0.13918541371822357,"294":-0.10188435018062592,"295":0.053746894001960754,"296":0.07772014290094376,"297":-0.17069977521896362,"298":-0.05823710560798645,"299":-0.1775244027376175,"300":0.003176511963829398,"301":0.6002568006515503,"302":0.08482058346271515,"303":0.056534282863140106,"304":-0.1617010235786438,"305":0.030031440779566765,"306":0.02362501062452793,"307":-0.16876614093780518,"308":0.06063714250922203,"309":-0.22394077479839325,"310":0.06227051094174385,"311":0.07061391323804855,"312":-0.03761973977088928,"313":-0.21156185865402222,"314":0.2028084397315979,"315":-0.2690030038356781,"316":0.04401443153619766,"317":-0.24340516328811646,"318":-0.03998724743723869,"319":-0.20699994266033173,"320":-0.01297952514141798,"321":0.5739884972572327,"322":0.20051886141300201,"323":0.07675491273403168,"324":-0.169962540268898,"325":0.004326001740992069,"326":-0.07815665751695633,"327":-0.20991651713848114,"328":-0.014843235723674297,"329":-0.11271020025014877,"330":-0.005718613509088755,"331":-0.17818020284175873,"332":-0.17827951908111572,"333":-0.08986853808164597,"334":0.07856646925210953,"335":-0.20784881711006165,"336":-0.05132531002163887,"337":-0.1046181172132492,"338":-0.03857219219207764,"339":-0.08426270633935928,"340":0.733489453792572,"341":-0.4174865186214447,"342":-0.7241660952568054,"343":0.5881334543228149,"344":0.7464709281921387,"345":-0.621727705001831,"346":0.8187947869300842,"347":0.520526647567749,"348":0.6272966861724854,"349":-0.8562255501747131,"350":0.6515299677848816,"351":0.6667822003364563,"352":-0.7645581364631653,"353":-0.7205690741539001,"354":0.6213362812995911,"355":-0.7053202986717224,"356":0.7129923105239868,"357":-0.5806505084037781,"358":0.19168129563331604,"359":0.14898109436035156,"360":0.14699947834014893,"361":-0.009870567359030247,"362":-0.40275418758392334,"363":0.19693101942539215,"364":0.44762077927589417,"365":-0.24145610630512238,"366":0.14813636243343353,"367":0.16595672070980072,"368":0.3267851769924164,"369":-0.48164623975753784,"370":0.32890787720680237,"371":0.4457136392593384,"372":-0.4108054041862488,"373":-0.6113424301147461,"374":0.4080117642879486,"375":-0.36564901471138,"376":0.26925528049468994,"377":-0.2595907747745514,"378":0.3451502025127411,"379":-0.2639927268028259,"380":-0.30419763922691345,"381":0.399720162153244,"382":-0.3753443658351898,"383":-0.6641364097595215,"384":0.4141416549682617,"385":0.6249233484268188,"386":-0.42020663619041443,"387":-0.3267068564891815,"388":-0.37739041447639465,"389":-0.20586298406124115,"390":-0.1743042767047882,"391":-0.03645547106862068,"392":0.14167353510856628,"393":-0.1076035425066948,"394":0.06096270680427551,"395":0.37165847420692444,"396":-0.5860359072685242,"397":-0.38207104802131653,"398":-0.5741928219795227,"399":-1.1325005292892456}},"inputBias":{"rows":20,"columns":1,"weights":{"0":-0.5146862864494324,"1":0.11117503046989441,"2":-0.15680617094039917,"3":-0.44188278913497925,"4":-0.12234143167734146,"5":-0.5227453112602234,"6":-0.479962021112442,"7":0.13207358121871948,"8":-0.41879546642303467,"9":-0.2337457686662674,"10":-0.4516069293022156,"11":-0.3181236982345581,"12":-0.3486366271972656,"13":-0.29538363218307495,"14":-0.3872931897640228,"15":-0.38577330112457275,"16":-0.4764823913574219,"17":-0.7584018111228943,"18":0.15925754606723785,"19":0.4668940305709839}},"forgetMatrix":{"rows":20,"columns":9,"weights":{"0":0.10481119155883789,"1":-0.09188039600849152,"2":-0.026190243661403656,"3":0.38473615050315857,"4":-0.2597012519836426,"5":0.3361841142177582,"6":0.20568032562732697,"7":-0.1874401867389679,"8":0.4088696539402008,"9":0.21163973212242126,"10":-0.30429306626319885,"11":-0.04889938607811928,"12":0.30262258648872375,"13":-0.5795398950576782,"14":0.6476402282714844,"15":0.564724326133728,"16":-0.6561450958251953,"17":0.3379938304424286,"18":-0.9143936038017273,"19":0.2279074490070343,"20":0.7758963704109192,"21":0.5917690992355347,"22":-0.4066862463951111,"23":0.4349713921546936,"24":0.09250393509864807,"25":-0.2276127189397812,"26":0.9038606286048889,"27":-0.1980278193950653,"28":0.031373851001262665,"29":0.2628304362297058,"30":0.4317438006401062,"31":-0.1965496987104416,"32":0.2735748887062073,"33":0.0630035474896431,"34":-0.21063579618930817,"35":0.5233092904090881,"36":-0.8039912581443787,"37":0.023316575214266777,"38":0.5556768774986267,"39":0.5492995977401733,"40":-0.23726779222488403,"41":0.4369945526123047,"42":0.22297655045986176,"43":-0.19720867276191711,"44":0.7752248048782349,"45":-0.02506864443421364,"46":-0.18988662958145142,"47":0.2304108589887619,"48":0.3920081853866577,"49":-0.17316043376922607,"50":0.372759073972702,"51":0.2910612225532532,"52":-0.2732711136341095,"53":0.4253425896167755,"54":-0.0781201496720314,"55":0.02724526636302471,"56":0.261247456073761,"57":0.40573590993881226,"58":-0.2915775775909424,"59":0.4209212064743042,"60":0.18872113525867462,"61":-0.2748944163322449,"62":0.5706086754798889,"63":-1.1246681213378906,"64":0.06528626382350922,"65":0.727026641368866,"66":0.4241626262664795,"67":0.6527836918830872,"68":-0.7328062057495117,"69":-0.5822660326957703,"70":0.5740777254104614,"71":0.49544015526771545,"72":-0.19248947501182556,"73":0.14372318983078003,"74":0.29802268743515015,"75":0.3669372797012329,"76":-0.3442267179489136,"77":0.4621084928512573,"78":0.15799027681350708,"79":-0.19314835965633392,"80":0.4702146053314209,"81":-1.0550501346588135,"82":0.13849174976348877,"83":0.9967916011810303,"84":0.9074599742889404,"85":-0.32879093289375305,"86":0.41483786702156067,"87":0.14232251048088074,"88":-0.1737542301416397,"89":1.1213017702102661,"90":-0.38231807947158813,"91":0.21894966065883636,"92":0.3144833743572235,"93":0.29135560989379883,"94":-0.23118460178375244,"95":0.39538830518722534,"96":0.0510435625910759,"97":-0.28055962920188904,"98":0.5114951729774475,"99":-0.7279418706893921,"100":0.07155800610780716,"101":0.6199513673782349,"102":0.6193693280220032,"103":-0.3799944221973419,"104":0.5035478472709656,"105":0.1324969083070755,"106":-0.33335795998573303,"107":0.7944689393043518,"108":-0.5723853707313538,"109":0.13867758214473724,"110":0.6053653955459595,"111":0.5139531493186951,"112":-0.42923596501350403,"113":0.48684102296829224,"114":0.15295185148715973,"115":-0.22533603012561798,"116":0.6988771557807922,"117":-0.9610095024108887,"118":0.18174059689044952,"119":0.8747724890708923,"120":0.8158140778541565,"121":-0.29279735684394836,"122":0.382859468460083,"123":0.15499159693717957,"124":-0.19082292914390564,"125":1.0242810249328613,"126":-0.741675853729248,"127":0.25312700867652893,"128":0.692844808101654,"129":0.6254931092262268,"130":-0.32077160477638245,"131":0.5054863691329956,"132":0.12750640511512756,"133":-0.24627776443958282,"134":0.8521313071250916,"135":-0.681904137134552,"136":0.1880667507648468,"137":0.5308930277824402,"138":0.6046679019927979,"139":-0.3465536832809448,"140":0.5442873239517212,"141":0.2274124175310135,"142":-0.2545965313911438,"143":0.7801808714866638,"144":-0.3253745138645172,"145":0.06694361567497253,"146":0.43641749024391174,"147":0.36854711174964905,"148":-0.322664350271225,"149":0.38993164896965027,"150":0.1405775398015976,"151":-0.2623271346092224,"152":0.5342361330986023,"153":0.07996107637882233,"154":0.2652152478694916,"155":-0.25533008575439453,"156":-0.21254350244998932,"157":0.1513337790966034,"158":-0.3001974821090698,"159":-0.3569209575653076,"160":0.18395188450813293,"161":-0.27763956785202026,"162":-0.015191965736448765,"163":-0.18134310841560364,"164":0.24106787145137787,"165":0.47175294160842896,"166":-0.19103674590587616,"167":0.22841154038906097,"168":0.22388508915901184,"169":-0.1808989942073822,"170":0.6112297773361206,"171":-0.9475026726722717,"172":0.26249852776527405,"173":0.48205599188804626,"174":0.238984152674675,"175":1.0833919048309326,"176":-1.2248547077178955,"177":-0.30885154008865356,"178":1.0005730390548706,"179":0.18633975088596344}},"forgetHidden":{"rows":20,"columns":20,"weights":{"0":-0.34763190150260925,"1":0.25039783120155334,"2":0.2568522095680237,"3":-0.32703664898872375,"4":-0.36527881026268005,"5":0.3251740038394928,"6":-0.36459994316101074,"7":0.3958069682121277,"8":-0.30123817920684814,"9":0.3408524692058563,"10":-0.3105466067790985,"11":-0.24753279983997345,"12":0.39284998178482056,"13":0.23052476346492767,"14":-0.38354572653770447,"15":0.3192290663719177,"16":-0.21740925312042236,"17":-0.2764878571033478,"18":-0.2477983683347702,"19":0.40787339210510254,"20":0.05914077162742615,"21":0.725027322769165,"22":-0.07041925191879272,"23":-0.09332562983036041,"24":-0.022870983928442,"25":0.025914356112480164,"26":0.13897833228111267,"27":0.4508146643638611,"28":0.052900657057762146,"29":-0.2695758044719696,"30":0.03222286328673363,"31":0.04424532875418663,"32":-0.04066142067313194,"33":-0.09120126813650131,"34":0.0713096484541893,"35":-0.03088204190135002,"36":0.16049760580062866,"37":-0.6274087429046631,"38":-0.34167784452438354,"39":0.15590572357177734,"40":0.00008160685683833435,"41":0.1164887472987175,"42":-0.026107333600521088,"43":0.16908982396125793,"44":0.12112557142972946,"45":0.040631260722875595,"46":0.04581518471240997,"47":0.50743168592453,"48":0.15565556287765503,"49":-0.03546889126300812,"50":0.07957608252763748,"51":0.0732467770576477,"52":-0.09835809469223022,"53":-0.08215110749006271,"54":0.06523769348859787,"55":-0.11562053114175797,"56":0.1722831279039383,"57":-0.1661389172077179,"58":-0.07310575246810913,"59":0.4666573703289032,"60":-0.4187844395637512,"61":0.43555736541748047,"62":0.4323805868625641,"63":-0.3728472888469696,"64":-0.33843857049942017,"65":0.3341873288154602,"66":-0.3767600953578949,"67":0.14440864324569702,"68":-0.3623946011066437,"69":0.3993687629699707,"70":-0.3559650182723999,"71":-0.3482702374458313,"72":0.4174599051475525,"73":0.4273567795753479,"74":-0.4522117078304291,"75":0.380270779132843,"76":-0.3063168525695801,"77":-0.26343926787376404,"78":-0.247848242521286,"79":0.4349234402179718,"80":0.1298668384552002,"81":-0.17962487041950226,"82":-0.07408516108989716,"83":0.21749238669872284,"84":0.030280018225312233,"85":-0.15460623800754547,"86":0.14325086772441864,"87":0.3761780858039856,"88":0.15198490023612976,"89":-0.03523222357034683,"90":0.08689221739768982,"91":0.1632681041955948,"92":-0.06520240753889084,"93":-0.036745402961969376,"94":0.17583143711090088,"95":-0.10132543742656708,"96":0.2330344170331955,"97":-0.1705584079027176,"98":0.050926513969898224,"99":0.17769648134708405,"100":-0.33453169465065,"101":0.2672082483768463,"102":0.3614491820335388,"103":-0.32768428325653076,"104":-0.22096195816993713,"105":0.24020718038082123,"106":-0.26490262150764465,"107":0.18406760692596436,"108":-0.35776183009147644,"109":0.37840327620506287,"110":-0.29422733187675476,"111":-0.3237607181072235,"112":0.28284701704978943,"113":0.334402471780777,"114":-0.3967977464199066,"115":0.38934504985809326,"116":-0.2571747601032257,"117":-0.22947365045547485,"118":-0.3163215219974518,"119":0.2597349286079407,"120":-0.2428392618894577,"121":0.23134738206863403,"122":0.40291815996170044,"123":-0.3190791606903076,"124":-0.2832675278186798,"125":0.2152331918478012,"126":-0.29079562425613403,"127":0.350574791431427,"128":-0.32241490483283997,"129":0.37309762835502625,"130":-0.24658197164535522,"131":-0.2798113524913788,"132":0.3035729229450226,"133":0.3138408958911896,"134":-0.4193325936794281,"135":0.28043171763420105,"136":-0.2197515219449997,"137":-0.2603718340396881,"138":-0.3364401161670685,"139":0.3344888985157013,"140":0.44612178206443787,"141":0.5669965744018555,"142":-0.44660666584968567,"143":0.5515881180763245,"144":0.7011167407035828,"145":-0.4588673412799835,"146":0.3529375195503235,"147":-0.010987943038344383,"148":0.5843311548233032,"149":-0.7718954086303711,"150":0.6827199459075928,"151":0.7891330122947693,"152":-0.6899675130844116,"153":-0.8397611975669861,"154":0.5020871758460999,"155":-0.609881579875946,"156":0.65407794713974,"157":-0.0832153707742691,"158":0.44078966975212097,"159":0.0804133266210556,"160":-0.355496883392334,"161":0.1307753324508667,"162":0.26062601804733276,"163":-0.31500205397605896,"164":-0.23687343299388885,"165":0.30609986186027527,"166":-0.31227004528045654,"167":0.32075539231300354,"168":-0.29651275277137756,"169":0.27128395438194275,"170":-0.3742130994796753,"171":-0.2528027892112732,"172":0.3623763620853424,"173":0.28696227073669434,"174":-0.34822314977645874,"175":0.275028258562088,"176":-0.244374617934227,"177":-0.3504692018032074,"178":-0.18924392759799957,"179":0.3245396018028259,"180":0.2103864699602127,"181":-0.05920800566673279,"182":-0.35832643508911133,"183":0.29300785064697266,"184":0.35582298040390015,"185":-0.18381917476654053,"186":0.3728819787502289,"187":0.4574950039386749,"188":0.41210541129112244,"189":-0.3328511714935303,"190":0.29399532079696655,"191":0.41371774673461914,"192":-0.29177525639533997,"193":-0.29956361651420593,"194":0.2733546197414398,"195":-0.3294541537761688,"196":0.386178582906723,"197":-0.20825831592082977,"198":-0.1563721001148224,"199":0.23706486821174622,"200":-0.29169535636901855,"201":0.2151184231042862,"202":0.2768375277519226,"203":-0.2673167884349823,"204":-0.24348220229148865,"205":0.29737603664398193,"206":-0.3755608797073364,"207":0.2749388515949249,"208":-0.4201466143131256,"209":0.34380316734313965,"210":-0.38836669921875,"211":-0.3349750339984894,"212":0.2806466817855835,"213":0.3729751408100128,"214":-0.3818055987358093,"215":0.40464624762535095,"216":-0.22561238706111908,"217":-0.29235222935676575,"218":-0.2117142230272293,"219":0.3169953525066376,"220":-0.11444975435733795,"221":0.0814986601471901,"222":-0.03305668383836746,"223":-0.0862598568201065,"224":-0.06434185802936554,"225":0.09158266335725784,"226":0.004709126427769661,"227":0.5707329511642456,"228":-0.07301697880029678,"229":-0.04319217801094055,"230":-0.14470647275447845,"231":0.04619244486093521,"232":-0.04676797613501549,"233":0.08679848164319992,"234":0.0257117860019207,"235":-0.006636863108724356,"236":-0.05116052180528641,"237":-0.27077820897102356,"238":-0.12302457541227341,"239":0.33098074793815613,"240":-0.032500073313713074,"241":-0.012005932629108429,"242":-0.008064712397754192,"243":0.052802298218011856,"244":0.08917836099863052,"245":0.0037287988234311342,"246":-0.017330557107925415,"247":0.4065248668193817,"248":-0.021853379905223846,"249":-0.07204096019268036,"250":-0.10707361996173859,"251":0.03577854484319687,"252":-0.02532370574772358,"253":-0.132372185587883,"254":0.09015371650457382,"255":0.016907615587115288,"256":0.022409621626138687,"257":-0.212974414229393,"258":-0.10612916946411133,"259":0.33942359685897827,"260":0.35870152711868286,"261":0.06971870362758636,"262":-0.35247713327407837,"263":0.32428932189941406,"264":0.2536175847053528,"265":-0.23050522804260254,"266":0.42647597193717957,"267":0.5084644556045532,"268":0.3896164298057556,"269":-0.3662194013595581,"270":0.336819052696228,"271":0.353010356426239,"272":-0.26076433062553406,"273":-0.43542858958244324,"274":0.3863378167152405,"275":-0.2938438653945923,"276":0.4998437464237213,"277":-0.2699699103832245,"278":-0.08371280133724213,"279":0.36969685554504395,"280":-0.02017897367477417,"281":0.0749887153506279,"282":-0.05673776566982269,"283":0.11006686091423035,"284":0.08786530792713165,"285":-0.05663318932056427,"286":0.0650104209780693,"287":0.4544884264469147,"288":0.11046872287988663,"289":-0.17732129991054535,"290":0.007218718994408846,"291":0.20778746902942657,"292":-0.0715603306889534,"293":-0.21688039600849152,"294":0.14454318583011627,"295":-0.18042385578155518,"296":0.15604451298713684,"297":-0.3734499216079712,"298":-0.21105769276618958,"299":0.319936066865921,"300":-0.03485775366425514,"301":-0.006587130017578602,"302":-0.09316191077232361,"303":-0.033865198493003845,"304":0.04885812848806381,"305":0.03717226907610893,"306":0.09850532561540604,"307":0.3625219464302063,"308":0.01850772090256214,"309":-0.07304482161998749,"310":-0.042631834745407104,"311":0.1226457804441452,"312":-0.10081797093153,"313":-0.12102492153644562,"314":0.07162416726350784,"315":-0.10284632444381714,"316":0.003951165359467268,"317":-0.29095667600631714,"318":-0.18359079957008362,"319":0.3431091010570526,"320":-0.2538873255252838,"321":0.1412520706653595,"322":0.15093237161636353,"323":-0.0955028310418129,"324":-0.1919284164905548,"325":0.19355404376983643,"326":-0.17431621253490448,"327":0.30357834696769714,"328":-0.2224063128232956,"329":0.1504591405391693,"330":-0.23562848567962646,"331":-0.18938077986240387,"332":0.16707004606723785,"333":0.0838085487484932,"334":-0.19194547832012177,"335":0.2596026062965393,"336":-0.15723663568496704,"337":-0.29674845933914185,"338":-0.2757742404937744,"339":0.3723532259464264,"340":0.057269494980573654,"341":0.34641027450561523,"342":-0.3239046335220337,"343":0.3177572190761566,"344":0.22449412941932678,"345":-0.062435444444417953,"346":0.0814002975821495,"347":0.523497462272644,"348":0.27157577872276306,"349":-0.669366717338562,"350":0.2892250120639801,"351":0.5195157527923584,"352":-0.4044221043586731,"353":-0.6169652342796326,"354":0.152883380651474,"355":-0.46010294556617737,"356":0.3688419759273529,"357":-0.27348941564559937,"358":0.37402859330177307,"359":0.37488794326782227,"360":-0.37053149938583374,"361":0.4428785443305969,"362":0.38981014490127563,"363":-0.2707010507583618,"364":-0.41359594464302063,"365":0.32539987564086914,"366":-0.2423655390739441,"367":0.11073943972587585,"368":-0.248565211892128,"369":0.4369681477546692,"370":-0.4149702191352844,"371":-0.2970065176486969,"372":0.43159306049346924,"373":0.3867228329181671,"374":-0.3757479190826416,"375":0.30672383308410645,"376":-0.23970268666744232,"377":-0.12887035310268402,"378":-0.35738396644592285,"379":0.3229924738407135,"380":-0.05090794712305069,"381":0.8372530937194824,"382":0.22117291390895844,"383":0.28429409861564636,"384":0.03741893917322159,"385":-0.20560353994369507,"386":-0.12388554960489273,"387":0.5641863942146301,"388":-0.015229971148073673,"389":0.18529576063156128,"390":0.05187691003084183,"391":0.12379664927721024,"392":-0.09235989302396774,"393":0.21195532381534576,"394":-0.17105522751808167,"395":-0.015071595087647438,"396":0.0037699437234550714,"397":-0.938262403011322,"398":0.25185784697532654,"399":0.6448508501052856}},"forgetBias":{"rows":20,"columns":1,"weights":{"0":0,"1":0,"2":0,"3":0,"4":0,"5":0,"6":0,"7":0,"8":0,"9":0,"10":0,"11":0,"12":0,"13":0,"14":0,"15":0,"16":0,"17":0,"18":0,"19":0}},"outputMatrix":{"rows":20,"columns":9,"weights":{"0":-0.714899480342865,"1":0.819162905216217,"2":1.1301709413528442,"3":0.45870792865753174,"4":0.459926575422287,"5":-0.6480095386505127,"6":-1.0883209705352783,"7":0.7687982320785522,"8":0.9566351175308228,"9":1.0218101739883423,"10":0.7984658479690552,"11":-1.1647449731826782,"12":-1.349384069442749,"13":-0.465901255607605,"14":0.649734616279602,"15":-0.6443303823471069,"16":-0.5322864055633545,"17":-1.404836893081665,"18":-0.4685705602169037,"19":0.7654637694358826,"20":0.8046092391014099,"21":0.8121959567070007,"22":0.7300316095352173,"23":-0.7649558782577515,"24":-1.0070044994354248,"25":0.9047194719314575,"26":0.6793445944786072,"27":0.2887871265411377,"28":1.0845153331756592,"29":0.6794673204421997,"30":-0.5831524729728699,"31":0.5134566426277161,"32":-0.6396021842956543,"33":-1.618597388267517,"34":0.7928886413574219,"35":-0.5225938558578491,"36":-0.4509084224700928,"37":0.6963679790496826,"38":0.891395628452301,"39":0.8804944157600403,"40":0.7067022919654846,"41":-0.7849778532981873,"42":-0.8928017020225525,"43":0.8834465742111206,"44":0.67487633228302,"45":0.42411091923713684,"46":1.5417702198028564,"47":0.35061636567115784,"48":-0.6311644911766052,"49":0.26592135429382324,"50":-0.412789911031723,"51":-1.7057172060012817,"52":0.6844220161437988,"53":-0.5118671655654907,"54":-0.39195239543914795,"55":0.900349497795105,"56":0.7578318119049072,"57":0.3685050904750824,"58":0.4864214360713959,"59":-0.6353579163551331,"60":-1.2263990640640259,"61":0.7949085831642151,"62":0.598055362701416,"63":0.09550900757312775,"64":-0.7129232883453369,"65":-0.6369760632514954,"66":0.703787624835968,"67":-0.41554656624794006,"68":0.539810061454773,"69":0.5661126375198364,"70":-0.7224245071411133,"71":-0.17145812511444092,"72":-0.6919361352920532,"73":0.8695248365402222,"74":1.1452525854110718,"75":0.5910153388977051,"76":0.6836467981338501,"77":-0.7937722206115723,"78":-1.136778712272644,"79":0.7547836899757385,"80":0.9430684447288513,"81":-0.5946974754333496,"82":0.6990248560905457,"83":0.9267913699150085,"84":0.6092814207077026,"85":1.3726532459259033,"86":-1.3367376327514648,"87":-1.2345237731933594,"88":1.374230980873108,"89":0.8302261233329773,"90":-0.4626726806163788,"91":0.944677472114563,"92":1.1252617835998535,"93":0.43434733152389526,"94":0.685942530632019,"95":-0.8237282633781433,"96":-1.2598803043365479,"97":0.8861603140830994,"98":0.8447260856628418,"99":-0.44296470284461975,"100":0.7450265288352966,"101":0.7763769626617432,"102":0.7486281394958496,"103":0.8448194265365601,"104":-0.7430472373962402,"105":-0.9676688313484192,"106":0.8857936859130859,"107":0.7224173545837402,"108":-0.531149685382843,"109":0.8137655258178711,"110":0.8910759687423706,"111":0.8600039482116699,"112":0.7448592185974121,"113":-0.7663447856903076,"114":-1.052239179611206,"115":0.8920275568962097,"116":0.7768498063087463,"117":-0.6552405953407288,"118":0.6096199154853821,"119":0.9838888049125671,"120":0.9237684011459351,"121":1.3455944061279297,"122":-1.3334131240844727,"123":-1.2102910280227661,"124":1.245941162109375,"125":0.7739982604980469,"126":-0.4712026119232178,"127":0.8408019542694092,"128":1.0022715330123901,"129":0.6258990168571472,"130":0.6604223847389221,"131":-0.8331448435783386,"132":-1.1680229902267456,"133":0.8426876664161682,"134":0.854198694229126,"135":-0.6092097163200378,"136":0.8469928503036499,"137":1.1202104091644287,"138":0.5669718384742737,"139":0.7770805358886719,"140":-0.8054396510124207,"141":-1.1751933097839355,"142":0.8300807476043701,"143":0.8733834624290466,"144":-0.7398251295089722,"145":0.8528569340705872,"146":1.1254148483276367,"147":0.5063353180885315,"148":0.7032550573348999,"149":-0.8180587291717529,"150":-1.0846316814422607,"151":0.8132074475288391,"152":0.9322088360786438,"153":0.4872099459171295,"154":-0.3998873829841614,"155":-0.4494432210922241,"156":-0.9090728759765625,"157":0.297507643699646,"158":-0.30439794063568115,"159":0.5635003447532654,"160":-0.05230320245027542,"161":-0.7269349098205566,"162":1.1956008672714233,"163":0.48867174983024597,"164":-1.4165763854980469,"165":-0.9232612252235413,"166":-0.02397208660840988,"167":-0.004663480445742607,"168":-1.0750921964645386,"169":0.08074060082435608,"170":-1.268852949142456,"171":-0.15631768107414246,"172":-0.7356345653533936,"173":-0.12907244265079498,"174":0.5388360023498535,"175":0.10873336344957352,"176":0.058188699185848236,"177":0.6349197626113892,"178":-0.2932594418525696,"179":0.22300860285758972}},"outputHidden":{"rows":20,"columns":20,"weights":{"0":-0.2873162031173706,"1":0.909821093082428,"2":0.5153441429138184,"3":-0.08619125932455063,"4":-0.4534391760826111,"5":0.180170476436615,"6":-0.45859241485595703,"7":-0.3450031578540802,"8":-0.5031059980392456,"9":0.4585914611816406,"10":-0.3685320317745209,"11":-0.47089746594429016,"12":0.3049476444721222,"13":0.5308214426040649,"14":-0.5010262727737427,"15":0.24734963476657867,"16":-0.22710220515727997,"17":0.04843096435070038,"18":0.029603609815239906,"19":-0.24461936950683594,"20":-0.08137346059083939,"21":0.8981886506080627,"22":0.09899668395519257,"23":0.03039463795721531,"24":-0.058723852038383484,"25":-0.08538493514060974,"26":0.0668717473745346,"27":0.8008029460906982,"28":-0.17271995544433594,"29":0.032952018082141876,"30":0.07262210547924042,"31":0.1370949000120163,"32":-0.10557591915130615,"33":0.09847791492938995,"34":0.044353097677230835,"35":0.07740748673677444,"36":-0.00865420512855053,"37":-0.7428221106529236,"38":-0.2324591428041458,"39":1.2831642627716064,"40":-0.21360309422016144,"41":0.822611391544342,"42":0.5983462929725647,"43":-0.11106652021408081,"44":-0.5656484961509705,"45":0.12294404208660126,"46":-0.13919618725776672,"47":0.1508614420890808,"48":-0.2913878560066223,"49":0.30943721532821655,"50":-0.2540207803249359,"51":-0.3145589232444763,"52":0.34699690341949463,"53":0.3978324830532074,"54":-0.19323375821113586,"55":0.20914411544799805,"56":-0.09386543184518814,"57":-0.3408045172691345,"58":-0.40473371744155884,"59":-0.059434182941913605,"60":-0.12001579254865646,"61":0.34124860167503357,"62":0.17515209317207336,"63":0.04664670675992966,"64":-0.21319979429244995,"65":0.21943768858909607,"66":-0.05466346815228462,"67":-0.30009299516677856,"68":0.03312169015407562,"69":0.10673972219228745,"70":-0.023818938061594963,"71":-0.17056593298912048,"72":0.05338960140943527,"73":0.0009573667193762958,"74":-0.06071190908551216,"75":-0.1718250811100006,"76":0.04702093079686165,"77":-0.03178125619888306,"78":0.2844015955924988,"79":-0.1701711267232895,"80":-0.2909974455833435,"81":0.6290796995162964,"82":0.49704620242118835,"83":-0.4309433400630951,"84":-0.7287107110023499,"85":0.2815214693546295,"86":-0.3120131194591522,"87":0.143620103597641,"88":-0.36416909098625183,"89":0.20893174409866333,"90":-0.3102654218673706,"91":-0.38482579588890076,"92":0.4325973689556122,"93":0.22761328518390656,"94":-0.38870614767074585,"95":0.3393394947052002,"96":-0.18513382971286774,"97":-0.45289361476898193,"98":-0.39029085636138916,"99":-0.01479382161051035,"100":0.009055481292307377,"101":-0.12708401679992676,"102":0.08841843158006668,"103":0.40714380145072937,"104":-0.05042644217610359,"105":0.09884592890739441,"106":0.115059494972229,"107":0.05622794106602669,"108":0.05576230585575104,"109":0.1904362142086029,"110":0.07401995360851288,"111":-0.18447594344615936,"112":-0.02192259021103382,"113":-0.03462660312652588,"114":-0.08823690563440323,"115":-0.11948566883802414,"116":0.30164119601249695,"117":-0.0378856435418129,"118":0.4138554334640503,"119":0.2602728307247162,"120":-0.40147849917411804,"121":0.615048348903656,"122":0.6733343005180359,"123":-0.2841074466705322,"124":-0.37277984619140625,"125":0.3690427541732788,"126":-0.41338661313056946,"127":-0.29249700903892517,"128":-0.2719767689704895,"129":0.2934887409210205,"130":-0.28946441411972046,"131":-0.33690011501312256,"132":0.32895419001579285,"133":0.254077285528183,"134":-0.35805806517601013,"135":0.21056528389453888,"136":-0.17628996074199677,"137":-0.036314256489276886,"138":-0.12065301835536957,"139":-0.3150137960910797,"140":0.6324965953826904,"141":0.8291487693786621,"142":-0.7128069996833801,"143":0.2751842439174652,"144":0.7261971235275269,"145":-0.44832587242126465,"146":0.5494369268417358,"147":0.8020404577255249,"148":0.6028953194618225,"149":-0.862074613571167,"150":0.6360951662063599,"151":0.7379750609397888,"152":-0.7160937786102295,"153":-0.768513560295105,"154":0.6695359945297241,"155":-0.6724547147750854,"156":0.5695040822029114,"157":-1.241905689239502,"158":-0.4280094802379608,"159":-0.1942366361618042,"160":-0.272870272397995,"161":0.8147929310798645,"162":0.5141726732254028,"163":-0.32304224371910095,"164":-0.6006435751914978,"165":0.21719174087047577,"166":-0.3338016867637634,"167":-0.18182183802127838,"168":-0.4992101192474365,"169":0.6207602620124817,"170":-0.5233486294746399,"171":-0.6446362733840942,"172":0.6558179259300232,"173":0.5048180818557739,"174":-0.6546435952186584,"175":0.5842740535736084,"176":-0.3545477092266083,"177":-0.17624720931053162,"178":-0.2506844401359558,"179":-0.24367356300354004,"180":0.4049488306045532,"181":0.5223607420921326,"182":0.1604756861925125,"183":0.28362852334976196,"184":-0.18210676312446594,"185":-0.20349830389022827,"186":0.26328322291374207,"187":0.05867255851626396,"188":0.13435418903827667,"189":-0.021129895001649857,"190":0.23470118641853333,"191":0.11882568895816803,"192":-0.06696297228336334,"193":0.016619421541690826,"194":0.17649705708026886,"195":-0.11992576718330383,"196":0.2869189381599426,"197":-0.20020610094070435,"198":-0.29594552516937256,"199":-0.0011027040891349316,"200":-0.4738050103187561,"201":0.8664699792861938,"202":0.4606400728225708,"203":-0.07672072947025299,"204":-0.29134172201156616,"205":0.3244003653526306,"206":-0.5035567879676819,"207":-0.31179216504096985,"208":-0.5890489816665649,"209":0.5173074007034302,"210":-0.5508190393447876,"211":-0.3782724440097809,"212":0.32432785630226135,"213":0.5363835096359253,"214":-0.4050060212612152,"215":0.33996376395225525,"216":-0.3191448152065277,"217":-0.08234257251024246,"218":-0.019353553652763367,"219":-0.13336412608623505,"220":-0.3076624274253845,"221":0.7609506845474243,"222":0.5527652502059937,"223":-0.27969104051589966,"224":-0.5791902542114258,"225":0.3053703308105469,"226":-0.38708826899528503,"227":0.053819555789232254,"228":-0.3145214021205902,"229":0.29488515853881836,"230":-0.32533055543899536,"231":-0.4328814446926117,"232":0.47767966985702515,"233":0.30335021018981934,"234":-0.38687339425086975,"235":0.33685633540153503,"236":-0.2809421718120575,"237":-0.3797781467437744,"238":-0.3356449007987976,"239":0.10420920699834824,"240":-0.2349744588136673,"241":0.7808471918106079,"242":0.7049331665039062,"243":-0.39293521642684937,"244":-0.8026803731918335,"245":0.1822478026151657,"246":-0.2424238920211792,"247":0.02767675183713436,"248":-0.26053285598754883,"249":0.31755971908569336,"250":-0.30226314067840576,"251":-0.3882477879524231,"252":0.4761578440666199,"253":0.2672789394855499,"254":-0.3800804615020752,"255":0.2513710558414459,"256":-0.2464725524187088,"257":-0.3631609082221985,"258":-0.24887476861476898,"259":-0.02370537258684635,"260":0.49803581833839417,"261":0.6689408421516418,"262":0.39511987566947937,"263":0.393702894449234,"264":-0.18416370451450348,"265":-0.3528991639614105,"266":0.49716126918792725,"267":-0.12219215929508209,"268":0.26798877120018005,"269":-0.010561617091298103,"270":0.2928161025047302,"271":-0.014345035888254642,"272":-0.06412330269813538,"273":-0.016539866104722023,"274":0.16567037999629974,"275":-0.26170629262924194,"276":0.3341861367225647,"277":-0.0993904173374176,"278":-0.2882048785686493,"279":-0.17155227065086365,"280":-0.10006824880838394,"281":0.6946543455123901,"282":0.5075673460960388,"283":-0.047157466411590576,"284":-0.5994314551353455,"285":0.04319806396961212,"286":-0.03814850375056267,"287":-0.058100517839193344,"288":-0.19706901907920837,"289":0.21022218465805054,"290":-0.14152520895004272,"291":-0.671245276927948,"292":0.4596509039402008,"293":0.24759070575237274,"294":-0.1849576234817505,"295":0.298628032207489,"296":0.005535006523132324,"297":-0.16582557559013367,"298":-0.2106245458126068,"299":-0.10183645784854889,"300":-0.21569320559501648,"301":0.7595301866531372,"302":0.5495567917823792,"303":-0.3023239076137543,"304":-0.7012009620666504,"305":0.294708251953125,"306":-0.2982047200202942,"307":-0.10616683214902878,"308":-0.24202370643615723,"309":0.28155750036239624,"310":-0.28698277473449707,"311":-0.6924973726272583,"312":0.46016183495521545,"313":0.37982305884361267,"314":-0.26084014773368835,"315":0.27584782242774963,"316":-0.17522458732128143,"317":-0.3044874966144562,"318":-0.29584386944770813,"319":-0.14204588532447815,"320":-0.3328145146369934,"321":0.6640389561653137,"322":0.6989381313323975,"323":-0.20143385231494904,"324":-0.7093866467475891,"325":0.16443760693073273,"326":-0.20884476602077484,"327":-0.21411164104938507,"328":-0.34668487310409546,"329":0.42920902371406555,"330":-0.26321399211883545,"331":-0.7045249342918396,"332":0.6232976317405701,"333":0.46842774748802185,"334":-0.45529723167419434,"335":0.5082764029502869,"336":-0.34602421522140503,"337":-0.026211466640233994,"338":-0.05122159793972969,"339":-0.05656879395246506,"340":0.8072731494903564,"341":-0.6703596115112305,"342":-0.8449482917785645,"343":0.5113664269447327,"344":0.7209567427635193,"345":-0.5746313333511353,"346":0.9079839587211609,"347":0.5046055316925049,"348":0.6248050928115845,"349":-1.0216013193130493,"350":0.7925904393196106,"351":0.8643031120300293,"352":-0.8070194721221924,"353":-0.8699310421943665,"354":0.8296077847480774,"355":-0.6660266518592834,"356":0.5950350165367126,"357":-0.3473510444164276,"358":0.2882446348667145,"359":-0.2269974946975708,"360":-0.21353191137313843,"361":0.5368148684501648,"362":0.17493832111358643,"363":-0.05672277882695198,"364":-0.17408311367034912,"365":0.25240403413772583,"366":-0.17089718580245972,"367":-0.05552997812628746,"368":-0.14518068730831146,"369":0.16284486651420593,"370":-0.17627902328968048,"371":-0.05880554020404816,"372":-0.05094965174794197,"373":0.007463462185114622,"374":-0.07534940540790558,"375":0.0706452950835228,"376":-0.06315930187702179,"377":-0.03896767273545265,"378":0.1170022264122963,"379":-0.19703200459480286,"380":-0.12689338624477386,"381":1.665055274963379,"382":-0.13833729922771454,"383":-0.6475621461868286,"384":0.22715377807617188,"385":0.7147405743598938,"386":-0.3525560200214386,"387":0.01982426457107067,"388":-0.2921299338340759,"389":-0.2840593159198761,"390":-0.03351621329784393,"391":0.034237537533044815,"392":0.1572379320859909,"393":-0.2752540111541748,"394":0.15115423500537872,"395":0.30629271268844604,"396":-0.5095710158348083,"397":-1.3090176582336426,"398":-0.799202561378479,"399":-0.6248310208320618}},"outputBias":{"rows":20,"columns":1,"weights":{"0":-0.5332581400871277,"1":0.2076307237148285,"2":-0.18829190731048584,"3":-0.4809097945690155,"4":-0.15726986527442932,"5":-0.5208989977836609,"6":-0.5102301239967346,"7":0.6295342445373535,"8":-0.44043684005737305,"9":-0.2579871118068695,"10":-0.4573569595813751,"11":-0.34234315156936646,"12":-0.3761141300201416,"13":-0.3243429362773895,"14":-0.4134458303451538,"15":-0.4096251428127289,"16":-0.4953153729438782,"17":-0.7883872985839844,"18":0.20869781076908112,"19":0.698111891746521}},"cellActivationMatrix":{"rows":20,"columns":9,"weights":{"0":-0.7047416567802429,"1":0.403784841299057,"2":0.9139179587364197,"3":0.9155936241149902,"4":0.5848311185836792,"5":-0.6270830631256104,"6":-0.23274356126785278,"7":0.5709094405174255,"8":0.9146890640258789,"9":1.0179024934768677,"10":-0.39771389961242676,"11":-0.9784721732139587,"12":-0.9019303321838379,"13":-0.8966532349586487,"14":0.5994904637336731,"15":0.21095047891139984,"16":-0.7855803966522217,"17":-1.1586934328079224,"18":0.8991580605506897,"19":-0.22252805531024933,"20":-0.7911978960037231,"21":-0.910541832447052,"22":-0.8223617672920227,"23":0.6208177208900452,"24":0.21365773677825928,"25":-0.7390146851539612,"26":-1.0415093898773193,"27":-0.6577767729759216,"28":0.4871657192707062,"29":0.680368185043335,"30":0.8036171197891235,"31":0.4447267949581146,"32":-0.2655339539051056,"33":-0.38403427600860596,"34":0.601438045501709,"35":0.8849435448646545,"36":-0.6570615768432617,"37":0.42532777786254883,"38":0.7352532148361206,"39":0.7403027415275574,"40":0.7274561524391174,"41":-0.5871922969818115,"42":-0.44578757882118225,"43":0.6886682510375977,"44":0.9349268078804016,"45":0.6618794202804565,"46":-0.5264390707015991,"47":-0.5713862180709839,"48":-0.7177837491035461,"49":-0.4746435284614563,"50":0.412617564201355,"51":0.22482703626155853,"52":-0.40194982290267944,"53":-0.8461312651634216,"54":-0.7770692110061646,"55":0.3180167078971863,"56":0.782993495464325,"57":0.8523169755935669,"58":0.5736265778541565,"59":-0.4176727533340454,"60":-0.21469302475452423,"61":0.615447998046875,"62":1.0267860889434814,"63":0.13050106167793274,"64":0.6025508046150208,"65":0.5995938777923584,"66":-0.3621612787246704,"67":0.031162666156888008,"68":-0.05168493837118149,"69":-0.43467235565185547,"70":0.15264321863651276,"71":-0.14783123135566711,"72":-0.8068634867668152,"73":0.3914135992527008,"74":0.7479562759399414,"75":0.9822929501533508,"76":0.5573347210884094,"77":-0.4815901815891266,"78":-0.2522573471069336,"79":0.6389757394790649,"80":0.9605226516723633,"81":0.6862136721611023,"82":-0.25794652104377747,"83":-0.7666853666305542,"84":-0.7869569659233093,"85":-0.7106778025627136,"86":0.6595706939697266,"87":0.3096524178981781,"88":-0.7391278743743896,"89":-0.7663755416870117,"90":-0.7314023375511169,"91":0.535602331161499,"92":0.7332544922828674,"93":0.9202291369438171,"94":0.4778127670288086,"95":-0.48230621218681335,"96":-0.33242106437683105,"97":0.5894124507904053,"98":0.9106618762016296,"99":-0.8130308389663696,"100":0.305275559425354,"101":0.7073372006416321,"102":0.8823743462562561,"103":0.6585703492164612,"104":-0.5703578591346741,"105":-0.25252899527549744,"106":0.8011747598648071,"107":0.9700371623039246,"108":0.6984056830406189,"109":-0.46141350269317627,"110":-0.6171887516975403,"111":-0.875466525554657,"112":-0.6507367491722107,"113":0.4327256679534912,"114":0.40538525581359863,"115":-0.6459639668464661,"116":-0.8598713874816895,"117":0.7213135957717896,"118":-0.21254268288612366,"119":-0.6477454900741577,"120":-0.9378576278686523,"121":-0.7127723693847656,"122":0.664987325668335,"123":0.32806092500686646,"124":-0.6877641677856445,"125":-0.9919150471687317,"126":-0.7954336404800415,"127":0.46314480900764465,"128":0.6962802410125732,"129":0.8271234631538391,"130":0.5418908596038818,"131":-0.46630027890205383,"132":-0.35327664017677307,"133":0.5460217595100403,"134":0.898970901966095,"135":0.7369816303253174,"136":-0.42175132036209106,"137":-0.7341974973678589,"138":-0.8519532680511475,"139":-0.5247758030891418,"140":0.3775409758090973,"141":0.3849276006221771,"142":-0.6291873455047607,"143":-0.971190869808197,"144":-0.7224795818328857,"145":0.4370886981487274,"146":0.7921105623245239,"147":0.8706769943237305,"148":0.5354254245758057,"149":-0.35800954699516296,"150":-0.2813425064086914,"151":0.5828607082366943,"152":0.8691834211349487,"153":-0.7329728603363037,"154":0.04673224315047264,"155":0.3566202223300934,"156":0.18307539820671082,"157":0.43349573016166687,"158":-0.19998124241828918,"159":-0.2950088679790497,"160":0.56645667552948,"161":0.578734815120697,"162":-0.8125753402709961,"163":0.4766298830509186,"164":0.9716008305549622,"165":0.8669907450675964,"166":0.5761335492134094,"167":-0.3690893054008484,"168":-0.34899142384529114,"169":0.7948463559150696,"170":1.1200937032699585,"171":-0.15200623869895935,"172":0.8606997132301331,"173":0.634491503238678,"174":0.38528260588645935,"175":-0.32803449034690857,"176":0.32415735721588135,"177":-0.8785698413848877,"178":-0.25066736340522766,"179":0.4957596957683563}},"cellActivationHidden":{"rows":20,"columns":20,"weights":{"0":-0.14398379623889923,"1":-0.02271244116127491,"2":0.26131969690322876,"3":-0.2472389042377472,"4":-0.3606841266155243,"5":0.09527897834777832,"6":-0.1169675663113594,"7":-0.3545588552951813,"8":-0.22300197184085846,"9":0.1482921987771988,"10":-0.16954220831394196,"11":-0.2296043485403061,"12":0.3242572844028473,"13":0.22365929186344147,"14":-0.15528804063796997,"15":0.25728940963745117,"16":-0.19375506043434143,"17":0.03571731597185135,"18":-0.14113137125968933,"19":-0.36349302530288696,"20":0.15132178366184235,"21":-0.1949906051158905,"22":-0.48115548491477966,"23":0.15261530876159668,"24":0.5398426651954651,"25":-0.19664669036865234,"26":0.13261602818965912,"27":0.15256935358047485,"28":0.33921101689338684,"29":-0.36745914816856384,"30":0.3867972791194916,"31":0.5211666822433472,"32":-0.44701579213142395,"33":-0.431199848651886,"34":0.42315366864204407,"35":-0.2886083722114563,"36":0.20672135055065155,"37":0.13563254475593567,"38":0.03435570374131203,"39":0.13622337579727173,"40":0.3475159704685211,"41":-0.16760610044002533,"42":-0.3821285665035248,"43":0.254664808511734,"44":0.5416776537895203,"45":-0.2587345242500305,"46":0.30375367403030396,"47":0.26554131507873535,"48":0.32245776057243347,"49":-0.4460391402244568,"50":0.33740878105163574,"51":0.29132819175720215,"52":-0.461826354265213,"53":-0.4014452397823334,"54":0.4367297887802124,"55":-0.3499037027359009,"56":0.35892367362976074,"57":0.022641561925411224,"58":0.14138345420360565,"59":0.2506301701068878,"60":-0.34637466073036194,"61":-0.010920913890004158,"62":0.624229371547699,"63":-0.47611311078071594,"64":-0.7005540132522583,"65":0.37595856189727783,"66":-0.34418216347694397,"67":-0.3398627042770386,"68":-0.49514034390449524,"69":0.5371885895729065,"70":-0.4537307322025299,"71":-0.5735725164413452,"72":0.6278916001319885,"73":0.5876460671424866,"74":-0.5815480947494507,"75":0.6016020774841309,"76":-0.38418275117874146,"77":0.13381898403167725,"78":-0.15229757130146027,"79":-0.5087397694587708,"80":-0.3412228226661682,"81":0.22232407331466675,"82":0.5595428347587585,"83":-0.2885991036891937,"84":-0.5881782174110413,"85":0.2649855315685272,"86":-0.30195093154907227,"87":-0.36231714487075806,"88":-0.46560558676719666,"89":0.5571426749229431,"90":-0.4863480031490326,"91":-0.4134518802165985,"92":0.45832565426826477,"93":0.5868616104125977,"94":-0.479863703250885,"95":0.421842098236084,"96":-0.3889310359954834,"97":0.09552139043807983,"98":-0.2514408528804779,"99":-0.24523097276687622,"100":0.3645676076412201,"101":0.09365081042051315,"102":-0.4836990535259247,"103":0.3645928204059601,"104":0.5527509450912476,"105":-0.19629639387130737,"106":0.3266540765762329,"107":0.3361429274082184,"108":0.3811596930027008,"109":-0.3645164966583252,"110":0.38707199692726135,"111":0.5168221592903137,"112":-0.4301212728023529,"113":-0.4275223910808563,"114":0.5085479617118835,"115":-0.422659695148468,"116":0.3791959583759308,"117":-0.13163967430591583,"118":0.07643613964319229,"119":0.341503769159317,"120":-0.21744948625564575,"121":0.07564946264028549,"122":0.5073423385620117,"123":-0.29582908749580383,"124":-0.5673531889915466,"125":0.1695699542760849,"126":-0.2650759220123291,"127":-0.24499116837978363,"128":-0.3351433277130127,"129":0.3359909653663635,"130":-0.37065088748931885,"131":-0.44113874435424805,"132":0.34568461775779724,"133":0.4465705156326294,"134":-0.4038848280906677,"135":0.48254960775375366,"136":-0.38778215646743774,"137":-0.028896404430270195,"138":-0.11097802966833115,"139":-0.37848377227783203,"140":0.6933290362358093,"141":-0.9011576175689697,"142":-1.2875134944915771,"143":0.5096220374107361,"144":0.8658885955810547,"145":-0.41426700353622437,"146":0.8236590027809143,"147":-0.14834550023078918,"148":0.8179699182510376,"149":-1.7046747207641602,"150":0.8354437947273254,"151":0.9032586216926575,"152":-0.8923938274383545,"153":-1.8345266580581665,"154":0.9629339575767517,"155":-0.9932849407196045,"156":0.8006681203842163,"157":0.3362269699573517,"158":0.6063898205757141,"159":-0.7626932859420776,"160":-0.27975285053253174,"161":0.08232587575912476,"162":0.4693148136138916,"163":-0.28295037150382996,"164":-0.5435082912445068,"165":0.3711004853248596,"166":-0.2221222072839737,"167":-0.32596394419670105,"168":-0.4092482030391693,"169":0.43021416664123535,"170":-0.4885558784008026,"171":-0.41535717248916626,"172":0.5326794981956482,"173":0.3981970250606537,"174":-0.4367332458496094,"175":0.3822821080684662,"176":-0.40064549446105957,"177":-0.026602275669574738,"178":-0.19063891470432281,"179":-0.3601975440979004,"180":0.19655081629753113,"181":-0.1865164190530777,"182":-0.4269314408302307,"183":0.20665878057479858,"184":0.3524708151817322,"185":-0.27093032002449036,"186":0.15373677015304565,"187":0.2702535092830658,"188":0.38163673877716064,"189":-0.3670395016670227,"190":0.293246328830719,"191":0.2556564509868622,"192":-0.3151298463344574,"193":-0.41160762310028076,"194":0.39436158537864685,"195":-0.2754286229610443,"196":0.22221612930297852,"197":0.040162958204746246,"198":0.21201267838478088,"199":0.2946847081184387,"200":-0.3564273715019226,"201":0.11767834424972534,"202":0.3974841833114624,"203":-0.2756868004798889,"204":-0.4739319980144501,"205":0.3523462116718292,"206":-0.3127952218055725,"207":-0.2921420931816101,"208":-0.33549585938453674,"209":0.38985344767570496,"210":-0.48054394125938416,"211":-0.3902128338813782,"212":0.5342525839805603,"213":0.4485209584236145,"214":-0.35758522152900696,"215":0.3867107629776001,"216":-0.32310864329338074,"217":-0.020413383841514587,"218":-0.20917575061321259,"219":-0.4283638894557953,"220":-0.35625678300857544,"221":0.19554965198040009,"222":0.488620400428772,"223":-0.23365934193134308,"224":-0.4418242871761322,"225":0.3188173174858093,"226":-0.28144991397857666,"227":-0.2700256109237671,"228":-0.28178146481513977,"229":0.4320567548274994,"230":-0.41727837920188904,"231":-0.3999001681804657,"232":0.41413381695747375,"233":0.417268306016922,"234":-0.31541433930397034,"235":0.3507435917854309,"236":-0.3828451931476593,"237":0.02453630417585373,"238":-0.1380688101053238,"239":-0.16867931187152863,"240":0.3806963562965393,"241":-0.223666250705719,"242":-0.6232048273086548,"243":0.3807428479194641,"244":0.5671789646148682,"245":-0.3994234502315521,"246":0.3978988826274872,"247":0.26986491680145264,"248":0.4286312460899353,"249":-0.49323058128356934,"250":0.44927942752838135,"251":0.5270638465881348,"252":-0.46054744720458984,"253":-0.5532403588294983,"254":0.5645039081573486,"255":-0.4938303828239441,"256":0.34809818863868713,"257":-0.0005836514174006879,"258":0.2528728246688843,"259":0.3205658495426178,"260":0.26870816946029663,"261":-0.14104311168193817,"262":-0.3437736928462982,"263":0.34498661756515503,"264":0.5575246214866638,"265":-0.24387919902801514,"266":0.267399400472641,"267":0.34008821845054626,"268":0.3893827795982361,"269":-0.3362549841403961,"270":0.30442407727241516,"271":0.3420255184173584,"272":-0.32805320620536804,"273":-0.36893242597579956,"274":0.32871267199516296,"275":-0.4556366801261902,"276":0.2472398430109024,"277":0.044473957270383835,"278":0.16019770503044128,"279":0.3556654751300812,"280":-0.3186638653278351,"281":0.17462947964668274,"282":0.4896002411842346,"283":-0.42180335521698,"284":-0.5372045040130615,"285":0.36033520102500916,"286":-0.2060120403766632,"287":-0.2615634799003601,"288":-0.41712525486946106,"289":0.4141097962856293,"290":-0.389712393283844,"291":-0.4241977035999298,"292":0.4972454905509949,"293":0.39568114280700684,"294":-0.4596341550350189,"295":0.41663262248039246,"296":-0.36345216631889343,"297":0.04640631377696991,"298":-0.21997128427028656,"299":-0.3887012004852295,"300":0.4434431493282318,"301":-0.12935695052146912,"302":-0.6011368036270142,"303":0.40985792875289917,"304":0.6252644658088684,"305":-0.32731208205223083,"306":0.27002906799316406,"307":0.3125012218952179,"308":0.5400325059890747,"309":-0.46114662289619446,"310":0.5079628229141235,"311":0.5467706918716431,"312":-0.5863262414932251,"313":-0.5629866123199463,"314":0.5531708598136902,"315":-0.4291907250881195,"316":0.4647209048271179,"317":-0.0129585862159729,"318":0.14635346829891205,"319":0.32227274775505066,"320":-0.3372446298599243,"321":0.15188927948474884,"322":0.42104461789131165,"323":-0.2739022374153137,"324":-0.5447655320167542,"325":0.2069280594587326,"326":-0.3206162750720978,"327":-0.21286575496196747,"328":-0.4778731167316437,"329":0.4174608588218689,"330":-0.4142230749130249,"331":-0.46051937341690063,"332":0.36451074481010437,"333":0.42130863666534424,"334":-0.4742370545864105,"335":0.4382407069206238,"336":-0.36844781041145325,"337":-0.08431826531887054,"338":-0.24460163712501526,"339":-0.3867727518081665,"340":-1.0962424278259277,"341":0.7679551243782043,"342":0.82161945104599,"343":-0.5260396003723145,"344":-0.8568591475486755,"345":0.6789379119873047,"346":-0.8326473832130432,"347":0.16141855716705322,"348":-0.649461567401886,"349":0.8809447288513184,"350":-0.6533093452453613,"351":-0.8166173100471497,"352":0.6861425042152405,"353":0.8646960854530334,"354":-0.5951027274131775,"355":0.5834773182868958,"356":-0.5546039938926697,"357":-0.24855925142765045,"358":-1.153116226196289,"359":0.3990635871887207,"360":-0.3479505777359009,"361":0.03912480175495148,"362":0.4578973054885864,"363":-0.3703368306159973,"364":-0.4676450490951538,"365":0.2640925347805023,"366":-0.3211367726325989,"367":-0.2599320709705353,"368":-0.44985800981521606,"369":0.39712873101234436,"370":-0.33528241515159607,"371":-0.32309257984161377,"372":0.39077842235565186,"373":0.33776044845581055,"374":-0.346333384513855,"375":0.3577316403388977,"376":-0.381518691778183,"377":0.007625921163707972,"378":-0.08974357694387436,"379":-0.2270350605249405,"380":1.1815232038497925,"381":-0.6525956988334656,"382":-1.523027777671814,"383":0.7765263319015503,"384":1.423035740852356,"385":-0.5616060495376587,"386":1.1194998025894165,"387":-0.05410914868116379,"388":1.392590880393982,"389":-2.5952000617980957,"390":1.530575156211853,"391":1.6679692268371582,"392":-1.2989623546600342,"393":-2.667943000793457,"394":1.4175760746002197,"395":-1.2498319149017334,"396":1.138512372970581,"397":0.16120584309101105,"398":1.1095800399780273,"399":-0.574024498462677}},"cellActivationBias":{"rows":20,"columns":1,"weights":{"0":0.3444265127182007,"1":0.0639643445611,"2":-0.48710161447525024,"3":0.426494836807251,"4":0.5680322647094727,"5":-0.3536311388015747,"6":0.32076317071914673,"7":-1.24596107006073,"8":0.4213979244232178,"9":-0.39904409646987915,"10":0.3975086212158203,"11":0.42651647329330444,"12":-0.4520702660083771,"13":-0.4231785535812378,"14":0.46162042021751404,"15":-0.46197929978370667,"16":0.37714457511901855,"17":0.4672218859195709,"18":0.10610790550708771,"19":-1.0163475275039673}}},{"inputMatrix":{"rows":20,"columns":20,"weights":{"0":-0.1157202199101448,"1":0.8723157048225403,"2":0.22133751213550568,"3":-0.8680316209793091,"4":-0.13746561110019684,"5":0.6252568960189819,"6":-0.3290535509586334,"7":0.7852843999862671,"8":-0.4778698980808258,"9":-0.19630126655101776,"10":-0.4750502407550812,"11":-0.14374297857284546,"12":0.2809017598628998,"13":0.08062548190355301,"14":-0.47412583231925964,"15":0.47948354482650757,"16":-0.5264109373092651,"17":-0.9362450242042542,"18":-0.2997715473175049,"19":-0.32415610551834106,"20":-0.3148741126060486,"21":1.055992603302002,"22":0.3284703493118286,"23":-0.9052823781967163,"24":-0.22903235256671906,"25":0.8003610968589783,"26":-0.5046148300170898,"27":0.548092246055603,"28":-0.4565660357475281,"29":-0.1321035623550415,"30":-0.5142647624015808,"31":-0.2527163624763489,"32":0.3580299913883209,"33":0.04608098044991493,"34":-0.42360690236091614,"35":0.3560068607330322,"36":-0.5590705871582031,"37":-0.5178614854812622,"38":-0.5111896395683289,"39":-0.7414172291755676,"40":0.5273141264915466,"41":2.088419198989868,"42":-0.2511352300643921,"43":-0.5262560248374939,"44":0.23594875633716583,"45":1.0971664190292358,"46":0.3384087085723877,"47":-0.7613025903701782,"48":0.5506946444511414,"49":-0.48692119121551514,"50":0.5124602913856506,"51":0.18146413564682007,"52":-0.2813889980316162,"53":-0.5254834890365601,"54":0.2863588035106659,"55":-0.2750565707683563,"56":0.3854062855243683,"57":-1.4945348501205444,"58":-1.0500972270965576,"59":-1.1529009342193604,"60":0.15855282545089722,"61":0.732826828956604,"62":0.054670725017786026,"63":-1.3697593212127686,"64":0.44110751152038574,"65":1.778032660484314,"66":-0.25940054655075073,"67":-0.8336698412895203,"68":0.08276330679655075,"69":0.22751224040985107,"70":-0.030498018488287926,"71":0.17154930531978607,"72":-0.333881676197052,"73":-0.0011702477931976318,"74":-0.08426455408334732,"75":-0.3445139527320862,"76":0.05147262290120125,"77":0.10705069452524185,"78":-0.8557998538017273,"79":-1.6412944793701172,"80":1.229382038116455,"81":0.944065511226654,"82":-0.6867787837982178,"83":0.9330120086669922,"84":1.0058746337890625,"85":-0.4826410114765167,"86":0.9209452867507935,"87":1.0606738328933716,"88":0.9240667819976807,"89":-1.0003405809402466,"90":0.891606867313385,"91":0.9916228652000427,"92":-1.2590956687927246,"93":-0.9150347709655762,"94":1.0225749015808105,"95":-1.2214816808700562,"96":0.991708517074585,"97":-0.9876671433448792,"98":0.13285315036773682,"99":-0.8300601840019226,"100":0.4904536306858063,"101":1.3874801397323608,"102":-0.5743210911750793,"103":0.21503733098506927,"104":0.7660131454467773,"105":0.41327255964279175,"106":0.5421225428581238,"107":-0.2536468505859375,"108":0.8333491086959839,"109":-1.1647831201553345,"110":0.6418395042419434,"111":0.7181785106658936,"112":-0.78696209192276,"113":-0.8128058910369873,"114":0.7570028305053711,"115":-0.8677314519882202,"116":0.7129708528518677,"117":0.08423390239477158,"118":-0.14719708263874054,"119":-0.8969244956970215,"120":-0.5205158591270447,"121":1.8092607259750366,"122":0.5445345044136047,"123":-0.736573338508606,"124":-0.6500037908554077,"125":1.1704156398773193,"126":-0.5144944190979004,"127":-1.3027844429016113,"128":-0.47403624653816223,"129":0.46235647797584534,"130":-0.5864506959915161,"131":-0.5143852829933167,"132":0.5117834210395813,"133":0.4610911011695862,"134":-0.5091336965560913,"135":0.5448098182678223,"136":-0.5652570724487305,"137":-0.6574237942695618,"138":-1.838012456893921,"139":-1.4170925617218018,"140":-0.696122407913208,"141":0.5493638515472412,"142":0.5917474031448364,"143":-0.9765039682388306,"144":-0.6863158345222473,"145":0.6267205476760864,"146":-0.8388127684593201,"147":0.9928737878799438,"148":-0.8691827654838562,"149":0.4160294532775879,"150":-0.7930885553359985,"151":-0.6906045079231262,"152":0.8715218901634216,"153":0.5146701335906982,"154":-0.8129069209098816,"155":0.840226948261261,"156":-0.9828613996505737,"157":-1.4284027814865112,"158":-0.4933760166168213,"159":0.040081657469272614,"160":0.2801947295665741,"161":0.6090212464332581,"162":0.07111307233572006,"163":-0.5539583563804626,"164":0.12581247091293335,"165":0.5776717662811279,"166":0.10286302119493484,"167":0.547643780708313,"168":-0.06054988503456116,"169":-0.41334572434425354,"170":-0.0658755972981453,"171":0.049757976084947586,"172":-0.0752401202917099,"173":-0.10929584503173828,"174":-0.12159175425767899,"175":-0.02167770452797413,"176":-0.08095069229602814,"177":-0.587694525718689,"178":-0.33158111572265625,"179":-0.9066072106361389,"180":-0.5367236733436584,"181":0.9590021371841431,"182":0.465589314699173,"183":-1.093105673789978,"184":-0.6024215817451477,"185":0.8199223279953003,"186":-0.6705745458602905,"187":0.9539207816123962,"188":-0.7981739044189453,"189":0.31779757142066956,"190":-0.863089919090271,"191":-0.48460903763771057,"192":0.7128764390945435,"193":0.4462399482727051,"194":-0.7629950046539307,"195":0.9132575392723083,"196":-0.892124354839325,"197":-1.5700749158859253,"198":-0.48119500279426575,"199":-0.03717058151960373,"200":-0.18477410078048706,"201":0.7161769270896912,"202":0.2232101857662201,"203":-0.7499011754989624,"204":-0.20734678208827972,"205":0.624718964099884,"206":-0.4246402680873871,"207":0.6211497187614441,"208":-0.4396238625049591,"209":-0.024178151041269302,"210":-0.5062440037727356,"211":-0.16372638940811157,"212":0.3885476887226105,"213":0.1511676013469696,"214":-0.3466954827308655,"215":0.4937041401863098,"216":-0.5423838496208191,"217":-0.7237656116485596,"218":-0.3672676086425781,"219":-0.5108965039253235,"220":-0.2417605072259903,"221":1.072282314300537,"222":0.191347137093544,"223":-0.7385834455490112,"224":-0.14213675260543823,"225":0.8680205941200256,"226":-0.3458804190158844,"227":-0.03375397250056267,"228":-0.31092724204063416,"229":0.17873039841651917,"230":-0.3565838634967804,"231":-0.22045859694480896,"232":0.19477267563343048,"233":0.0875571221113205,"234":-0.34356871247291565,"235":0.33696892857551575,"236":-0.3395502269268036,"237":-0.5623235702514648,"238":-0.6642374396324158,"239":-1.1887913942337036,"240":1.062127709388733,"241":1.0461947917938232,"242":-1.0989749431610107,"243":0.866104006767273,"244":1.0697489976882935,"245":-0.7806249260902405,"246":1.0550199747085571,"247":0.45160070061683655,"248":0.9694697260856628,"249":-1.0526463985443115,"250":1.0098028182983398,"251":1.1231178045272827,"252":-0.9452031850814819,"253":-1.0539367198944092,"254":0.9606747627258301,"255":-0.9862925410270691,"256":0.9709768295288086,"257":-0.8618212342262268,"258":0.430087149143219,"259":-1.3720908164978027,"260":0.8231729865074158,"261":0.8776560425758362,"262":-1.0326558351516724,"263":0.8713814616203308,"264":0.9798820614814758,"265":-0.7172702550888062,"266":0.8338502049446106,"267":-0.6304746866226196,"268":1.0770570039749146,"269":-1.4809823036193848,"270":1.0041933059692383,"271":0.9682533144950867,"272":-1.0301928520202637,"273":-1.2956446409225464,"274":0.9513086676597595,"275":-0.9780622124671936,"276":0.9051515460014343,"277":0.45854637026786804,"278":0.5956986546516418,"279":-1.2959007024765015,"280":0.7583898305892944,"281":0.08913620561361313,"282":-0.8366485238075256,"283":0.7891278862953186,"284":0.8502827882766724,"285":-0.7349790930747986,"286":0.6959736943244934,"287":-1.2508325576782227,"288":0.9269999861717224,"289":-0.7258378267288208,"290":0.8522214889526367,"291":0.8352541923522949,"292":-0.86333829164505,"293":-0.7935958504676819,"294":0.8334153890609741,"295":-0.9840285778045654,"296":0.8708705306053162,"297":0.852622926235199,"298":0.5543832182884216,"299":-1.2169533967971802,"300":1.6529083251953125,"301":0.4131881296634674,"302":-0.9132441878318787,"303":0.3157132863998413,"304":1.0253239870071411,"305":0.5754269361495972,"306":1.3440219163894653,"307":1.0800719261169434,"308":1.1212334632873535,"309":-1.0953176021575928,"310":1.135240077972412,"311":1.0478472709655762,"312":-1.2393347024917603,"313":-0.7084382772445679,"314":0.9960203766822815,"315":-1.2193020582199097,"316":1.1292803287506104,"317":0.10295044630765915,"318":0.6973240971565247,"319":-0.5197330117225647,"320":-0.10075394809246063,"321":1.2001692056655884,"322":-0.17849864065647125,"323":-1.0397393703460693,"324":0.6042959094047546,"325":0.8531695008277893,"326":-0.34977978467941284,"327":1.7763358354568481,"328":0.005272023379802704,"329":-0.33870193362236023,"330":-0.1431368887424469,"331":0.40590280294418335,"332":-0.42034298181533813,"333":-0.2382570505142212,"334":0.1314110904932022,"335":-0.26388171315193176,"336":-0.11983787268400192,"337":-1.112192988395691,"338":-0.3395654261112213,"339":1.399713158607483,"340":-0.34903401136398315,"341":1.0405137538909912,"342":0.33567288517951965,"343":-0.9187673330307007,"344":-0.10939525812864304,"345":0.8310683369636536,"346":-0.5122938752174377,"347":0.5814842581748962,"348":-0.555810809135437,"349":-0.04136071726679802,"350":-0.5410880446434021,"351":-0.3386107385158539,"352":0.4063982665538788,"353":0.15324653685092926,"354":-0.5318024158477783,"355":0.5027056336402893,"356":-0.6080825924873352,"357":-0.7918739914894104,"358":-0.3394439220428467,"359":-0.6253750324249268,"360":-0.5501368045806885,"361":0.8195968866348267,"362":0.6388188004493713,"363":-0.9582037925720215,"364":-0.737429678440094,"365":0.6800339221954346,"366":-0.7451273798942566,"367":0.5288931727409363,"368":-0.8174484968185425,"369":0.30222591757774353,"370":-0.8616805672645569,"371":-0.6572785973548889,"372":0.799927294254303,"373":0.6019226312637329,"374":-0.7971621751785278,"375":0.855047345161438,"376":-0.8451603055000305,"377":-0.8709683418273926,"378":-0.3597285747528076,"379":-0.7023200392723083,"380":-0.6815633177757263,"381":1.1326744556427002,"382":0.6757126450538635,"383":-1.0736794471740723,"384":-0.7109041213989258,"385":0.7165641188621521,"386":-0.7895730137825012,"387":0.8456507921218872,"388":-1.021752953529358,"389":0.47388243675231934,"390":-0.9280291795730591,"391":-0.6251338124275208,"392":0.8377376198768616,"393":0.6175667643547058,"394":-0.8477438688278198,"395":0.9563737511634827,"396":-1.0005298852920532,"397":-1.7276611328125,"398":-0.5626850128173828,"399":0.05312920734286308}},"inputHidden":{"rows":20,"columns":20,"weights":{"0":0.26810944080352783,"1":0.18979811668395996,"2":-1.420015811920166,"3":-1.0443295240402222,"4":0.7164577841758728,"5":-1.2289867401123047,"6":-0.7170200347900391,"7":-0.3273131549358368,"8":0.2501991391181946,"9":0.2513585090637207,"10":0.32979875802993774,"11":0.14312900602817535,"12":0.4979490339756012,"13":0.10649777203798294,"14":-0.5590893626213074,"15":0.0025288809556514025,"16":-0.2399866282939911,"17":-0.19382625818252563,"18":0.20257647335529327,"19":-0.2284623086452484,"20":0.39468157291412354,"21":0.48903709650039673,"22":-0.9563931226730347,"23":-0.5692116022109985,"24":0.18568243086338043,"25":-0.9148269295692444,"26":-0.5781868696212769,"27":-0.38164758682250977,"28":0.3665902614593506,"29":0.3384033441543579,"30":0.39690089225769043,"31":0.419429749250412,"32":0.6339620351791382,"33":-0.22414205968379974,"34":-0.0944119542837143,"35":-0.083092100918293,"36":-0.3492366075515747,"37":-0.5052429437637329,"38":0.34935763478279114,"39":-0.328894704580307,"40":-0.5513365268707275,"41":-0.5455887317657471,"42":-0.9618224501609802,"43":0.37198442220687866,"44":0.23079651594161987,"45":1.5864605903625488,"46":-0.07287316024303436,"47":0.6223012208938599,"48":-0.5470899343490601,"49":-0.5280377268791199,"50":-0.5963565111160278,"51":-0.4498499631881714,"52":0.5911556482315063,"53":-1.1886327266693115,"54":1.8236782550811768,"55":0.09252449870109558,"56":0.5681918263435364,"57":0.4346393644809723,"58":-0.5554147958755493,"59":0.5249543190002441,"60":0.41141241788864136,"61":0.6449475884437561,"62":0.33662477135658264,"63":-1.192983627319336,"64":-1.3438665866851807,"65":0.42650800943374634,"66":-0.711014449596405,"67":-0.8946537375450134,"68":0.3295452892780304,"69":1.4670259952545166,"70":0.5092496871948242,"71":1.440925121307373,"72":-0.3878825306892395,"73":-0.3424266278743744,"74":1.1734504699707031,"75":-1.301245927810669,"76":-2.179307222366333,"77":-0.6519742608070374,"78":-0.6619469523429871,"79":-1.7361630201339722,"80":-0.3076775372028351,"81":-0.18795597553253174,"82":0.4273179769515991,"83":0.10056550055742264,"84":-0.1055479422211647,"85":-0.5934411883354187,"86":0.21768547594547272,"87":0.417498916387558,"88":-0.3444461226463318,"89":-0.4502551257610321,"90":-0.23996755480766296,"91":-0.12083091586828232,"92":0.30397456884384155,"93":-0.14617741107940674,"94":-0.21560600399971008,"95":1.0037277936935425,"96":0.5874478816986084,"97":0.2862330675125122,"98":-0.3031875491142273,"99":0.2572352886199951,"100":-0.33573105931282043,"101":-0.2716388404369354,"102":-0.7206829190254211,"103":0.1873650997877121,"104":0.6040393710136414,"105":-0.335553377866745,"106":-0.3095057010650635,"107":0.6027905941009521,"108":-0.2764604091644287,"109":-0.45481351017951965,"110":-0.3561347424983978,"111":-0.5070709586143494,"112":-0.32584595680236816,"113":-0.315039724111557,"114":0.04850640147924423,"115":0.16046421229839325,"116":0.3759929835796356,"117":0.2537994086742401,"118":-0.3480352461338043,"119":0.49707725644111633,"120":-0.6172232627868652,"121":-0.06498251855373383,"122":-0.15645937621593475,"123":-1.135649561882019,"124":0.8614828586578369,"125":-2.4442837238311768,"126":-1.5338588953018188,"127":-0.2663207948207855,"128":-0.6333231925964355,"129":0.2501073479652405,"130":-0.2828100323677063,"131":0.4922080338001251,"132":-1.508534550666809,"133":1.1517640352249146,"134":-1.083262324333191,"135":0.3723401427268982,"136":-0.713272213935852,"137":0.11463800817728043,"138":-0.7326924204826355,"139":-0.5484747290611267,"140":0.2794199585914612,"141":0.447173148393631,"142":1.2613558769226074,"143":-0.2561417818069458,"144":-0.2968723475933075,"145":-0.24062246084213257,"146":-0.24146808683872223,"147":-0.6041120290756226,"148":0.3038034439086914,"149":0.6043382883071899,"150":0.483284592628479,"151":0.5840057730674744,"152":0.8588974475860596,"153":-0.47578608989715576,"154":0.18628168106079102,"155":-0.2801228165626526,"156":-0.5702839493751526,"157":-0.44893452525138855,"158":0.2524508237838745,"159":-0.5912303328514099,"160":0.28657054901123047,"161":0.3821071684360504,"162":-0.9933607578277588,"163":-1.1982382535934448,"164":0.4199579358100891,"165":-1.4879322052001953,"166":-0.878326952457428,"167":-0.5729373097419739,"168":0.33440467715263367,"169":0.662236213684082,"170":0.3537229299545288,"171":0.386508971452713,"172":0.1276586949825287,"173":0.32597073912620544,"174":-0.7271478772163391,"175":0.0217216145247221,"176":-0.5554257035255432,"177":-0.3430629372596741,"178":-0.03050212375819683,"179":-0.6999008059501648,"180":0.16581854224205017,"181":0.28923988342285156,"182":1.421331524848938,"183":-0.12221784144639969,"184":-0.31068485975265503,"185":-0.32475942373275757,"186":-0.340801477432251,"187":-0.42849332094192505,"188":0.17827875912189484,"189":0.43907642364501953,"190":0.2524045407772064,"191":0.5352774262428284,"192":0.9577798843383789,"193":-0.48054903745651245,"194":0.1028471514582634,"195":-0.08214299380779266,"196":-0.4313673675060272,"197":-0.19119903445243835,"198":0.21656906604766846,"199":-0.4592660963535309,"200":0.27775219082832336,"201":0.36540931463241577,"202":-1.280091404914856,"203":-0.6670355200767517,"204":0.4555884003639221,"205":-1.1838423013687134,"206":-0.42754262685775757,"207":-0.41972842812538147,"208":0.3565097451210022,"209":0.387298047542572,"210":0.3374216854572296,"211":0.13458441197872162,"212":0.4986225366592407,"213":0.13122868537902832,"214":-0.482307493686676,"215":-0.0801103338599205,"216":-0.24388590455055237,"217":-0.27779582142829895,"218":0.31310465931892395,"219":-0.22395385801792145,"220":0.4705202579498291,"221":0.5577904582023621,"222":1.3748530149459839,"223":-0.45939236879348755,"224":-0.8984671235084534,"225":0.33544036746025085,"226":0.2675379812717438,"227":-0.5468823909759521,"228":0.43057379126548767,"229":0.632544755935669,"230":0.4526086151599884,"231":0.7763073444366455,"232":0.357027143239975,"233":-0.7788454294204712,"234":0.7409688234329224,"235":-0.13431596755981445,"236":-0.441230446100235,"237":-0.5274915099143982,"238":0.42895084619522095,"239":-0.6626096367835999,"240":-0.1900148093700409,"241":-0.13186030089855194,"242":0.3548547625541687,"243":0.14742256700992584,"244":0.4830249845981598,"245":0.21617145836353302,"246":1.0431855916976929,"247":0.2574402093887329,"248":-0.2686619460582733,"249":-0.25627943873405457,"250":-0.2053353488445282,"251":-0.14274540543556213,"252":1.250997543334961,"253":-0.7928748726844788,"254":0.38604170083999634,"255":0.888699471950531,"256":0.2821410298347473,"257":0.11192929744720459,"258":-0.4359603524208069,"259":0.18872125446796417,"260":-0.41852399706840515,"261":-0.46688613295555115,"262":-0.4064021110534668,"263":0.20581494271755219,"264":0.9235441088676453,"265":-0.4328400194644928,"266":0.5320137739181519,"267":0.48406538367271423,"268":-0.3420237898826599,"269":-0.3812164068222046,"270":-0.4585583508014679,"271":-0.4021763503551483,"272":-0.8882123827934265,"273":0.4118777811527252,"274":-0.6445751786231995,"275":0.8430304527282715,"276":0.47570738196372986,"277":0.40744322538375854,"278":-0.5297802686691284,"279":0.47665247321128845,"280":-0.48290616273880005,"281":-0.34489941596984863,"282":-0.2609778344631195,"283":0.34319648146629333,"284":0.430906742811203,"285":0.16174864768981934,"286":0.6101124286651611,"287":0.4647690951824188,"288":-0.4325091242790222,"289":-0.414125919342041,"290":-0.4125324487686157,"291":-0.4895883798599243,"292":-1.3108909130096436,"293":0.46171483397483826,"294":-0.3122722804546356,"295":0.5203372240066528,"296":0.4008888900279999,"297":0.4646872878074646,"298":-0.37081822752952576,"299":0.4713814854621887,"300":0.5419657826423645,"301":0.6209006905555725,"302":0.622090756893158,"303":-0.8028965592384338,"304":0.5860180258750916,"305":-2.1870274543762207,"306":-1.3410314321517944,"307":-0.3508527874946594,"308":-0.018176987767219543,"309":0.6778320074081421,"310":0.5466694235801697,"311":-0.608829140663147,"312":-0.2508201003074646,"313":1.4137954711914062,"314":-1.5399295091629028,"315":0.5840422511100769,"316":-0.7515351176261902,"317":-0.6368627548217773,"318":-0.4064808487892151,"319":-0.6124683022499084,"320":-0.06928074359893799,"321":0.1751255989074707,"322":3.005209445953369,"323":0.2536858320236206,"324":1.3899627923965454,"325":-0.22951659560203552,"326":0.4010591506958008,"327":0.5879232287406921,"328":0.13108742237091064,"329":0.026739012449979782,"330":0.025461623445153236,"331":0.21996428072452545,"332":0.9493841528892517,"333":-0.5202221870422363,"334":0.7725053429603577,"335":0.2879541516304016,"336":-0.7580117583274841,"337":-0.04944292828440666,"338":-0.24435797333717346,"339":-0.8518754839897156,"340":0.3049987852573395,"341":0.40855342149734497,"342":-0.813191294670105,"343":-0.4637083411216736,"344":0.12636740505695343,"345":-0.8928685188293457,"346":-0.5452105402946472,"347":-0.38890814781188965,"348":0.3520038425922394,"349":0.3538994789123535,"350":0.3953743278980255,"351":0.3766515851020813,"352":0.7304055690765381,"353":-0.35446760058403015,"354":-0.06739236414432526,"355":0.0021431564819067717,"356":-0.2854839265346527,"357":-0.3887859582901001,"358":0.3748979866504669,"359":-0.3282719552516937,"360":-0.1428351253271103,"361":-0.05836254358291626,"362":-0.9700986742973328,"363":-0.8280377984046936,"364":1.2285691499710083,"365":-1.3548084497451782,"366":-0.6700369715690613,"367":-0.004118792712688446,"368":-0.2528137266635895,"369":0.03527238592505455,"370":-0.022013608366250992,"371":0.11130275577306747,"372":0.21335700154304504,"373":0.24964477121829987,"374":-0.8427963852882385,"375":0.05956519767642021,"376":0.015234413556754589,"377":0.011447652243077755,"378":-0.16875098645687103,"379":-0.13032354414463043,"380":-0.029526809230446815,"381":-0.08656901866197586,"382":1.8582735061645508,"383":-0.06278940290212631,"384":0.12123779207468033,"385":-0.061531487852334976,"386":-0.32859402894973755,"387":-0.2193528264760971,"388":-0.07654658704996109,"389":0.20529446005821228,"390":-0.04066905006766319,"391":0.255481481552124,"392":0.9137929677963257,"393":-0.6037534475326538,"394":0.3209558427333832,"395":0.05440922826528549,"396":-0.20762434601783752,"397":0.06708694994449615,"398":0.07690373808145523,"399":-0.2148824781179428}},"inputBias":{"rows":20,"columns":1,"weights":{"0":-0.27582767605781555,"1":0.2043021023273468,"2":1.1548813581466675,"3":0.17488569021224976,"4":-0.5429786443710327,"5":2.23867130279541,"6":0.8093496561050415,"7":-0.15377569198608398,"8":-0.14775271713733673,"9":-0.09888958930969238,"10":-0.07797912508249283,"11":0.30778422951698303,"12":0.31301912665367126,"13":1.3676618337631226,"14":1.2639833688735962,"15":-0.9400205016136169,"16":-0.1462906152009964,"17":0.01413826085627079,"18":-0.5170533657073975,"19":0.03930895775556564}},"forgetMatrix":{"rows":20,"columns":20,"weights":{"0":0.028252094984054565,"1":0.15519556403160095,"2":0.22862184047698975,"3":-0.19103138148784637,"4":-0.2691501975059509,"5":0.06379737704992294,"6":-0.05762472748756409,"7":0.13663876056671143,"8":-0.06919404864311218,"9":0.15774786472320557,"10":-0.03151538595557213,"11":-0.18728859722614288,"12":0.23460741341114044,"13":0.14577969908714294,"14":-0.1424686163663864,"15":0.2585153579711914,"16":-0.07975160330533981,"17":-0.42063194513320923,"18":-0.14192603528499603,"19":0.038568343967199326,"20":0.07819166779518127,"21":0.040052495896816254,"22":0.1273239701986313,"23":-0.15421472489833832,"24":-0.1697191745042801,"25":0.016532404348254204,"26":0.023176005110144615,"27":0.2119850069284439,"28":-0.08755326271057129,"29":0.060241952538490295,"30":-0.07430066168308258,"31":-0.1525595337152481,"32":0.0741080716252327,"33":0.038952767848968506,"34":-0.05847804620862007,"35":0.11882194876670837,"36":-0.0621689110994339,"37":-0.2961288392543793,"38":-0.15570877492427826,"39":-0.0004089325375389308,"40":-0.853955090045929,"41":1.0512504577636719,"42":1.1359505653381348,"43":-0.7351342439651489,"44":-1.1176092624664307,"45":0.5923006534576416,"46":-1.0309768915176392,"47":0.9695881009101868,"48":-0.9885473251342773,"49":1.078852653503418,"50":-0.8381260633468628,"51":-1.0121475458145142,"52":0.9345200657844543,"53":1.051128625869751,"54":-0.8980525732040405,"55":0.9171528816223145,"56":-1.0291600227355957,"57":-1.322628140449524,"58":-0.5120049715042114,"59":0.8793010711669922,"60":-0.7849881052970886,"61":0.14153851568698883,"62":1.0460282564163208,"63":-0.6049692630767822,"64":-0.870442271232605,"65":0.37867143750190735,"66":-0.8307063579559326,"67":0.8207895159721375,"68":-0.9704235792160034,"69":0.9308947920799255,"70":-0.8097681999206543,"71":-0.774284839630127,"72":0.848472535610199,"73":1.0546154975891113,"74":-0.8585317134857178,"75":0.9568608999252319,"76":-0.9243120551109314,"77":-0.8595073223114014,"78":-0.22846397757530212,"79":0.7095832228660583,"80":1.1142505407333374,"81":0.5648423433303833,"82":-1.0334326028823853,"83":0.28718483448028564,"84":0.682376503944397,"85":0.15029524266719818,"86":1.0809755325317383,"87":1.5581364631652832,"88":1.0075997114181519,"89":-1.3249120712280273,"90":1.080241322517395,"91":0.847672700881958,"92":-0.8949057459831238,"93":-1.1749926805496216,"94":0.9265875816345215,"95":-0.8413069844245911,"96":0.967946469783783,"97":-0.9935407042503357,"98":-0.31868037581443787,"99":1.2198255062103271,"100":0.7707821130752563,"101":-0.2664976418018341,"102":-0.6917549967765808,"103":0.1150229200720787,"104":0.5182873606681824,"105":-0.01296705100685358,"106":0.6394892930984497,"107":-0.47314852476119995,"108":0.7384196519851685,"109":-0.3756413161754608,"110":0.7540881633758545,"111":0.5748209357261658,"112":-0.5157414674758911,"113":-0.58159339427948,"114":0.6070795059204102,"115":-0.45945972204208374,"116":0.5707934498786926,"117":0.6692745089530945,"118":-0.9285966753959656,"119":-0.5117891430854797,"120":0.8150913119316101,"121":-0.9070189595222473,"122":-0.24601350724697113,"123":0.7285246849060059,"124":0.16979065537452698,"125":-1.0779378414154053,"126":0.6145347952842712,"127":-0.746013343334198,"128":0.37468788027763367,"129":-0.30607518553733826,"130":0.5627025961875916,"131":0.2373347282409668,"132":-0.3703782260417938,"133":-0.331094890832901,"134":0.3920946419239044,"135":-0.2802639901638031,"136":0.5035024285316467,"137":0.4839000999927521,"138":0.5475145578384399,"139":0.07358928769826889,"140":-0.40437963604927063,"141":0.9843418002128601,"142":0.4515555799007416,"143":-0.42277517914772034,"144":-0.4804513454437256,"145":0.315703809261322,"146":-0.3933376967906952,"147":-0.20770025253295898,"148":-0.5581254959106445,"149":0.4642876386642456,"150":-0.5076350569725037,"151":-0.4332675039768219,"152":0.5442029237747192,"153":0.549263596534729,"154":-0.5636985898017883,"155":0.5097269415855408,"156":-0.37898746132850647,"157":-0.9446256160736084,"158":-0.32867786288261414,"159":-0.1302717626094818,"160":-0.015194354578852654,"161":0.15928424894809723,"162":0.13440780341625214,"163":-0.2481374442577362,"164":-0.24023349583148956,"165":0.07034932076931,"166":-0.06792297959327698,"167":0.19789323210716248,"168":-0.213993638753891,"169":0.1489676535129547,"170":-0.12792858481407166,"171":-0.22082631289958954,"172":0.18891705572605133,"173":0.14383888244628906,"174":-0.1748024821281433,"175":0.21693003177642822,"176":-0.14812521636486053,"177":-0.3239758014678955,"178":-0.10864211618900299,"179":-0.1250111162662506,"180":-0.2665191888809204,"181":0.37501490116119385,"182":0.40275758504867554,"183":-0.3348992168903351,"184":-0.3403736352920532,"185":0.2688760459423065,"186":-0.3230563998222351,"187":-0.1788453310728073,"188":-0.3766549527645111,"189":0.26018786430358887,"190":-0.3676713705062866,"191":-0.28331172466278076,"192":0.32311898469924927,"193":0.27806374430656433,"194":-0.31842532753944397,"195":0.31260013580322266,"196":-0.2982838749885559,"197":-0.4150906503200531,"198":-0.0720893070101738,"199":-0.3063482642173767,"200":-0.08979345113039017,"201":0.4865759611129761,"202":0.17277102172374725,"203":-0.17125366628170013,"204":-0.33560624718666077,"205":0.1917082965373993,"206":-0.18089836835861206,"207":-0.25034430623054504,"208":-0.18428705632686615,"209":0.24330995976924896,"210":-0.13798993825912476,"211":-0.12276124954223633,"212":0.2749505639076233,"213":0.17297501862049103,"214":-0.22417929768562317,"215":0.2864317297935486,"216":-0.11938854306936264,"217":-0.5518301725387573,"218":-0.18230457603931427,"219":-0.2588951587677002,"220":0.03768222779035568,"221":0.0018970075761899352,"222":0.004881797358393669,"223":-0.118693508207798,"224":-0.11292660236358643,"225":0.24278976023197174,"226":0.02334871143102646,"227":-0.9285337924957275,"228":-0.09410508722066879,"229":0.06445813924074173,"230":-0.06090931221842766,"231":-0.018789617344737053,"232":0.0533529557287693,"233":0.03669802471995354,"234":-0.1468401551246643,"235":0.04994884133338928,"236":-0.07831808924674988,"237":0.519111692905426,"238":-0.17160511016845703,"239":-0.6884772181510925,"240":-1.0227373838424683,"241":-1.0491247177124023,"242":0.9907473921775818,"243":-0.8745448589324951,"244":-0.9028548002243042,"245":0.5231856107711792,"246":-0.9980801343917847,"247":-0.8854841589927673,"248":-0.9513998627662659,"249":1.2381631135940552,"250":-0.9053834080696106,"251":-0.9424317479133606,"252":0.9225651025772095,"253":1.0297642946243286,"254":-0.8587811589241028,"255":0.921775758266449,"256":-1.1343536376953125,"257":0.5323610305786133,"258":-0.2832624018192291,"259":0.24029682576656342,"260":0.6646718382835388,"261":-0.23599855601787567,"262":-0.8218603134155273,"263":0.4507213830947876,"264":0.8260220289230347,"265":-0.4507956802845001,"266":0.6294479966163635,"267":0.7192923426628113,"268":0.7102857828140259,"269":-1.0418241024017334,"270":0.7262912392616272,"271":0.7466065883636475,"272":-0.7469326853752136,"273":-0.93379807472229,"274":0.6179810166358948,"275":-0.6203717589378357,"276":0.7110817432403564,"277":0.02524147368967533,"278":0.3961399495601654,"279":-0.7563133835792542,"280":0.5705209970474243,"281":-0.40518078207969666,"282":-0.6292718648910522,"283":0.4744534492492676,"284":0.573702871799469,"285":-0.30140769481658936,"286":0.5973820090293884,"287":-0.5999095439910889,"288":0.5903124213218689,"289":-0.5767865777015686,"290":0.6287785172462463,"291":0.620930016040802,"292":-0.5881355404853821,"293":-0.7346511483192444,"294":0.5835893154144287,"295":-0.5880935192108154,"296":0.5788231492042542,"297":0.7996368408203125,"298":0.29740971326828003,"299":-1.3697419166564941,"300":0.5004643797874451,"301":-0.07964014261960983,"302":-0.07298539578914642,"303":0.33874309062957764,"304":-0.14720360934734344,"305":-0.5644813179969788,"306":0.5277576446533203,"307":0.9792420268058777,"308":0.15677769482135773,"309":-0.4179317057132721,"310":0.3158940076828003,"311":0.12983383238315582,"312":-0.048485059291124344,"313":-0.4013698101043701,"314":0.057064488530159,"315":-0.03466690331697464,"316":0.26437345147132874,"317":-0.6697221994400024,"318":0.0028882615733891726,"319":0.3398914635181427,"320":0.014315781183540821,"321":-0.42150840163230896,"322":-0.04736998304724693,"323":-0.09879611432552338,"324":-0.021451041102409363,"325":0.22274431586265564,"326":-0.017248984426259995,"327":-0.3687683045864105,"328":0.1036142110824585,"329":-0.13391627371311188,"330":0.01675649732351303,"331":0.20960675179958344,"332":-0.10666581243276596,"333":-0.06987269222736359,"334":0.12496565282344818,"335":0.002213544910773635,"336":0.1718805730342865,"337":0.4916662573814392,"338":0.17537541687488556,"339":-0.46053218841552734,"340":0.02405974641442299,"341":0.1355951875448227,"342":0.10908231884241104,"343":-0.0564308799803257,"344":-0.1729966700077057,"345":0.021679053083062172,"346":-0.03086905926465988,"347":0.14100325107574463,"348":-0.052485141903162,"349":0.09159045666456223,"350":-0.13750812411308289,"351":-0.052493829280138016,"352":0.15720456838607788,"353":0.09131778031587601,"354":-0.1640489548444748,"355":0.09070830792188644,"356":-0.15154430270195007,"357":-0.29018592834472656,"358":-0.14603814482688904,"359":-0.06891714781522751,"360":-0.41355493664741516,"361":1.530212163925171,"362":0.5113450884819031,"363":-0.2460649311542511,"364":-0.5828255414962769,"365":0.2796052396297455,"366":-0.33311334252357483,"367":-0.44429001212120056,"368":-0.5196295380592346,"369":0.39478084444999695,"370":-0.3529530465602875,"371":-0.3951649069786072,"372":0.4314107894897461,"373":0.49847468733787537,"374":-0.4166523218154907,"375":0.4461698532104492,"376":-0.4805743396282196,"377":-1.1109230518341064,"378":-0.46742385625839233,"379":-0.33966749906539917,"380":-0.21916617453098297,"381":0.5348142385482788,"382":0.4251842498779297,"383":-0.26683151721954346,"384":-0.3326977789402008,"385":0.16164296865463257,"386":-0.3044802248477936,"387":-0.2188851237297058,"388":-0.29542821645736694,"389":0.39242494106292725,"390":-0.3420707583427429,"391":-0.33347198367118835,"392":0.30981144309043884,"393":0.4045540988445282,"394":-0.4027612507343292,"395":0.34484773874282837,"396":-0.31885233521461487,"397":-0.39440593123435974,"398":-0.07837796956300735,"399":-0.0895887240767479}},"forgetHidden":{"rows":20,"columns":20,"weights":{"0":0.3072516620159149,"1":0.38886237144470215,"2":-0.4543379843235016,"3":-0.43555647134780884,"4":-0.3278772532939911,"5":0.05735619738698006,"6":0.07383502274751663,"7":-0.2789533734321594,"8":0.2992876172065735,"9":0.38751745223999023,"10":0.34701114892959595,"11":0.33646008372306824,"12":0.7484413981437683,"13":-0.42795565724372864,"14":0.5735628604888916,"15":-0.3312395513057709,"16":-0.3526005148887634,"17":-0.3536708950996399,"18":0.31692737340927124,"19":-0.3069957494735718,"20":0.321174681186676,"21":0.3448195159435272,"22":-0.43603795766830444,"23":-0.4660338759422302,"24":-0.3374229073524475,"25":0.2785489559173584,"26":0.21356727182865143,"27":-0.4533560574054718,"28":0.3528561294078827,"29":0.3655317723751068,"30":0.373896986246109,"31":0.3457942008972168,"32":0.5899037718772888,"33":-0.5945174098014832,"34":0.5949472188949585,"35":-0.39996635913848877,"36":-0.4071730971336365,"37":-0.3584921061992645,"38":0.3515760004520416,"39":-0.40691420435905457,"40":-0.6190077662467957,"41":-0.5544832348823547,"42":0.13106513023376465,"43":1.047038197517395,"44":0.26540806889533997,"45":0.6061567664146423,"46":-1.6073552370071411,"47":0.48666900396347046,"48":-0.4296107590198517,"49":-0.40868303179740906,"50":-0.39649835228919983,"51":-0.5785728096961975,"52":0.9466875195503235,"53":-0.35050785541534424,"54":0.5529073476791382,"55":-0.02451903745532036,"56":0.5020150542259216,"57":0.5612276196479797,"58":-0.3709525763988495,"59":0.5951939225196838,"60":0.33414268493652344,"61":0.27890095114707947,"62":1.2562068700790405,"63":-0.24387240409851074,"64":-0.40111660957336426,"65":0.1542067676782608,"66":-0.6783607006072998,"67":-0.4943380057811737,"68":0.28296729922294617,"69":0.4896095395088196,"70":0.3277476131916046,"71":0.40102633833885193,"72":0.8860195279121399,"73":-0.8000811338424683,"74":0.6481336355209351,"75":-0.40253809094429016,"76":-0.4492849111557007,"77":-0.35378119349479675,"78":0.3559156656265259,"79":-0.37607696652412415,"80":0.5344698429107666,"81":0.4845839738845825,"82":1.0731207132339478,"83":-0.3029611110687256,"84":-0.4945524036884308,"85":-0.4828720688819885,"86":-0.01550588570535183,"87":-0.2881401479244232,"88":0.5475025177001953,"89":0.3340364098548889,"90":0.4029628336429596,"91":0.4092369079589844,"92":1.1855303049087524,"93":-0.8393265008926392,"94":0.8908509016036987,"95":-0.4869774878025055,"96":-0.41136255860328674,"97":-0.638140857219696,"98":0.22135493159294128,"99":-0.451691210269928,"100":0.6366412043571472,"101":0.4273031949996948,"102":-0.40650275349617004,"103":-0.7340622544288635,"104":-1.3818994760513306,"105":0.0039354651235044,"106":-1.262793779373169,"107":-0.06154582276940346,"108":0.24811096489429474,"109":0.20795027911663055,"110":0.3373764157295227,"111":0.3676462173461914,"112":0.5821377038955688,"113":0.17761558294296265,"114":0.4099637567996979,"115":-1.4113245010375977,"116":-0.6583335399627686,"117":-0.4717261493206024,"118":0.06094980239868164,"119":-0.32916131615638733,"120":-0.17610202729701996,"121":-0.2481275051832199,"122":0.8964598178863525,"123":-0.10186595469713211,"124":0.8335667252540588,"125":0.23828329145908356,"126":0.5747955441474915,"127":0.4827186167240143,"128":-0.2776857018470764,"129":-0.2184780389070511,"130":-0.2973156273365021,"131":-0.12260644882917404,"132":-1.5184001922607422,"133":0.46295365691185,"134":-0.6778056025505066,"135":1.0561927556991577,"136":0.17292273044586182,"137":0.18689340353012085,"138":-0.9076970219612122,"139":0.3403790295124054,"140":0.11379888653755188,"141":0.14215531945228577,"142":-0.9324498772621155,"143":-0.3092347979545593,"144":-0.04654381424188614,"145":-0.40518301725387573,"146":0.11879898607730865,"147":-0.20933091640472412,"148":0.12978018820285797,"149":0.09179183095693588,"150":0.1257939338684082,"151":0.20687364041805267,"152":0.5244309306144714,"153":-0.5801346302032471,"154":0.6506827473640442,"155":-0.17277999222278595,"156":-0.1052597314119339,"157":-0.18825487792491913,"158":0.16068407893180847,"159":-0.2040555626153946,"160":0.31605958938598633,"161":0.34152305126190186,"162":-0.42293602228164673,"163":-0.2969614565372467,"164":-0.3397384583950043,"165":0.31852927803993225,"166":0.27675753831863403,"167":-0.36899808049201965,"168":0.41736289858818054,"169":0.4182000458240509,"170":0.29747945070266724,"171":0.46057823300361633,"172":0.5671528577804565,"173":-0.6680930256843567,